3648 80
9791190776820 -0.40907305 0.6454338 0.0742148 -0.5595916 -0.8662226 0.23189293 0.023311207 0.13214454 -0.19340733 0.24913792 -0.26218063 1.0063738 0.6931056 -0.62347573 -0.23904052 0.4757601 -0.65634006 -0.2997615 0.19691178 0.43686655 0.4472419 0.13772188 0.24163835 0.018913817 0.81221133 -0.2795637 -0.9963473 0.09441055 0.26495892 0.38033107 0.023202116 -0.017949345 -0.35236266 0.7140144 -0.15544038 0.3311467 -0.5510307 -0.76728904 -0.12585156 0.5004597 0.50662774 -0.82585704 0.4888622 -0.656265 -0.14761342 -0.14201266 -0.5386762 -0.08933302 -0.28458706 -0.35854733 -0.027135005 0.16350566 0.23395841 -0.28502235 -0.10510501 -0.006506715 0.19171484 -0.6922852 0.25908417 0.014033923 -0.5170588 0.04296414 -0.37717476 -0.06614771 0.7348841 -0.36228707 1.3761276 0.19941151 -0.45804748 0.05553984 -0.45631993 -0.31490728 -0.12545712 0.22801323 -0.47815955 0.3381665 -0.12084045 0.03806066 1.0717353 -0.18907346
9788954759335 -0.21467178 0.3366687 -0.0450679 -0.49366406 -0.6310912 0.0007701631 0.012347988 -0.11613936 0.29567945 0.28648707 -0.20871574 0.4860159 0.44041103 -0.65473974 -0.32771134 0.440151 -0.6770837 0.12807012 0.30190045 0.44262293 -0.1070917 0.8881974 -0.02056948 0.08818727 0.34687424 -0.63592505 -1.1677293 0.09593144 0.15169661 -0.20132963 -0.23054016 0.42451975 -0.29996622 0.4421317 0.11235261 0.5971933 -0.36621803 -0.66264886 -0.0083855605 0.95173335 -0.14733332 -0.8428515 0.07549609 -0.51707953 -0.12759916 0.09995933 -0.44262534 0.18060388 -0.39365655 -0.19585733 0.21350731 0.30298647 0.43740958 0.01587128 0.006017579 -0.13551444 0.2987578 -0.89370215 0.18254842 0.12541346 -0.5594604 -0.35409868 -0.4182127 -0.27695835 0.7269961 -0.023791056 1.1649778 0.0385584 -0.340717 0.3530127 -0.24797001 -0.08758511 -0.41794395 -0.010622887 -0.0085261455 -0.09292832 -0.20269698 0.016508395 0.97317666 0.0913108
9788934986652 -0.078756 0.24378815 0.39832738 -0.5561653 -0.8663786 0.33157122 0.25351337 0.3192184 -0.009007163 0.22186309 -0.5116845 0.4356577 0.68878883 -0.11108774 -0.12791666 0.12340396 -0.75478727 0.3026842 0.31812057 0.31271914 0.7617991 0.31224704 0.48405725 0.02317416 0.7217046 -0.5355371 -0.5619326 -0.18273768 0.5997441 0.5302739 -0.16662955 -0.17795368 -0.43048528 0.5518288 -0.005402484 0.4540695 -0.68306077 -0.8524857 0.033418212 0.35272762 0.29961303 -0.5943217 0.34942347 -0.79969996 -0.3331945 0.009125066 -0.6845947 0.20413557 -0.28168327 -0.015555275 -0.026567444 0.21239261 -0.016224671 -0.36459315 0.11653626 -0.49479538 0.44977686 -0.6548862 0.4096896 -0.5516165 -0.81943387 0.30824843 -0.008158227 0.03453331 1.0168278 -0.49898267 1.1789675 0.62287366 -0.5851979 0.2331433 -0.6844925 -0.06424142 0.033377666 0.55723333 -0.72558475 0.14359687 -0.2325055 -0.2878527 0.66880524 -0.0067219418
9791188700721 -0.29390407 0.6863234 -0.25064227 -1.0720053 -0.81552106 0.097605154 -0.2927975 0.11158876 -0.4738962 0.16768585 -0.822788 0.866447 0.40293857 -0.5571288 -0.28848606 -0.008336296 -0.59920913 0.19632328 0.368571 0.14894131 0.44672444 -0.029691853 0.55373245 -0.0051584574 0.4079476 -0.6401811 -1.1241549 -0.8163646 0.8648774 0.036435228 -0.14295058 0.865074 -0.32754013 0.66801226 -0.3663155 0.89187634 -0.76499337 -0.9432251 -0.35552043 0.42474347 0.80687034 -0.73657924 0.30959678 -1.3974499 -0.4440298 0.5804518 -0.8596012 0.34638846 -0.09069616 -0.2874168 0.32980686 0.24265015 0.48275864 -0.4595406 -0.2563801 0.5672336 0.20624644 -0.26785445 0.5285653 -0.3949362 -1.0322995 -0.15218456 -0.45852086 -0.1781838 0.93206006 0.16127577 1.5002195 0.72402376 0.2351029 0.3149743 -0.32685274 -0.14082071 -0.16586727 0.4488267 -0.6107119 0.05827161 -0.6760164 0.18458259 0.76413715 0.3436223
9791191347456 0.34677932 0.79257894 -0.06480356 -0.45678186 -1.1130599 0.0389277 0.08216226 0.21148954 -0.022415666 -0.11057287 -0.44957024 0.68250525 0.5729402 -0.5200016 -0.51054597 0.1115627 -0.5584282 -0.23193222 0.21033438 0.70526063 0.39618763 0.14472422 0.5176237 -0.15119867 0.9152794 -0.15109697 -0.3382643 0.13188682 0.5790852 0.78292197 -0.1914979 -0.37620682 -0.4261034 0.6541797 0.32266968 0.2481298 -0.6359615 -0.738242 0.23495153 0.2433593 0.26665726 -0.7126852 0.5884814 -0.013703586 -0.051720813 -0.046865076 -0.597156 0.47223863 -0.630106 -0.5574806 -0.32460642 0.21324994 0.022559667 0.15477529 -0.2623399 -0.1045534 -0.097168766 -0.48520353 0.15112458 0.07662397 -0.6031232 -0.13911682 -0.4019682 0.41144583 0.8288124 -0.060793433 0.55233306 0.5141339 -0.35293636 0.0045979163 -0.37458536 -0.29815063 -0.42543358 -0.1655193 -0.30065125 -0.09837364 0.054713782 -0.077752806 0.90307957 -0.23685218
9791130677880 -0.20616972 0.6205024 0.12406096 -0.51440144 -0.89080834 0.38265765 0.124650955 0.42504534 0.0061218753 0.16343704 -0.58488685 0.54535586 0.564362 -0.32839033 -0.06888097 -0.1731637 -0.7853183 -0.061945915 0.23371096 0.12037928 0.62103194 0.027410261 0.5246664 -0.07397086 0.627703 -0.60856766 -0.7668905 -0.4559065 0.4713907 0.37772092 -0.30431166 -0.24178822 -0.39619914 0.32675576 0.13203146 0.39353946 -0.730776 -0.45528287 -0.107395515 0.081222154 0.20806684 -0.6770065 0.3938868 -0.74212843 -0.6108923 0.1314817 -0.56974757 0.20927784 -0.3088361 -0.46850362 -0.013297502 0.1284757 0.03001152 -0.26198542 -0.0028539554 -0.11457158 0.45499697 -0.29421684 0.5773403 -0.38588977 -0.51904213 -0.1064168 -0.10466235 -0.08008763 0.6888056 -0.35175326 0.82860863 0.5224788 -0.20791082 -0.010831415 -0.5583834 -0.12974958 -0.13123904 0.42624 -0.30232495 0.0027921032 -0.014014905 -0.34074834 0.6040867 -0.3181468
9788947547659 -0.22037941 0.426362 0.121368885 -0.37786582 -1.1354074 -0.22151633 -0.07576899 0.32683858 -0.17482379 -0.2590975 -0.6486595 0.5458066 0.48112896 -0.68137395 -0.14134441 0.25196514 -0.66485524 0.110556334 0.32979155 0.3038475 0.84052783 0.28614312 0.44171703 0.22256179 0.7039774 -0.10836635 -0.8878496 -0.8250642 0.5340799 0.7669436 0.025206162 -0.035917323 -0.7266882 0.43371388 0.035683565 0.33036405 -0.95342964 -0.9241209 0.01015322 0.5489708 0.19799083 -0.7588108 0.8790604 -0.75753343 -0.59462 0.31669685 -0.98833007 0.35897854 -0.1417366 -0.5455312 0.09575957 -0.12175133 -0.11528917 -0.07587658 -0.26618257 -0.4928702 0.32116067 -0.67587477 0.585099 -0.195829 -0.657624 0.022131715 -0.19625159 0.068068415 1.0692405 -0.40106285 1.117826 0.2804287 -0.46503088 0.11869604 -0.81504726 -0.10013769 -0.53133875 0.04215802 -0.47647506 0.56207293 0.0014474941 -0.3313516 0.78132105 -0.17455097
9791190846301 -0.07657012 1.0057666 0.23588334 -0.76500326 -1.023731 0.34717157 -0.25420353 0.7447809 -0.059691567 -0.017533505 -0.76760685 0.769152 0.8204537 -0.25971678 0.20940858 -0.38022837 -0.7760529 0.38406116 0.8243682 0.5606121 0.6383195 0.13769764 0.4387413 -0.10306662 0.7157778 -0.42934033 -0.74387985 -0.7399489 0.8104151 0.5866107 -0.3951987 0.09830215 -0.3093109 0.66632104 -0.063776426 0.52066 -0.62694687 -0.8681602 0.12063976 0.09034577 0.31866345 -0.939832 0.5116686 -1.0099074 -0.7617433 0.047921024 -0.67747635 0.3114553 -0.34558544 -0.5637694 0.2679631 0.005330184 0.48327583 -0.103341445 0.11262817 0.08247997 0.4131256 -0.52346087 0.6707881 -0.32669464 -1.0390453 -0.21834676 -0.08887258 0.23253947 1.4242116 -0.2713806 1.4446399 0.7209178 -0.24378978 0.038981725 -0.44477904 0.17055948 -0.4910207 0.18296118 -0.4592288 -0.036307197 -0.3127143 -0.31743675 0.41208914 0.15533072
9788997396658 0.10984951 0.2533694 0.27395314 -0.61923593 -1.1050134 0.041850664 -0.11975399 0.33099827 -0.15274227 0.083171345 -0.5925835 0.73596674 0.5049714 -0.43216795 -0.3694235 -0.1693538 -0.5347677 -0.11865725 0.48495927 0.27508032 0.6293267 0.16282365 0.8482837 0.45905793 0.99116635 -0.26008344 -0.9738552 -0.39630082 0.88820237 0.94071376 -0.37790665 -0.3656788 -0.37931076 0.7025434 -0.109757066 0.3727205 -1.0218698 -1.052167 0.14169984 0.5808624 0.3687239 -1.2964634 0.8663602 -1.030309 -0.29233897 0.35536158 -0.8573546 0.12367536 -0.17672771 -0.6635202 0.32822382 0.055702206 0.059358884 -0.2560355 -0.034708366 -0.30213138 0.32416305 -1.1901534 0.15973523 0.12851332 -1.0600173 0.39242104 -0.15278791 0.24333097 1.3449988 -0.5192573 1.2645487 0.481227 -0.43092233 0.19812094 -0.79142964 0.10366163 -0.31472197 0.49601868 -0.79793 0.33706775 -0.091677606 -0.57111174 0.9182177 -0.17262658
9791164063932 -0.27431744 0.27820897 -0.024874806 -0.6722555 -0.61979157 0.66288406 0.2894311 -0.11765745 -0.14009042 -0.0022868437 -0.19317357 0.6733756 0.50456256 -0.36315122 -0.05961499 0.13561147 -0.58559823 0.07266337 0.5422993 0.17169683 0.48060998 -0.11273972 0.50879955 -0.098273404 0.56277853 -0.57887805 -0.609112 -0.08270189 -0.031925566 0.15443237 -0.27699557 -0.1176827 -0.73103213 0.26105675 -0.44878367 0.341705 -0.4849399 -0.7385669 -0.26982248 0.53379345 0.1665363 -0.3303991 0.18888547 -0.28366417 -0.32729763 0.13071133 -0.03163558 0.23639084 -0.18818137 -0.07615432 -0.4985335 -0.03711149 -0.07770664 -0.19892664 0.021464672 -0.17089655 0.2757924 -0.5636694 0.40774947 -0.17068955 -0.25580063 -0.048706632 -0.66388035 -0.58583874 0.45183352 -0.45488313 0.8681628 0.068533055 -0.70227146 -0.0032873084 -0.30728957 -0.1677874 -0.5474662 0.058911715 -0.2952667 0.401182 -0.20907685 -0.6358639 1.0121409 -0.24452381
9791196848194 0.26942807 -0.2184406 -0.2621121 -0.27916458 -1.2270741 -0.07331081 0.08957484 -0.44323972 -0.2240367 -0.16484018 -0.84034395 0.58214325 0.9492511 -0.45349744 -0.9476681 0.12100701 -1.2810369 0.37283233 0.6907462 0.017922973 0.22068407 0.7307607 -0.033832934 -0.22663675 0.64472157 -0.7621245 -1.0440285 0.12622446 -0.09314649 0.34155983 -0.56062025 0.2211829 -0.26918405 0.49367797 -0.6677681 -0.41972122 -0.6686826 -0.92988974 0.19101703 0.4146488 -0.14468206 -0.6945175 0.27353862 -0.8029756 -0.012021865 0.43691385 -0.7063428 0.26405326 -0.66693753 -0.27041408 0.8352746 0.19012213 -0.1394586 -0.1505408 -0.28342903 0.13692375 0.568415 -0.6755181 0.46139273 0.7870898 -0.6951094 0.53071547 -0.72913975 -0.59473073 0.4544013 -0.28445497 1.1735759 0.49637598 -0.20817076 0.6462584 -0.0070638964 -0.20078829 0.03254935 -0.24785878 -0.56632036 -0.15772893 0.4881509 -0.90635794 0.9300255 0.34191385
9791158732202 -0.21047917 0.4803933 0.022987459 -0.24017863 -1.2446469 -0.34347504 0.24546814 0.122480616 -0.04232325 0.062355097 -0.50496304 0.78983533 0.7107691 -0.5339107 -0.47584584 0.3336728 -0.69954014 -0.05876044 0.2979431 0.23352955 0.47778365 0.38197988 0.14788401 0.53257453 0.73794496 -0.7566715 -1.0552986 -0.12084464 0.15011643 -0.023743501 0.0011305287 -0.08720781 -0.52930415 0.28835422 -0.2571888 0.30488265 -0.6678105 -0.7581347 -0.16861711 0.41731545 -0.20653655 -0.6859538 0.3794738 -1.0812176 -0.28663176 0.25082082 -0.77358806 0.17660229 -0.8587405 -0.39847228 0.34162107 0.087934226 -0.011462415 -0.31283215 -0.20077664 -0.31178406 0.63404214 -0.8426102 0.34937978 0.38668197 -0.736309 0.25455242 -0.63000154 -0.35029218 0.6532414 0.19135998 1.3264998 0.24271972 -0.42351723 0.02032384 -0.54143363 -0.35499424 0.0825771 0.001585136 -0.7476905 0.115433715 0.47334486 0.012651637 1.2623343 -0.3238982
9791166373848 -0.5229123 0.3081518 -0.009383278 -0.32376108 -1.0464783 0.2771383 -0.057505146 0.1532768 0.13238801 0.13827352 -0.5447071 0.47801328 0.20483774 -0.77498615 -0.300877 0.5362424 -0.79756373 0.09904504 0.12253607 0.42136598 0.14967267 0.621932 0.08362246 -0.13305904 0.42952815 -0.4686663 -1.2280451 0.15211639 0.22395763 -0.058730848 -0.20282772 0.2707942 -0.56084055 0.6232587 0.055378877 0.24519585 -0.39249307 -0.3789407 0.042854376 0.6262965 -0.004652998 -0.5010952 0.19988604 -0.94986475 -0.6432649 0.008065479 -0.4946145 0.25153586 -0.5157454 0.0152072515 0.08257095 0.28492004 0.5496896 0.049267042 -0.3096774 0.017170502 0.034200348 -0.63775975 0.36344597 0.07131071 -0.38579625 -0.24100874 -0.5807068 -0.5763106 0.6018454 -0.048388753 1.3900837 -0.07291439 -0.6590852 0.23066136 -0.49837196 -0.052694686 -0.36233744 -0.41954854 -0.07078439 -0.04343967 0.22453824 -0.057697818 1.2077551 0.097839415
9791196533007 -0.16464324 0.07996308 -0.382449 -0.31885862 -0.42999655 0.46736488 0.47500446 -0.16140097 -0.13842979 0.7625599 0.18491557 0.42128804 0.55568343 -0.40415886 -0.051073547 -0.19140992 -0.8118526 0.5655078 -0.31964844 0.23716731 0.9031517 -0.23931783 -0.06899919 0.115729816 0.3441494 -0.53907067 -0.5728246 -0.40769225 0.60092175 0.08487904 -0.35903063 -0.2165832 -0.27979523 0.35027614 0.09371056 0.4433348 -0.44909796 -0.29403374 -0.27241537 0.3162959 0.034646396 -0.1613051 0.5390716 -0.40917793 -0.39590317 0.13252768 -0.23456566 0.49979782 0.047574475 0.060890093 -0.663207 -0.07229607 -0.1432457 0.042311184 -0.3473474 0.2719705 0.3739579 -0.058041003 0.37460768 -0.5229879 -0.39630538 0.18125238 -0.6313006 0.16224615 0.86476034 -0.23059337 0.017418917 0.46075696 -0.6560192 -0.03542944 -0.38753998 0.010248838 -0.5487399 -0.5086369 -0.19037062 0.32296556 -0.45311624 -0.3921269 0.43717596 -0.23121329
9791160077544 -0.5753537 -0.039648212 -0.5014881 0.1313817 -0.6706288 1.1550953 0.37977308 -0.21854497 -1.0872806 0.7678089 -0.05802321 0.34994513 0.33123818 0.41592988 0.4995074 -0.3695291 -0.2626644 0.7765054 -1.0121875 0.55631864 0.18463385 0.24689037 -0.26550594 -0.44000185 0.1534817 0.003114574 -0.6955095 0.10530628 0.23413508 -0.3851668 0.4798844 -0.050121553 0.020564377 -0.2112126 -0.062037908 0.6507816 0.096811555 -0.052569184 -0.20014592 -0.4336129 0.06907725 0.12544727 -0.11699801 -0.8109882 -0.5505122 0.48744872 -0.57273257 0.5992056 -0.15365718 0.21189646 -0.16045198 0.27197966 0.0030411498 0.43562758 0.3596398 0.9778066 -0.55469114 0.3968408 0.5734103 -0.11186702 -0.15438212 0.1410162 -0.5884809 0.090995245 0.7373341 -0.59393466 -0.19390821 0.7014592 -0.8440521 -0.11620502 -0.82252216 -0.07432905 0.22696574 -0.3842565 -0.01688047 -0.47606805 0.079414956 -0.35818774 0.4821953 0.23569618
9788915107908 0.11642724 -0.07940551 0.05927965 -0.40316737 -0.64187413 0.6611036 0.13657266 -0.05554205 -0.26056048 0.46361896 -0.10892838 0.28434774 0.41002482 0.14213629 0.081907675 0.15619908 -0.78617424 0.7252503 0.4922916 -0.17250323 0.70272565 -0.01302568 0.44878513 -0.12466812 0.11272496 -0.6440748 -0.081376456 0.32809755 -0.16827072 0.1334702 -0.31954172 0.15166508 -0.17778888 0.65023524 -0.055113394 0.71275365 -0.4547468 -0.71144426 0.14862607 0.22375745 -0.029291268 -0.10952477 -0.010799779 -0.7516466 0.099593215 0.10300791 -0.24248354 0.9986971 0.03636366 0.27962327 -0.42643273 0.3601809 -0.012904269 0.13811818 -0.096843876 -0.4278004 0.05980616 -1.0413036 -0.059325352 -0.5609984 -0.7354788 0.32707512 -0.23266818 -1.0473166 0.7430105 -0.6518768 0.32760113 0.57487404 -1.1705942 0.10172809 -0.022652326 0.34095782 -0.47546875 -0.120356 -0.24548028 -0.035866838 -0.65007496 -0.5875036 0.6936197 -0.013924766
9791195795529 -0.19862987 0.4307704 -0.36469468 0.17678119 0.06328387 0.72036874 0.65575564 -0.44870722 -0.36908334 0.7571774 -0.114259794 0.2876351 0.84170276 0.06959995 -0.49123603 0.4178953 -0.9691422 0.5831934 -0.29015982 0.37860703 0.5904574 -0.063815676 0.18310075 0.24837406 -0.08229659 -0.37652907 -0.6172588 0.3191149 0.17361341 0.048844557 -0.56670874 0.103292085 -0.51464194 0.44496688 0.045979388 0.3915416 -0.57723385 -0.17647626 -0.22841959 0.12729248 -0.19127305 -0.10596373 -0.13200106 0.03875031 0.54527026 -0.104295895 -0.12533095 0.7520037 -0.37354517 0.4806542 -1.15713 -0.32558274 0.042370275 0.077571616 -0.04979402 0.15178676 -0.06919082 -0.5266279 0.16327816 -0.40875962 -0.87780684 -0.023024084 -0.5096083 -0.45411238 0.9806432 -0.039050676 -0.13457179 0.6230934 -1.4786434 0.42792726 -0.17213099 -0.30648795 -0.43833914 -0.82711565 0.07926549 0.16061582 -0.51600426 0.023635881 0.65208465 0.047155555
9791186494431 0.02863561 0.12886606 0.3303401 -0.2188296 -1.0155771 0.35903993 -0.32110393 -0.071522035 -0.56916827 0.4423577 -0.6527962 0.8414953 0.44310614 -0.13249779 0.4655354 0.6777708 0.012010056 -0.04131181 0.07447081 -0.608734 0.9160668 -0.04037996 -0.6227555 -0.10427708 0.16065574 -0.6451524 -0.36353278 -0.3255333 -0.17397563 -0.5840448 -0.5677851 0.00020555763 0.2562045 0.74442846 -0.51441365 0.5606416 -0.5563825 -0.82212275 -0.3252004 -0.08477027 -0.07216557 -0.7919903 -0.13570268 -0.7512736 -0.14882085 0.19502677 -0.68856615 0.6308958 -0.08480806 0.081667915 0.36299294 -0.50245124 0.30256873 0.054021396 0.3812349 -0.083955005 -0.0067928815 -0.18268898 -0.25024465 0.32639006 -0.4124902 -0.10585005 -0.32102525 -0.41319194 0.7886464 -0.42166924 1.3711218 0.39203286 -0.32055742 0.4110273 -0.084451094 0.004598642 -0.84847236 -0.24168119 0.04236339 -0.06517018 -0.58030546 -0.20420904 0.4774486 0.05732283
9791185402475 -0.2112334 0.078701556 0.21340472 -0.52222466 -0.73746467 -0.14587066 -0.55248636 0.25042906 -0.12625656 0.08988099 -0.23502038 0.7308603 0.55191445 -0.6687367 0.069953665 -0.03581391 -1.138377 0.40058607 -0.023092806 0.13221022 0.7430925 -0.049883503 0.3562852 0.25805905 0.6344195 -0.8693613 -0.53874046 -1.0032103 0.5533441 0.4679953 -0.6320929 0.46537486 -0.5620257 0.40025565 0.21964496 0.77932256 -0.23605727 -0.60328233 -0.1179389 0.30940297 -0.030548535 -0.6925312 0.18295754 -0.6647543 -0.8785242 0.73162633 -0.7010466 0.09315087 -0.10950504 -0.5329201 0.18371902 -0.31451744 -0.18784319 -0.2445701 -0.55098647 -0.39330038 0.27017128 -0.6153063 0.3544933 -0.19087897 -0.5593022 -0.111251615 -0.38385683 0.11139667 0.7098335 0.078788996 0.5139712 0.5811499 0.15135445 -0.24075355 -0.1897703 0.07315721 -0.69486946 -0.18187906 -0.16895755 0.16175562 -0.7761895 -0.35071385 0.73172426 -0.0533386
9791190275026 -0.21458644 0.75887096 0.40281826 -0.4076456 -1.0864594 0.18574102 -0.027525613 0.4669025 -0.25007567 -0.10622168 -0.5584438 0.7476613 0.5531984 -0.06480854 -0.19548832 -0.28599873 -0.85182285 0.055291954 0.32583648 0.80694014 0.33535415 0.6773389 0.37925842 -0.10923848 0.47764164 -0.43033245 -0.7574576 -0.61967254 0.719621 0.36705488 -0.15386507 0.09993609 -0.549709 0.8005577 0.4659665 0.120748386 -0.57187104 -0.65894026 -0.2745984 0.6367749 0.27146444 -1.0462322 0.8651167 -0.68721825 -0.28146976 -0.16589196 -0.75231594 0.14493197 -0.4053748 -0.38693628 0.28584632 0.15711519 0.27993184 0.07772647 -0.18281166 0.067137375 0.17947584 -0.7078653 0.40103802 -0.3423219 -0.527385 -0.037268635 -0.51362145 0.35512698 1.1251422 -0.22619863 1.1319158 0.6382122 -0.24877718 0.29470813 -0.8950002 -0.021680942 -0.1417947 0.2667244 -0.7518797 0.27539486 0.031780083 0.2956867 0.34251 0.20392382
9791191426328 0.50059247 0.12979528 0.14755434 -0.09746613 -1.0754305 0.1374434 0.18764429 0.13700795 -0.05872333 -0.11185295 -0.73466915 0.5452806 0.6200913 -0.2453194 -0.51839364 0.6169323 -0.7537759 0.033469908 0.6713281 -0.10573414 0.20308614 0.30188927 0.12936151 -0.26888567 0.4445894 -0.44310185 -0.6393536 0.6146136 -0.19292988 0.23866837 -0.53836125 0.089991584 -0.53130877 0.62461734 -0.10218469 -0.0725964 -0.7752098 -0.81200975 0.0061862576 0.20677401 0.363799 -1.1154832 0.28392124 -0.5684385 0.002024609 0.084477365 -0.876333 0.4991018 -0.85529095 -0.28502822 0.43832302 0.3412054 -0.25613576 -0.24709497 0.03786393 0.17764995 0.26934198 -0.88173974 0.6220628 0.5750715 -0.84910566 0.11054603 -0.52328724 -0.25307465 0.91166455 -0.32692933 1.1818353 0.6631645 -0.5446431 0.5233481 -0.18021187 -0.38745603 -0.24665862 -0.37676495 -0.07109242 -0.19066274 0.26945353 -0.7335811 1.0486071 0.06672631
9791191347470 -0.40775898 -0.19617698 0.120590776 -0.6556896 -0.65769243 0.29605764 0.37965852 0.11131262 -0.6745392 -0.027860712 -0.36979616 0.90920025 0.59267086 -0.2611932 0.01780967 0.0054782685 -1.3480251 0.29580587 0.9868632 0.2706746 -0.029165033 0.077539824 0.37125453 -0.06836828 0.8041259 -1.0844893 -0.687721 -0.18747397 0.119871736 -0.11460317 -0.100961626 0.33006507 -0.77799547 0.48307425 -0.5122863 0.2250447 -0.25990683 -1.2320404 -0.3443714 0.6005467 0.5067132 -0.30326203 0.22376369 -0.8279043 -0.240136 0.859087 -0.19500701 0.14284465 -0.6978937 -0.24871193 -0.11412024 0.1353826 -0.15864 -0.6142418 0.3494264 -0.058285706 -0.055766582 -0.63035303 0.74426603 0.026410144 -0.6416573 0.37617958 -1.0731809 -0.6091796 0.7725914 0.005498485 0.88249135 0.25672588 -0.095199265 0.09206912 -0.17837419 -0.1446503 0.18800333 -0.13976324 -0.24028054 0.18176308 -0.033488303 -0.6396797 1.2683102 0.2536601
9791195616169 -0.6294893 0.11319178 -0.3672096 -0.20409355 -0.2660474 0.592441 0.34699166 -0.08846987 -0.3155114 0.6503795 -0.30805722 0.29860777 0.7270998 -0.02913705 -0.3515454 -0.094273314 -0.7118248 0.80085295 -0.27289122 0.20640917 0.6330198 0.19528961 -0.170277 0.015327775 -0.009642965 -0.16544828 -0.85068625 -0.011193609 0.26118103 0.09204311 -0.32987186 0.059282985 -0.41541508 0.63577044 0.024931593 0.45175648 -0.3645666 -0.6438598 -0.38695523 0.6297405 -0.06425825 -0.1436435 -0.17481205 -0.45372525 0.11393633 -0.17907996 -0.2596263 0.6606262 -0.09654268 0.3454595 -0.6254023 -0.122701116 0.5537303 0.07289228 -0.15355046 0.098586835 0.08067957 -0.5117222 -0.14295273 -0.34673026 -0.59943527 0.25409365 -0.41180375 -0.7004202 1.0248399 -0.33621812 0.485201 0.52744836 -1.3172429 0.49237788 -0.279549 -0.006265919 -0.2980625 -0.4004157 -0.086398154 0.16232912 -0.5108104 -0.31204954 0.5790811 0.17886224
9791191426311 -0.06607792 0.23705302 0.37504283 -0.68706775 -1.0383524 0.47151574 -0.12731802 0.30802843 -0.13071625 -0.07202163 -0.305493 0.50008243 0.19065198 -0.4820906 -0.18879709 -0.38363907 -0.44771007 -0.3228486 -0.15262456 0.46824664 0.43002453 0.0033958033 0.46706802 0.35503343 0.84485465 -0.6850475 -0.7816018 0.21785612 0.14038622 0.2450088 -0.6845725 -0.12254759 -1.0731598 0.5251769 -0.19846326 0.28915516 -0.8491202 -0.84894186 0.1810914 0.23727776 0.030179923 -0.9850416 0.4386039 -0.053251 -0.16622385 0.27766412 -0.6307812 0.2672648 -0.72180235 -0.58548903 0.16536331 0.16282092 0.13480571 -0.29827583 -0.41181588 -0.0021511337 0.11458017 -0.7355952 0.08011542 0.011142344 -0.913145 0.49193087 -0.27179077 0.009507386 1.1555064 0.020484118 1.355429 0.26230758 -0.8423055 0.100444525 -0.9363637 -0.48642737 -0.31884614 0.45670822 -0.25158027 0.0061120233 -0.18314944 -0.4267253 1.002709 -0.25273207
9791188007134 0.033584658 0.42840707 0.0009358855 -0.748878 -1.3079909 0.512595 0.18709147 0.62309885 0.16766179 0.013792041 -0.6641911 0.7301526 0.41525087 -0.3464256 -0.08229378 0.32455334 -0.4008163 0.22713132 0.50868994 0.31609523 0.9182302 0.5325184 0.6493572 0.2819563 0.6319819 -0.41298217 -0.69294876 -0.32081807 0.24091023 0.50894153 -0.029573143 -0.062062804 -0.6734821 0.58961546 -0.22974443 0.9178983 -0.6663292 -1.1031693 0.11124144 0.1860334 0.24783824 -0.934525 0.5449025 -0.94587094 -0.7666152 0.30556503 -0.9356346 0.078439526 -0.5516864 -0.33676425 -0.036092505 0.070334226 -0.1623931 -0.45679292 0.073256455 -0.38732368 0.7973978 -0.5940141 0.664233 -0.50468713 -0.9189732 0.2560331 -0.13607831 -0.00558391 1.2843548 -0.36593097 1.4121786 0.43073654 -0.74218106 -0.0008585849 -0.7419879 0.12036291 -0.35831922 0.31986818 -0.572426 -0.3184874 -0.3874147 -0.3075986 0.99690115 0.20995888
9791196316808 -1.1212096 0.40181157 -0.20395109 -0.47076774 -1.3080746 0.28558916 -0.11311127 -0.0034333325 -0.08553614 -0.14644325 -0.6527643 0.39068952 0.31377354 -0.36270285 -0.5215982 0.7005533 -0.8564754 0.47808585 0.16695511 0.3829989 0.30565226 0.3896319 0.030398 0.017354535 0.27291024 -1.147531 -1.5216365 0.6988722 -0.10229102 -0.5650822 -0.13693628 0.56427556 -1.0852649 0.20287052 -0.55417216 0.5911431 -0.376005 -0.25829917 0.005246095 0.26417783 -0.16818221 -0.2289227 0.25445482 -1.4497834 0.20901844 0.57086664 0.0052314107 -0.083039664 -0.059853755 -0.12445265 0.5997154 0.17417999 -0.14545709 -0.2421939 -0.2624748 0.12711039 0.44826123 -0.77031386 0.20245038 0.02914265 -0.47883064 0.25240904 -0.41524613 -0.85672194 0.45715296 -0.47378227 1.5318755 0.57112104 -0.010697835 -0.04010034 -0.15032384 -0.2699646 -0.25634912 0.03318242 -0.31467032 -0.34864613 0.201232 0.21913752 1.2951853 0.20665458
9788960499225 -0.5380464 0.12487485 -0.3081454 -0.15184012 -1.448743 0.05883115 0.71409136 -0.11245212 -0.40066078 -0.0080971755 -0.7397059 0.68583906 0.3195456 -0.25895897 -0.4923059 -0.11607327 -1.4647615 -0.11350834 0.7122369 0.0434322 0.0044506188 0.8696544 0.21600887 0.15020502 0.6253107 -0.8493651 -1.0274312 0.33580977 -0.4073063 -0.13897943 0.32451507 0.39089534 -0.28521127 -0.076523185 -0.41270414 -0.08083359 -0.6267514 -0.4824711 -0.04422937 0.4198861 -0.16721092 -0.48255727 -0.17339873 -0.930816 0.11179841 0.57327324 -0.18736425 0.26336887 -0.20532066 -0.87613094 0.49500918 0.1345317 -0.1601307 -0.10025341 -0.008091577 -0.1732255 0.588144 -1.3339362 0.014556442 0.47783047 -0.82227665 0.39619708 -0.65959424 -0.86369526 0.92426205 0.12323808 0.528631 0.1444948 -0.36418697 0.32728323 -0.47001547 -0.16759548 0.15560564 -0.0062938305 -0.05183132 0.053692743 0.2977566 -0.1958451 1.1479304 0.08586386
9788960499119 0.25242862 -0.4083752 -0.52638006 -0.076218344 -1.478612 -0.3209356 0.10085424 -0.725217 -0.50174505 -0.54567975 -1.2152861 0.46887407 0.90307695 -0.40156907 -1.0695332 0.32011813 -1.520431 0.32217392 0.9830924 -0.19098136 -0.20447399 1.0718887 -0.14143057 -0.5594326 0.82494295 -0.88717383 -1.3265294 0.16716991 -0.40626052 0.15117945 -0.2214319 0.49300227 -0.3730616 0.3926337 -0.8321433 -0.6978329 -0.94244117 -0.82330614 0.38487858 0.3640523 0.24889633 -0.65116423 0.013580019 -0.58603513 0.38908592 0.42043728 -0.5675296 0.32130837 -0.65626127 -0.7458021 0.7601765 0.47600156 -0.25632977 -0.12645978 -0.16707876 0.18243423 0.49745253 -0.7584196 0.27244613 0.95432746 -0.841984 0.14787881 -0.9052233 -0.78671503 0.50133884 0.020348476 1.1239802 0.20771503 -0.09506936 0.8947364 0.09135774 -0.5692336 0.2228474 -0.5982137 -0.34202605 -0.19406919 0.9790711 -0.80948913 0.92080766 0.41851306
9788952736574 -0.33292896 0.8025313 0.30234098 -0.41116542 -0.34892225 0.14258619 -0.016036194 -0.030623596 -0.35250086 0.41303176 0.1406556 0.73559874 0.9751434 -0.44123402 0.06398681 -0.21226983 -0.8930646 -0.050321624 -0.01898431 0.29291472 0.19569908 -0.044289067 0.45062682 0.031883616 0.9105 -0.4599763 -0.76234096 -0.32453734 0.30614093 0.5263709 -0.5271396 -0.090836816 -0.17921656 1.3716394 0.19397694 0.24228108 -0.7820186 -0.7759588 -0.3350179 0.5909986 0.21916345 -1.027578 0.49603984 -0.40444362 0.17078872 -0.44045046 -0.24200912 0.5011925 0.008190105 -0.3696972 -0.557116 0.11622272 0.5531511 -0.1394943 -0.3490268 -0.18584968 0.052809972 -0.59613365 -0.11913094 0.18301268 -0.94436973 0.08376191 -0.091416076 -0.17120616 1.0555066 -0.18869117 0.5061269 0.6111342 -0.89439785 0.35829607 -0.39977023 -0.21839151 -0.8782585 -0.19793028 -0.2991107 0.52712065 -0.7434356 -0.3650817 0.50235933 -0.18916158
9791165217556 -0.31160483 0.19078095 -0.51199913 -0.13102175 -0.33838233 0.9271025 0.30754724 -0.26149404 -0.65304345 0.9571783 -0.23368645 0.34886324 0.3173153 0.30778173 -0.10670022 -0.9877196 -0.9766082 0.5103276 -0.662112 0.25123665 0.20446685 0.34237802 -0.2886316 -0.24589546 0.1557324 -0.34583417 -0.98091406 -0.17631418 0.44991162 -0.06480019 -0.05482901 0.17777139 0.23866034 -0.14374028 -0.11824806 0.3533762 0.020950753 0.11174784 -0.38142124 -0.24410044 -0.46586618 -0.17530131 -0.06284737 -0.21963054 -0.609437 0.3860753 -0.31266454 0.60761344 -0.5798225 0.0044676173 0.00723966 -0.124213584 0.23477793 0.11949089 -0.14531611 1.0312419 -0.10804065 0.048502933 0.47482172 -0.038945686 -0.28562883 0.36908615 -0.7575611 0.05741803 0.61108035 -0.083658025 -0.116673216 0.52782226 -0.47725123 -0.15369318 -0.19810842 -0.09050402 -0.14505598 -0.06804577 -0.16454948 -0.2829647 -0.451539 -0.31854722 0.36738393 0.253415
9788925564081 -0.017290786 0.21862237 0.8819668 -0.7332915 -1.0936495 -0.016842622 -0.7428982 0.28201547 -0.2658946 0.21848546 -0.5474544 0.71811664 0.9612433 -0.43914172 0.2701587 0.5277391 -0.90307206 -0.1348484 1.0274546 -0.9315056 0.9852409 -0.80109274 0.28438613 0.43504646 0.68255943 -0.44673142 -1.0571039 -0.05448911 -0.2432788 -0.15675382 -0.8144392 0.09995289 -0.22559355 0.44014388 -0.5207069 0.084369406 -0.84275997 -0.6414211 0.04275453 -0.49198243 0.043154478 -0.74629915 0.17102183 -1.2976184 -0.8122488 0.1925756 -0.66282994 0.08309531 -0.5204106 0.09738421 0.3105839 -0.43162015 0.021364115 -0.9071748 0.6180531 -0.20685512 0.20065969 -0.5435998 0.12872747 -0.1010258 -1.1594383 0.5113857 -0.815082 0.05476375 0.9638038 -0.39462048 1.2907741 0.5854641 -0.35697284 0.36490944 -0.27861348 -0.13661423 -0.18926826 0.5929608 -0.4631669 0.15395981 -0.18471369 -0.676668 0.9352124 0.045334544
9791157687534 -0.010934075 0.23760374 0.13992906 -0.13526243 -1.523402 0.021323426 -0.10634337 0.33585647 -0.12567466 0.117475264 -0.5671281 0.5670285 0.7571685 -0.13443808 -0.06669547 0.22238019 -0.47864738 -0.02454131 0.10526921 0.22673216 0.5878852 0.8415603 0.080767974 -0.054410074 -0.051719956 -0.3609148 -0.64092857 -0.23390071 0.12209106 0.3029236 -0.08523884 0.11299245 -0.17425199 0.39077955 0.30855206 0.13694674 -0.6121111 -0.6561213 -0.44083124 0.6092037 -0.10090993 -0.8513839 0.39745075 -0.6303502 -0.25128847 0.2987109 -0.92341703 0.4287487 -0.71193206 -0.32785892 0.44669998 -0.08506139 0.17978504 0.03093714 0.13519609 -0.1618071 0.52434796 -0.88445514 0.15858814 0.030662272 -0.46842614 0.4935688 -0.36946267 -0.14373823 0.6283773 -0.06476196 0.938907 0.52420884 0.019594098 0.37185854 -0.6154408 0.232583 -0.2364655 0.09956656 -0.5848904 0.02759374 -0.22795007 -0.29096043 1.1904366 -0.26519713
9791168220041 -0.22365591 -0.24809143 -0.11612619 -0.16741677 -0.8945873 0.023247441 0.6293976 0.02769893 -0.2426051 -0.1775836 -0.6603668 1.0195252 0.38267237 -0.15634595 -0.3350935 0.09225559 -1.4408196 0.011674795 0.8729953 -0.03310392 -0.061043818 0.5068157 0.17474699 0.07313536 0.9260595 -1.0749584 -0.9202381 -0.015233446 0.0041003306 0.11783724 0.04644084 0.061129637 -0.69007146 0.4098992 -0.6219688 -0.18941694 -0.52958286 -0.9713923 -0.18734911 0.73978454 0.104804836 -0.45300308 0.15631303 -0.6914441 0.11181672 0.7624652 -0.039746966 -0.013003952 -0.774368 -0.43956876 0.40621227 0.19745673 -0.14445171 -0.52146333 0.049707126 -0.56533986 0.39254978 -1.2028906 0.6578612 0.46713343 -0.9602924 0.21435563 -0.49304193 -0.5823769 0.48494178 -0.22146335 0.89250815 0.3767635 -0.25326574 0.23790805 -0.30344233 -0.121036984 0.010281844 -0.061541047 -0.4798429 0.263663 0.293439 -0.3551023 1.3485969 0.16946977
9791191462005 0.16401272 0.55638045 0.31006667 -0.5403901 -1.2965677 -0.03711233 -0.036347587 0.5826752 -0.13083021 -0.378092 -0.5398106 0.7247961 0.52995247 -0.32655114 0.111223176 0.085872374 -0.33820555 0.07542915 0.13699378 0.33498684 0.8449078 0.34965113 0.48287442 0.3742219 0.3451122 -0.1487804 -0.7231287 -0.5017015 0.408349 0.3170373 -0.3625407 -0.010657897 -0.05906871 0.15163547 0.016869362 0.26953745 -0.8885591 -0.574171 0.017739467 0.34041312 0.27825606 -0.9931551 0.2983147 -0.8393259 -0.35829824 0.32990134 -1.1037719 0.025866045 -0.3551446 -0.51425266 0.48120424 -0.16140796 -0.015473901 -0.28668547 0.22523417 -0.45779902 0.5249854 -0.85399 0.30145824 0.14247903 -1.0264484 0.37700316 -0.17758738 0.19802092 1.0335549 -0.043414623 1.2342939 0.7532007 -0.061977714 0.16058299 -0.54867554 0.0022266423 -0.32048723 0.4301559 -0.83749944 0.38810804 -0.1621734 -0.08224063 0.79777366 -0.22283728
9788925579870 -0.1321713 0.321281 -0.118348174 -0.43784586 -0.7398164 -0.2487703 -0.1605719 -0.09705711 0.17532429 0.19166179 -0.44575042 0.65468305 0.44610265 -0.43655732 -0.29478016 0.7533177 -0.7248416 -0.164518 0.2383699 0.37200388 0.02249905 0.5292953 0.110482804 0.05966283 0.37212744 -0.71070075 -1.3318442 0.15725794 0.35046172 -0.14237794 0.03951405 0.3112029 -0.15792564 0.37499303 0.08417074 0.336708 -0.74581915 -0.40507376 0.09700839 0.65276253 0.036242716 -0.6796698 0.23621501 -0.7260349 -0.014189997 -0.18435866 -0.6062497 0.25510457 -0.51189375 -0.38620645 0.0038903165 0.091265745 0.33939257 -0.015705498 0.07971632 -0.18777674 0.39141336 -1.0369209 0.0732361 0.22631101 -0.6114207 -0.2777004 -0.5917021 -0.33592144 0.5524066 0.19596599 1.0748689 0.031157462 -0.10654673 0.17365651 -0.23874192 -0.26754344 -0.1833896 0.07926557 -0.042437803 0.043012995 0.1593733 0.072288215 1.2188028 -0.107806794
9791168120501 -0.37769344 0.86297613 -0.34612516 -0.7890967 -1.1090431 0.16620886 0.051207885 0.5151258 0.23167625 -0.08992427 -0.9243227 0.9710449 0.93913203 -0.4416548 0.023879908 0.40698138 -0.47406718 0.3276091 0.62707675 0.5963134 0.34787035 0.29809597 0.19836299 0.02640083 0.54014015 -0.4010947 -0.91173106 -0.49331558 0.5825416 0.2324914 0.1416845 0.35669383 -0.57238984 0.6447678 -0.17222531 0.46108872 -0.40120018 -0.5404193 -0.23365648 0.41261685 0.8076558 -0.52935976 0.11816389 -0.87216705 -0.49579683 0.37640244 -0.5493359 0.0062709777 -0.63419133 -0.21849076 -0.005396857 0.20957741 0.12804796 -0.24421123 0.11540596 0.41593543 0.1599798 -0.42543504 0.58380234 -0.21187693 -0.51642793 -0.26197958 -0.24259108 -0.011824449 0.5969443 -0.25539783 1.4234123 0.50617665 0.24727215 0.098518424 -0.729463 -0.2121459 -0.4087864 0.30651286 -0.5905734 0.013788817 -0.5527023 -0.083834775 0.91602194 0.27387512
9791197576416 -0.41394588 0.5989706 0.50897616 -0.85819566 -1.0529585 -0.1516135 -0.27082244 0.38802204 -0.19840014 -0.21509467 -0.7375077 0.68773174 0.5454745 0.05115633 0.043785818 0.16891406 -0.9675733 -0.01947338 0.5219449 0.054070145 0.86839986 0.2329735 0.35811293 -0.21217878 0.87969446 -0.73205197 -0.8039982 -0.5604728 0.66513324 0.32036358 -0.2384725 0.31741902 -0.21168932 0.26462102 -0.44320297 -0.010859126 -0.8050681 -0.6131008 -0.0495058 0.34722862 0.24466772 -0.8960781 0.21356362 -1.2827916 -0.36393413 0.9347803 -0.6937952 0.003689086 -0.38647893 -0.5680834 0.29022464 -0.18114923 0.12629417 -0.47415623 0.1835156 -0.21709184 0.40851614 -0.8318096 0.23928319 -0.30158478 -0.7360237 0.20311804 -0.43704772 -0.5139361 0.90882474 -0.18573818 1.3374262 0.39745227 0.009117209 0.19394615 -0.09271757 0.2478762 -0.41277403 -0.015912721 -0.0067951395 -0.2089624 -0.10193704 0.057849582 1.2911705 -0.17474905
9788934986690 0.07824654 0.25688198 0.06949013 -0.8435093 -1.076977 0.24747092 0.0021258597 0.6334628 0.13946614 0.19109291 -0.48573333 0.43556488 0.3716117 -0.51339084 -0.19640124 -0.36392787 -0.44483647 0.061151784 0.4790464 0.58715695 0.81683475 0.18741457 0.8629123 0.45155355 0.88634616 -0.24859278 -0.5847849 -0.51279646 0.84281206 0.68613327 -0.10983654 -0.33162668 -0.5702526 0.5058274 0.26882282 0.2943264 -0.7152513 -1.0895318 0.15319912 0.45839426 0.19520241 -0.89672583 0.9420891 -0.45265913 -0.3959335 0.35234886 -0.8456016 0.23596747 -0.19812022 -0.6633865 0.1969358 0.21157384 0.1556808 -0.012497223 0.092462875 -0.4220784 0.42242345 -0.62074536 0.30838782 -0.12156629 -0.96748775 0.36108083 -0.35285783 0.48865855 1.0871137 -0.4374065 0.9134272 0.3859144 -0.25720268 0.29553777 -0.7990307 -0.018954255 -0.43307853 0.40729597 -0.56189746 0.3497441 -0.046893857 -0.23345794 0.4985629 -0.26031795
9791185952352 -0.14505132 0.24488805 0.15514839 -0.62569433 -1.0176079 0.15778415 -0.017270489 0.09556698 -0.13283189 0.37794468 -0.4457879 0.6149204 0.8187311 -0.6972894 -0.38236243 7.760007e-05 -0.88286585 -0.006772545 0.29142445 -0.13843869 0.6157491 -0.061383814 0.70888555 0.034714546 0.8619119 -0.7435196 -1.0771483 -0.48050988 0.42056537 0.40410802 -0.22810367 0.045913666 -0.5422039 0.6172449 -0.2014441 0.4461244 -0.89121556 -0.95937765 -0.15559158 0.1487763 0.18390127 -0.8860444 0.6618336 -1.208375 -0.5676876 0.34615445 -0.6493178 0.15950735 -0.42585286 -0.5528263 -0.025296925 0.020866571 0.072237834 -0.41481945 -0.39513156 0.013195731 0.24119131 -0.50729495 0.6252172 0.010935303 -0.7195201 -0.120301135 -0.50178736 -0.08788336 0.7805823 -0.044727366 1.2619114 0.3166189 -0.44592232 0.028542437 -0.72103417 -0.111460395 -0.0038862026 0.018753903 -0.4232212 0.2180192 -0.3630658 -0.42364675 1.314707 -0.04339229
9788994780795 0.08687774 0.2262926 -0.24841627 -0.8833553 -0.7901909 0.6229822 0.034751996 0.67336595 0.077158906 0.16869187 -0.7647095 0.8172698 0.8086536 -0.93956167 -0.6117088 -0.31240177 -0.1007506 0.119555295 0.8784551 0.5095343 0.7495583 -0.13672312 0.5661319 0.15440409 0.5385365 -0.41577333 -1.1428013 0.16123466 0.55679953 0.6695736 0.18448873 0.26751938 -0.34114316 0.57829934 -0.08275574 0.7801602 -0.6680884 -0.7825759 0.25358695 0.6844651 0.61125237 -0.7753268 0.6566514 -0.52592707 0.16873059 0.43298313 -0.6128679 0.07877353 0.07948569 -0.45913276 0.36515942 0.19374004 0.14327656 -0.52717704 0.09110375 0.09925536 0.12719929 -0.7089087 0.3037397 -0.26648706 -0.8974717 0.124123216 -0.12196108 0.35581878 0.89315486 -0.44325697 1.0690823 0.71276355 -0.14070503 -0.25133058 -0.73319983 9.5954965e-05 -0.8134196 0.41558954 -0.6467311 -0.19735664 -0.37843245 0.0945075 1.1397393 0.54814816
9791188700929 -0.36370698 0.21656464 -0.06761573 -0.5062053 -0.42822438 0.35882357 0.55524284 -0.4034355 -0.34120533 -0.0863545 -0.49864826 0.23385778 0.39919683 -0.311018 -0.2984381 0.22317311 -1.3234736 -0.098506205 0.3788214 -0.28480887 -0.1108922 0.60792106 0.12417746 -0.095609255 0.18664484 -0.6571711 -0.974169 0.21707946 -0.44951668 0.23318277 0.30679685 0.5216767 0.05427977 0.7585918 -0.45552367 0.29200748 -0.2055772 -0.41833198 -0.31955153 0.86327326 0.008834827 -0.105476856 -0.056382425 -0.40906897 0.4182335 0.43703103 0.17409252 0.28563446 0.00022586292 -0.3023631 -0.15065822 -0.13845217 0.36213472 -0.10541267 -0.010924627 -0.4287657 0.15976033 -1.0080185 -0.1565224 -0.09411722 -0.76507753 0.1310963 -0.4305091 -0.40167305 0.79299873 -0.037342228 0.56145 0.052851804 -0.52366155 0.6666935 -0.018543739 0.02571316 -0.122255035 -0.14016432 0.047922455 0.16912507 -0.1323595 -0.30580541 0.6946006 0.15211482
9791190776127 -0.7721359 1.1019629 0.06534426 -0.6033921 -0.77339065 -0.01663171 0.22429828 0.07021734 0.111088656 0.34941688 -0.60219973 0.5246054 0.94587994 -0.28011733 -0.38973346 0.3718488 -1.176032 0.61928785 0.31935233 0.36335203 0.463809 0.5085251 0.53793865 -0.18859045 0.6157982 -0.6029301 -0.82590216 -0.26674846 0.48883617 0.37440667 -0.3792477 0.24465801 -0.8552965 0.9301183 0.06831886 0.20066592 -0.46827513 -1.0698321 -0.17262423 0.77708787 0.31033894 -0.39683273 0.6703507 -1.3171825 -0.22282615 -0.4130499 -0.482574 0.11174774 -0.44351164 -0.16479404 -0.34192106 0.19719146 0.44941315 0.018555675 -0.1399118 -0.34929833 0.33701384 -0.5556243 0.6651353 -0.5086299 -0.96508914 0.10261225 -0.34099993 -0.09603284 1.0200753 -0.5113358 1.3312758 0.74779683 -0.97753453 0.19556434 -0.7033468 -0.01029279 0.0071334336 0.06462198 -0.64848065 0.22234553 -0.5304114 0.094822004 0.56852156 0.39798617
9791188801107 -0.8007863 0.23986869 -0.13026845 -0.15073104 -0.30385044 1.1057733 0.23132768 -0.2833602 -0.7449141 0.8676281 0.074066 -0.019889766 0.39628783 0.32068408 -0.1591247 -0.34738263 -0.67846745 0.8794223 -0.4560202 0.52538604 0.28459013 0.13908005 -0.3247046 -0.20025866 0.092567354 -0.5010057 -0.4162205 -0.033269316 0.28272822 -0.081081934 -0.13402459 0.19407901 -0.24610698 -0.4352965 0.44218028 0.4435471 -0.069179386 -0.31164262 -0.6332086 0.35478362 0.008264467 0.021260392 -0.04197976 -0.6527169 -0.38993746 0.47504452 -0.83296853 0.7293211 0.017633595 0.103790715 0.15216203 0.03002526 0.41327855 0.19909728 0.6226769 0.72844654 -0.46741056 0.095221385 0.42144385 -0.2630544 -0.3808507 0.18830495 -0.7521136 -0.23048769 0.7813665 -0.30454367 0.18582505 0.9837834 -0.8539732 -0.26980194 -0.6698853 0.18520279 0.07342443 -0.23590979 -0.0754355 -0.5024449 -0.34763032 -0.41332027 0.16501942 0.5389731
9791155814277 -0.38426504 0.50169516 -0.061601836 -0.56716436 -0.7463814 0.20685187 0.10918532 0.08210831 -0.073835336 0.121522084 -0.6922193 0.2860364 0.5508939 -0.39136666 -0.11819699 0.108648434 -0.51415825 -0.24576534 0.1267224 0.41344568 0.34286213 0.53757006 0.4507393 0.3321989 0.413144 -0.1415347 -0.68557423 -0.10072003 0.53380287 0.43707934 0.040327273 -0.021635553 -0.5226157 0.4492044 0.17788953 0.21607532 -0.5233189 -0.6279895 -0.12667036 0.56328815 0.19572148 -0.63620526 0.47031435 -0.42664772 -0.2750102 0.040131316 -0.43817976 0.082296714 -0.2001612 -0.2442077 -0.112939455 0.27039474 0.13258447 -0.17337757 0.10488133 -0.26636326 0.3651546 -0.54453975 0.54859024 -0.44918463 -0.6903854 0.2523067 -0.20182523 0.19849052 0.6367615 -0.4724243 0.9810992 0.51698285 -0.4759502 0.03520708 -0.7468856 -0.11398752 -0.33946145 0.36940825 -0.37407172 0.41178975 -0.05901301 -0.1931368 0.5483271 -0.04203034
9791164380381 -0.74256563 0.17048721 -0.41494688 -0.034494355 -0.2010075 0.7970326 0.3719367 -0.25581157 -0.6435626 0.8686176 -0.46121076 0.23893742 0.3011101 0.26749513 -0.0452827 -0.81579244 -0.7000054 0.60732985 -0.505913 0.3874798 0.45613813 0.18579102 -0.5706871 -0.32677227 -0.0837521 -0.16844353 -0.9925359 -0.034853447 0.6940773 -0.43606368 0.036122765 0.4103905 0.0808985 -0.15832987 0.20780955 0.57556015 -0.12022837 0.01885322 -0.44320056 -0.118830405 -0.31433338 0.10272789 -0.069150664 -0.585215 -0.4110104 0.32268792 -0.84108675 0.822082 -0.13112034 0.3021692 0.052294187 0.12319039 0.47973126 0.31169415 0.1305914 0.85358506 -0.26806626 -0.12635529 0.552182 -0.18923421 -0.49963993 0.0480398 -0.5362749 -0.3924138 0.9291237 -0.25718638 0.25714174 0.98135674 -0.83281016 -0.13293615 -0.30537152 0.088235006 -0.25809714 -0.3124993 -0.23040171 -0.27709648 -0.04354169 -0.22292835 -0.14330636 0.3719052
9791188700936 -0.6535765 0.16847229 -0.182067 -0.5641099 -1.0030199 -0.09214783 0.3104726 -0.24827154 0.026724743 0.070767686 -0.4871899 0.87742966 0.73231596 -0.6585931 -0.40729332 0.27559435 -1.2340348 -0.16087419 0.50537044 0.11769407 -0.3548942 0.4605916 -0.18315007 0.049397103 0.69713885 -1.317189 -1.5919021 0.12793955 0.1888089 -0.14776354 0.24839143 0.62828654 -0.5888795 0.39465415 -0.40011564 0.1607255 -0.5364056 -0.63686717 -0.106927104 0.70712507 -0.03685017 -0.5072642 0.105171256 -1.2470055 0.13559331 0.46301907 -0.26249054 0.09385388 -0.6238748 -0.551006 0.4403338 0.07424599 0.30371484 -0.29347268 -0.099191956 -0.20426884 0.3510073 -1.3461617 0.13287613 0.53174645 -0.760822 -0.16402201 -0.86017555 -1.0977772 0.5858521 0.004505158 1.469144 0.060543913 -0.28696698 0.18629196 -0.16319738 -0.29912847 -0.017906008 -0.021202322 -0.26487026 -0.25178334 -0.08333061 -0.006247359 1.6599543 0.16833016
9791186494622 -0.2587235 0.18758495 0.15194915 -0.49868616 -1.1580648 0.13769905 0.16250959 0.032030772 -0.008205601 0.2846508 -0.28844497 0.78809273 0.61112016 -0.4928001 -0.013638813 0.4801136 -0.5543709 -0.36500025 0.020442735 -0.20095007 0.54424936 0.06598462 0.3184346 0.1808238 0.19409485 -0.4844582 -0.69900537 0.07311674 -0.31950065 0.013602729 -0.42612728 0.012318415 -0.46292162 0.4451819 -0.4407626 0.5733849 -0.79042727 -0.755075 -0.07372503 0.39554572 0.11174545 -0.4628534 0.28545985 -1.117292 -0.18393165 0.0779027 -0.59384084 0.41031647 -0.06011839 -0.34081978 0.05157316 -0.23265253 0.24637549 -0.16030154 0.022656882 -0.45834652 0.36544275 -0.6063528 0.2252491 0.021997109 -0.58226866 0.3401784 -0.5287226 -0.20475797 0.6757488 -0.028120877 1.1431062 0.040838856 -0.7252267 0.071197696 -0.6603117 -0.15898035 -0.30451196 0.24406292 -0.108265996 0.3980281 -0.19969113 -0.66363215 0.9048115 -0.3089515
9791191104226 -0.101202525 0.37817326 0.39673492 -0.46807465 -0.9883515 0.015906645 0.14865579 0.36188766 -0.19182776 -0.05837478 -0.5488677 0.73976 0.6533255 -0.35121268 -0.44174555 -0.07980112 -0.45664316 0.086848505 0.22538368 0.44459003 0.7346931 0.21571544 0.58428705 0.30597073 0.6689428 -0.5021434 -0.90753335 -0.2685274 0.5898553 0.4196153 -0.43731683 -0.032712005 -0.35776258 0.5136085 0.0002783772 0.35804763 -0.9555002 -0.5786779 -0.048182335 0.45329332 0.4002887 -1.1351632 0.5973788 -0.96429014 -0.28504062 0.33033264 -0.73695433 0.0011437308 -0.19620837 -0.5497218 0.29508862 0.25141117 0.084543824 -0.39085966 -0.17680481 -0.15462422 0.53452647 -0.76606345 0.39780945 0.040338118 -0.637482 0.25555894 -0.31196642 0.0586912 1.1345872 -0.20618938 1.094811 0.5741396 -0.18059507 0.34190714 -0.5964339 -0.12776041 -0.03376301 0.5277416 -0.52820915 0.13793452 0.14415574 -0.40530205 0.7790684 -0.30345255
9791155814017 -0.36790618 0.5810397 0.15470192 -0.43176457 -0.4376856 0.17365931 -0.48911846 0.19722086 -0.24048392 -0.18701442 -0.7018714 0.74130565 0.38518384 -0.20195262 0.17509128 0.32004756 0.040230043 0.06857584 0.110485196 0.12502368 0.6189014 -0.025309546 0.22246769 -0.1621471 0.28967836 -0.39042932 -0.1890939 -0.42617908 0.025645917 -0.22621417 -0.062745854 0.1889462 0.23328441 -0.42832777 -0.011077339 0.76139253 -0.1039569 0.14023308 -0.041599862 -0.27208573 0.12859619 -0.1442715 -0.25390092 -0.10439201 -0.17218152 0.3935894 -0.8558593 0.2109687 -0.36358386 -0.46044937 0.42181 -0.28202936 -0.21674839 -0.22850242 -0.5446382 0.11799992 0.22319907 -0.08119874 0.42768028 -0.38605344 -0.23281702 0.09686301 -0.49026647 0.55608547 -0.0009971325 -0.041465547 0.8685084 0.70806956 -0.07071042 0.071365274 -0.09362544 0.05004668 -0.13953593 0.40131915 -0.3642085 0.36118722 0.053070772 -0.26606777 0.5164663 -0.5258154
9791191509250 -0.32239923 0.33159536 -0.10534473 -0.11491362 -0.5585817 0.57453763 0.07697908 -0.15053618 -0.6654687 0.4193682 -0.2199033 0.066217706 0.099721156 0.016224992 -0.10195205 -0.83054835 -0.2643722 0.3596338 -0.7356129 0.30682415 -0.02321458 0.3137189 0.094459526 -0.28566623 -0.13244353 -0.0941776 -0.6269985 0.092269726 0.4925579 -0.1827973 0.16846398 -0.16996714 0.059775278 -0.08175046 0.05741833 0.31781295 0.025999686 0.37819263 -0.2073553 -0.31610993 -0.05187002 0.07156573 -0.14588442 -0.26517576 -0.58043104 0.34382084 -0.31260765 0.8210051 -0.21120508 0.052590284 -0.038297124 0.18338585 0.09108789 0.32693613 0.10989902 0.78134793 -0.20737833 -0.2213057 0.42395347 0.059284262 -0.2916621 0.16316186 -0.8011404 -0.15165287 0.759647 -0.20837232 -0.06891259 0.54312414 -0.6184012 0.05250862 -0.328463 -0.23996826 -0.13357627 -0.21806075 0.17603691 -0.16169436 -0.035974294 -0.4551444 0.5769471 -0.15288997
9788960498679 0.12867296 -0.3953036 0.048992448 -0.367345 -1.030845 0.10627147 0.49611554 -0.15535334 -0.41116208 -0.14011523 -0.47340405 0.5906894 0.09582992 -0.27173418 -0.45801574 -0.040548798 -1.3181125 -0.22417468 0.4043672 -0.4178428 0.07966203 0.81300426 -0.16118187 -0.3218542 1.0010645 -0.8356117 -1.4502319 0.06872062 -0.17789224 0.18761271 0.08380625 0.14866173 -0.09465298 0.73592556 -0.665006 -0.26868954 -0.41256493 -0.49962303 0.046076655 0.494654 0.16099128 -0.38003808 -0.10314182 -0.83318913 0.26440814 0.740157 0.14887157 -0.17964742 -0.048833124 -0.54260284 0.4415055 0.33728832 0.109370135 -0.27766004 -0.115838036 -0.17761241 0.20125687 -0.92809707 0.36075678 0.3144774 -0.7968935 -0.08409749 -0.36016718 -0.7849927 0.688046 -0.41724262 0.88681525 0.21536839 -0.112254046 0.45945752 -0.034455746 -0.13028234 -0.049989875 0.08970639 0.12524487 -0.044722084 0.23001795 -0.39296508 1.2348686 -0.11131538
9791191209020 -0.30425787 -0.12797056 0.36062354 -0.591769 -0.78471714 0.7248486 0.74309015 -0.03359032 -0.33284682 -0.045021 -0.4970415 0.54940623 0.7216375 -0.081338435 0.1484605 -0.0967086 -1.1109467 0.5962247 0.82870144 0.48749736 -0.019882096 0.39749473 0.61938035 0.09983428 0.63632977 -0.9014898 -0.9226938 -0.2949876 0.10443423 0.36616603 -0.25038898 0.13852945 -0.9495328 0.3464291 -0.2868759 0.8208265 -0.2557925 -1.2705309 -0.09398285 0.50097406 -0.0684629 -0.71011096 0.24699499 -0.9963846 -0.24343161 0.84295946 -0.32728472 0.16703686 -0.6917646 -0.13583274 -0.04828339 0.12002194 -0.08935068 -0.5190659 0.44962457 -0.15491603 0.20378695 -0.6671309 0.9386872 0.013391942 -0.63141257 0.16838303 -0.545881 -0.6360168 0.8607531 -0.12510246 1.2822311 0.6131638 -0.59123397 -0.15366703 -0.68625665 0.07761021 0.054923054 0.40536138 -0.25751433 -0.077550024 -0.1447648 -0.6758892 1.2839965 0.38625345
9791130678030 -0.6338491 0.2262653 -0.086074725 -0.27475923 -1.5527369 0.08984059 0.32576504 -0.16682816 -0.28607213 -0.118437484 -0.79476124 0.7839077 0.7612181 -0.5835213 -0.42261598 0.2586739 -1.096214 -0.19754332 0.2089684 0.15594888 0.06813813 0.4727491 0.40382946 0.20096533 0.8401064 -1.0731229 -1.34461 0.15660208 -0.09101522 0.05679541 -0.06788716 0.6105393 -0.7002513 0.66182166 -0.30953625 0.30590537 -0.66919833 -0.9998864 -0.05752629 0.37232006 0.043465305 -0.8265734 0.23277047 -1.532432 -0.06906611 0.42921925 -0.39843282 -0.019002803 -0.38521045 -0.49231276 0.24254252 -0.026511654 -0.23070766 -0.071394525 -0.27399513 -0.5141222 0.5203819 -1.1170856 0.16620365 0.33545592 -0.8474634 0.20318045 -0.7770481 -0.72836006 0.64555633 -0.06213311 1.2383118 0.048732925 -0.39338744 0.028310267 -0.6143694 -0.13126886 0.033058688 -0.2371274 -0.5105365 -0.17876367 0.2518435 -0.16551158 1.5826138 -0.018634042
9791187512578 0.20775571 0.16257434 0.3976354 -0.71860385 -1.0427839 0.17596857 0.17891876 0.4929021 0.1333148 -0.4266563 -0.4637414 0.8563932 0.5963664 -0.47868186 -0.1817795 0.89580965 -0.45726418 -0.05568001 0.6191335 0.5523702 0.66312164 0.08097216 0.20096393 0.04619436 0.92314345 -0.45730722 -0.6921748 -0.36921173 0.44168818 0.39588934 -0.35666803 -0.027322723 -0.49813366 1.0756357 0.29370484 0.26845902 -0.7184451 -0.9018527 0.077402174 0.35070884 0.73154044 -0.9916337 0.56220675 -0.671191 -0.21212009 -0.17505966 -0.9550821 0.055787608 -0.7994143 -0.5212983 0.18363275 0.18171607 -0.040222116 -0.3495927 -0.0076901214 0.19639647 0.30776873 -0.71474826 0.9472391 0.051620256 -0.3965323 0.17943035 -0.64015967 0.4506414 0.78580004 -0.18362096 1.5156819 0.19420624 -0.084850624 0.5054569 -0.59503764 -0.036118913 -0.3991099 0.4159636 -0.42688838 0.19059461 -0.058807336 -0.5130588 0.85226893 -0.2589818
9791164133055 -0.26335487 0.5116994 0.23176268 -0.45490265 -0.6956194 0.19181374 0.07844755 0.019867355 -0.14362729 0.19231717 -0.2906685 0.71448934 0.6931631 -0.13177103 -0.11046965 0.25132757 -1.0117618 0.14354008 0.29395872 0.37627012 0.61022156 -0.070369706 0.09354739 0.20669639 0.43128544 -0.37673336 -0.8017519 -0.034197334 0.2382234 0.6723144 -0.8387986 0.075217694 -0.2224087 0.88608825 0.49729705 0.34684134 -0.43046835 -0.8836771 -0.18424244 0.6868777 0.3111443 -0.87912124 0.4036023 -0.59361213 -0.11876761 -0.28657246 -0.50048745 0.4022248 -0.3019685 -0.34624678 -0.3581741 0.13093714 0.44128156 -0.11965583 -0.22309339 -0.04101216 0.029985733 -1.0119635 -0.1283835 0.064605206 -0.63797903 0.2649719 0.0007707882 -0.28066427 1.0215558 -0.36982495 0.58251 0.5375034 -0.75372106 0.41463578 -0.01266589 0.066703536 -0.5476423 0.02440339 -0.03449988 0.4092413 -0.38439745 -0.48562205 0.57483625 0.28689182
9791195795505 -0.28565648 0.39833185 0.1402241 -0.45706442 -0.26794508 0.43554908 0.23570466 -0.17319006 -0.115463406 0.38133878 -0.23306923 0.4829129 0.6065288 -0.23738128 -0.16589855 0.19149803 -0.5027974 0.382823 -0.2572473 0.38534853 0.44242954 -0.08619156 0.27162015 0.07419309 0.25181872 -0.42435405 -0.59777284 0.17010504 0.18617973 0.3586666 -0.40631342 0.37456277 -0.61136836 0.7272766 0.0403818 0.594775 -0.7295514 -0.3618628 -0.07938554 0.75133044 0.2305829 -0.5292219 0.45037404 -0.47304562 0.15285093 -0.0008672019 -0.22024788 0.44454852 0.027927984 -0.35990345 -0.5334605 0.13786696 0.30682263 0.00978946 -0.53649324 -0.3516228 0.1599987 -0.76994437 -0.042149782 -0.15029094 -0.7049474 0.07762537 -0.28538546 -0.44931126 0.9247545 -0.70262 0.66474205 0.6270159 -0.9043575 0.30905423 -0.2011136 -0.20599939 -0.58378565 -0.009836268 -0.41948226 0.43848124 -0.32148632 -0.57048297 0.47920954 0.12528867
9791195153886 0.0032678829 -0.053153597 -0.13394217 -0.553632 -0.8196617 0.03121744 0.09205104 0.14509705 -0.0117311785 0.10342036 -0.28021464 0.2659534 0.5488685 -0.53702235 -0.48912224 -0.38231045 -0.94816756 0.06462982 0.14346975 -0.06543259 0.9094432 -0.2445573 0.2721668 0.30699658 1.1213206 -0.7337041 -0.5531418 -0.5955619 0.87066346 0.71013397 -0.66669 -0.030160353 -0.64104575 0.477931 0.30082703 0.10290998 -0.7770558 -0.64062107 0.011018524 0.3139039 0.08670102 -0.7358949 0.9848116 -0.5093154 -0.5229201 0.4694378 -0.5333695 0.35977685 -0.23557267 -0.3635282 -0.31435814 0.04210755 -0.14140669 -0.06941503 -0.6386752 -0.27081138 0.41960442 -0.40643793 0.5557035 -0.22702871 -0.58059675 0.21041484 -0.40288126 0.17284408 1.0102038 -0.23227394 0.3873853 0.6575858 -0.1429697 0.05750806 -0.62235487 0.030568069 -0.5330881 0.052503888 -0.28354383 0.37198347 -0.0064713564 -0.48883462 0.7757194 -0.42437905
9791159098802 -0.12646015 0.28495955 0.1743795 -0.52545494 -1.4077125 -0.25656295 0.14257589 0.23602694 -0.09967826 0.024308719 -0.72331446 1.1363003 1.1414195 -0.66087365 -0.56819457 -0.49213898 -1.1709507 -0.2579071 0.67932695 0.32852823 0.2458683 -0.24381912 0.2777575 0.6069406 1.2889385 -0.8199419 -1.4420099 -0.5029853 0.3310238 0.3154287 0.09631555 -0.1879226 -0.41535327 0.43794012 -0.3158156 -0.037247993 -1.052676 -1.2703416 -0.2794245 0.39303222 0.40011394 -0.99749935 0.62477505 -1.3615562 0.1618509 0.7178147 -0.78528625 -0.03015143 -0.86392117 -0.7858598 0.6108409 -0.037995853 0.035814054 -0.5775113 -0.1392429 -0.46391517 0.57143706 -1.3994877 0.067268245 0.9132623 -1.3709317 0.43990237 -0.55164033 -0.38235572 0.9968564 0.060991894 1.2615187 0.37050912 -0.112363294 0.143592 -0.71798027 -0.0617675 0.46745336 0.36684734 -1.093534 -0.15080145 0.43554804 -0.0635428 1.5948932 -0.112183034
9791191509243 -0.029122885 -0.011880431 0.24992529 -0.6940498 -0.8829759 0.008722863 0.05128963 0.3201347 -0.08764502 0.03629759 -0.20638679 0.55340654 0.42917415 -0.5709329 -0.03984573 -0.15977155 -0.566078 0.48519477 0.44367564 0.44376677 1.0164435 -0.23875849 0.2610692 0.4324036 1.0604542 -0.65364146 -0.810311 -0.9336695 0.9599068 0.5367661 -0.023249663 0.085836716 -0.34004012 0.9131527 0.43122298 0.20572595 -0.7335602 -1.0438505 0.15469219 0.27558842 0.38901368 -0.79345703 0.7423084 -0.55144715 -0.7757536 0.1497693 -1.2861718 0.30394667 -0.18801323 -0.49801272 -0.12601806 -0.11243013 -0.312883 -0.19142716 0.24518938 -0.37165383 0.23691978 -0.683475 0.77165586 -0.2917577 -0.94279253 0.22442846 -0.0647408 0.43452615 1.426516 -0.2482874 0.7520211 0.5382699 -0.07369626 0.12029274 -0.62912923 -0.1430102 -0.5183739 -0.08323197 -0.6320215 0.38534048 -0.06209598 -0.37649837 0.70578885 -0.2582498
9791191462029 -0.22679707 0.29124185 -0.28549585 -0.08312585 -0.43582544 0.4852729 0.104920655 0.15587369 -0.6892155 0.45506087 -0.25607827 0.40220663 0.08910762 -0.1732234 -0.3353494 0.07358823 -0.434619 0.18590547 -0.17402351 0.32653207 0.12021292 0.5172867 0.3417842 0.15645963 -0.26267004 -0.3132772 -0.30490822 0.21225886 0.26298308 -0.14889754 -0.24056937 0.14710265 -0.015091905 -0.124780945 -0.35904014 0.6398472 -0.06883316 0.41393125 -0.22729242 -0.060237337 -0.30842757 -0.1027557 0.02007644 -0.5927909 -0.16658239 0.53070056 -0.49938443 0.38610658 -0.13149403 -0.04978632 0.17079748 0.18064985 -0.1414035 -0.25367644 0.13027592 0.25941402 0.1035827 -0.29492822 0.46452546 0.047739435 -0.71943855 0.21728711 -0.7410629 -0.38319233 0.493249 0.18569802 0.7875581 0.37130854 -0.5512814 0.17663753 -0.22073254 -0.017002458 -0.4224748 -0.14353333 -0.21863735 -0.14514995 -0.3895961 -0.31885105 0.8159226 -0.26909626
9788965749868 0.089011125 0.4694894 0.124752216 -0.37379926 -1.279789 0.36961323 -0.039540056 0.54874986 0.113448516 0.16295123 -0.5517186 0.8583864 0.16801175 -0.30689272 -0.18445304 0.33157462 0.051488344 -0.13810652 0.36567065 0.122789815 0.4874814 0.36901432 0.7339684 0.14404634 0.7235087 -0.15601839 -0.5980495 0.260205 0.3246261 0.2218567 0.0773466 -0.36793944 -0.15573093 0.41342667 -0.61840576 0.7913668 -0.6801815 -0.9240638 0.052293144 0.29062435 0.065759644 -0.9546276 -0.046730876 -1.1772033 -0.46780342 0.26457918 -1.0169743 0.3172364 -0.5174615 -0.51922345 0.15933459 0.25135624 -0.004014394 -0.310088 -0.13398957 0.00855987 0.45244154 -0.98017216 0.20235068 0.07534773 -0.90205485 0.23246711 -0.29232296 -0.22262351 1.0074413 -0.5163707 1.6329522 0.4465943 -0.9718972 0.17955995 -0.5495162 -0.06228437 -0.53607094 0.48562223 -0.46171564 -0.10900923 -0.25575873 -0.23603271 1.0427345 0.21265681
9788969524478 -0.3042123 0.11420251 -0.11395763 -0.49207094 -1.1025586 0.8357288 0.20047674 -0.19555941 -0.82194775 0.70883644 -0.08471532 0.29683918 0.38495314 -0.076449126 0.019148521 -0.70961994 -0.45692655 0.27280033 -0.28811607 0.027881553 0.50359815 0.23288566 0.06457117 0.0561967 0.08236749 -0.28042933 -1.1680979 -0.514314 0.38613755 0.034118302 -0.35448626 -0.07911271 -0.29178402 0.21329914 0.09205987 0.43846965 -0.66474247 -0.20494348 -0.36371508 -0.19514689 -0.12108584 -0.67138064 0.044647597 -1.025854 -0.7845536 0.59411335 -0.7164648 0.86807835 -0.085920684 -0.030341132 -0.08192168 0.2594645 0.11647201 0.19496347 0.10774523 0.67632955 0.1902889 -0.3908908 0.33871317 -0.017671095 -0.39437744 0.52043533 -0.6998369 -0.36705112 1.1045787 -0.055879414 0.38545704 0.661757 -0.7980369 0.06816159 -0.7364181 0.3207714 -0.37139904 0.0022729267 -0.05913924 0.024331573 -0.43353906 -0.7165649 0.7586318 -0.102875836
9788934907725 -0.20116378 0.075503215 0.24865074 -0.657617 -0.69543535 0.4087803 0.29053622 0.2908521 -0.090341695 0.3966394 -0.3952343 0.18573374 0.5161907 -0.22163497 0.012252486 0.10211855 -0.728775 0.399019 0.3801147 0.37274358 0.7630452 0.16029845 0.5577997 0.02086291 0.745774 -0.561812 -0.5401173 -0.05702661 0.62135494 0.4257436 -0.013085042 -0.21504503 -0.6840322 0.5541835 -0.005877537 0.35364655 -0.61477494 -0.7818097 -0.122808665 0.31182253 0.43628377 -0.14201428 0.3947709 -0.68494 -0.3043171 0.025386749 -0.50179327 0.21637976 -0.13784063 0.08852511 -0.28731886 0.12527293 -0.08879635 -0.15920454 0.2025302 -0.60073423 0.3194891 -0.605915 0.3853686 -0.8364663 -0.8264033 0.2970975 -0.07594946 0.14349023 0.9559222 -0.6506505 1.0123242 0.55728674 -0.5883849 0.23343045 -0.8680615 -0.13216536 0.123379335 0.54313695 -0.806238 0.3283502 -0.14384387 -0.36668786 0.5820223 -0.15582918
9791191393385 -0.29772583 0.16973817 -0.13829583 -0.32471198 -1.0863043 0.117637075 0.35696214 -0.10287758 -0.30248857 -0.16202639 -0.712681 0.49020877 0.36109206 -0.18458194 -0.35714936 0.016491266 -1.1453247 0.012939035 0.27080423 -0.08579577 0.20412461 0.96480286 0.46716836 0.28546584 0.40594852 -0.5310898 -0.8448623 0.11939256 -0.32902953 0.28121287 -0.25669456 0.37246323 -0.6877722 0.26087782 -0.016784713 0.38213122 -0.7756339 -0.40448847 -0.012021504 0.40220466 -0.11762627 -0.63402116 -0.03561312 -0.95388025 -0.1812869 0.6722962 -0.10352889 0.16506624 -0.11351534 -0.69419694 0.18518583 0.37470618 -0.10885001 -0.19025443 -0.32944912 0.00037631302 0.6559168 -0.7476331 0.51335293 -0.09360804 -0.68258876 0.2187269 -0.50581455 -0.32346755 0.99201757 -0.19893609 0.5351881 0.2922023 -0.5473511 0.29523763 -0.4890332 -0.119107336 -0.19394426 0.14425252 0.10689578 0.17439763 0.20873685 -0.4030586 0.6713687 0.07374498
9791188700288 -0.47559735 0.7828907 -0.14004439 -0.4600461 -1.0135806 0.04610785 -0.16612658 0.08425376 -0.3582048 -0.14285631 -0.9510877 0.63654035 0.46442422 -0.5304873 -0.19958726 0.46523824 -0.66380167 0.06804626 0.15814118 0.40509352 0.36162105 0.7517345 0.52193636 0.070726275 0.28390405 -0.51477844 -0.9635378 -0.054685544 0.287329 0.054888677 -0.040743645 0.5208459 -0.41240498 0.5202757 -0.17417203 0.6434248 -0.677506 -1.027182 -0.14257424 0.22147846 0.2806338 -1.0469375 0.21858388 -1.1689204 -0.19917539 0.2428148 -0.7244207 0.06086372 -0.6231551 -0.31096542 0.28003338 0.06525467 0.12858266 -0.24573225 -0.1361839 0.15032719 0.37308088 -0.6573665 0.5914029 -0.1938584 -0.7139536 -0.202217 -0.2942986 -0.20112212 0.87038445 0.10827847 1.7258236 0.7414417 -0.54713583 0.2724315 -0.4129837 -0.03427562 -0.06320515 0.17411552 -0.5764327 0.19133289 -0.22415698 0.19369869 0.9609615 0.2296217
9791190846264 -0.64157975 -0.006558837 -0.3052566 -0.11742022 -1.0689362 0.03482962 0.7028749 -0.18219179 -0.37271038 -0.0674267 -0.7263598 0.6142875 0.30367076 0.10609926 -0.5153048 -0.29408833 -1.7301663 -0.08738046 0.8332149 -0.047100704 -0.21532273 1.1540176 0.0032599582 0.13923775 0.8165464 -1.0111369 -1.0437964 0.22188754 -0.47546494 0.08516474 0.1199472 0.4819156 -0.26571816 0.12553377 -0.31621334 -0.075669736 -0.65392166 -0.10080036 -0.013804322 0.6468386 -0.3678857 -0.46766204 -0.044921055 -0.8761239 0.21977863 0.5762697 0.5102382 0.2590725 0.2574094 -0.7223426 0.59930557 0.31585944 0.42978016 -0.23982243 -0.16990326 -0.39505765 0.5807663 -1.0855957 0.2043952 0.47523418 -1.0369508 0.12279598 -0.4999674 -0.7807122 0.91066146 -0.08282802 0.39658377 0.012563201 -0.5867879 0.5999428 -0.26343796 0.0690885 -0.0754336 -0.2157546 0.32985002 0.08407323 0.33963 -0.27714616 0.8767734 0.20600122
9791197438707 -0.21745345 0.14632605 -0.55102134 0.08450388 -1.0628674 0.13583301 0.041789234 -0.10795964 -0.813859 1.1331882 -0.113640815 0.2367805 0.22361937 0.084568776 0.05696861 -0.58641094 -0.36618194 0.5364722 -0.84972996 0.4298762 0.4347443 0.15559024 -0.10909584 -0.50527215 -0.141881 -0.4757525 -0.39114612 -0.4435109 0.5855424 -0.36038777 -0.2326447 -0.5140424 0.1414352 -0.31295887 0.10618913 0.3878164 -0.53460515 0.1880885 -0.3996905 0.040063057 -0.054810364 -0.11159865 0.06603455 -0.73408204 -0.5189318 0.60007095 -0.96851736 0.9108444 -0.36364654 -0.06744252 -0.04139759 0.4399075 0.0840572 0.064982295 0.21559952 0.7266953 0.15372594 0.14577208 0.4861285 -0.017058825 -0.29067805 0.2193273 -0.89935154 -0.11130915 0.5744869 0.3225958 0.15847509 0.62496555 -0.27380398 -0.14394534 -0.292987 0.0061503462 0.02022899 -0.26488966 -0.1659621 -0.43157095 -0.33273944 -0.16092363 0.93404984 -0.045703333
9791191183078 -0.47591984 -0.056380123 0.29236543 -0.47334516 -0.62806064 0.034010857 0.45044887 -0.026212197 -0.21497147 -0.16442841 -0.7360903 0.81016016 0.53118604 0.08289637 -0.18454133 0.20962328 -1.1415565 0.047800027 0.71906406 0.1906729 0.4149107 0.25129652 0.38235718 0.37856084 0.61861956 -0.90199906 -0.7264965 -0.46185514 0.42572758 0.26775667 -0.5841091 0.25342938 -0.93480164 0.5501765 -0.40234056 0.3094253 -0.88584346 -1.009019 -0.24413589 0.9015488 0.24182774 -0.971084 0.6433477 -1.3873694 -0.31756583 0.6623293 -0.49098438 0.41979045 -0.5321807 -0.10691734 0.21201505 0.18607011 0.13917223 -0.5688462 0.05045959 -0.22388907 0.35202426 -0.68018365 0.9468757 0.24424122 -0.88842124 0.24930695 -0.37123927 -0.23836978 0.86054134 -0.6716863 1.2173469 0.6033281 -0.73290426 0.39290708 -0.2902307 -0.092873394 -0.07239225 0.08861064 -0.5237133 0.5310297 -0.15681753 -0.55696297 1.0933994 -0.097150885
9791191119121 -0.31278324 0.88835186 0.18254422 -0.46020374 -0.74857765 0.34842333 0.34609637 0.26893574 0.12839831 0.27776104 -0.23331366 0.7283319 0.8891815 0.08067123 -0.16745044 0.34210804 -0.8197109 0.3344717 0.40008935 0.20812522 0.9535714 -0.02527826 0.17597097 -0.40316603 0.30220425 -0.4578229 -0.44408908 -0.043364406 -0.06869346 0.18694058 -0.18210399 -0.35897002 -0.11926941 1.05035 -0.17113893 0.43352026 -0.21386628 -0.9035817 -0.14927891 0.33561492 0.42286375 -0.67998844 0.13388136 -0.36537957 0.14387709 -0.6542463 -0.5517991 0.2070079 -0.31990275 -0.016923187 -0.45753282 0.03964126 0.48823935 -0.17006953 0.13873944 -0.13380805 0.28726834 -0.6119981 -0.13444254 -0.3186172 -0.525954 0.048620127 -0.019677548 -0.42431247 0.8758958 -0.26957697 1.185947 0.59090155 -0.9891411 0.36276498 -0.08544546 -0.28666726 -0.49491575 0.15959606 -0.38564587 0.2363496 -0.44149432 -0.056255296 0.72032654 0.17786714
9788990496041 -0.22625118 0.5845544 0.4884913 -0.3383741 -0.7812534 0.2896803 0.14934622 0.034516133 -0.11850633 0.30537224 -0.07999405 0.7152012 0.50711954 -0.17101361 0.044509996 0.4499134 -0.44949293 -0.28399736 0.082635775 0.20884097 0.5591184 0.15905198 0.42063886 -0.20013118 0.4869446 -0.3880902 -0.37412545 0.250768 -0.23815681 0.21731299 -0.16320056 -0.3646306 -0.1555644 0.40409428 -0.06710445 0.5176458 -0.46573412 -0.5962633 -0.2998465 0.28592 0.15323374 -0.8244306 0.038711842 -0.32046524 0.04604736 -0.15078896 -0.524581 0.1330136 -0.24097964 -0.24321887 -0.2056587 0.20038554 0.26713327 -0.3101586 -0.17813055 0.0054220627 0.21829584 -0.33348548 0.104334176 -0.22038065 -0.22742215 -0.060545426 -0.25180757 -0.0010434866 0.55525583 -0.25540894 1.1938891 0.4438836 -0.6779621 0.10500337 -0.1759849 -0.296087 -0.21007112 0.15061349 -0.27827573 0.2906376 -0.21234661 -0.17634748 0.7811198 -0.16515799
9791164060351 0.14190097 -0.18647146 0.6348585 -0.38632086 -0.90618014 -0.09680889 -0.58599347 0.33382127 0.12642923 0.61367553 -0.3677474 0.51788807 0.6689452 -0.37295133 0.2821979 0.03114878 -1.2888632 0.3020073 0.8486177 -0.85873395 0.92691493 -0.7263773 0.18874525 0.08661885 0.51879805 -0.57574224 -0.71975625 -0.34974635 -0.28345588 0.13206208 -0.7969636 -0.078331895 -0.15564321 -0.023294333 -0.03362257 0.04317374 -0.7864337 -0.3071826 0.1309719 -0.57575387 0.03669984 -0.43499216 0.45683858 -0.8523474 -0.9297576 0.43474516 -0.7352952 0.27867857 -0.6489009 -0.16450264 0.24725679 -0.13378981 0.11660593 -0.705812 0.2738733 -0.32705903 0.4943184 -0.27665108 0.41543317 -0.49539292 -1.0201577 0.31045407 -1.0193267 0.33996248 0.73814315 -0.5195265 0.56493145 0.7145657 0.03855793 0.20243375 -0.3022866 0.25764242 -0.40691045 0.45571184 -0.51550996 0.30961558 -0.17395476 -0.461295 0.83602846 0.29529914
9791185402376 -0.4304868 0.083311625 0.41586387 -0.5244553 -1.1312513 -0.095981 0.3315591 0.013497866 -0.40293655 0.071445666 -0.5333316 0.55707055 0.3941301 -0.20988901 0.23028821 -0.039579406 -0.93136513 -0.025546312 0.42558038 0.026859619 0.6471269 0.49964082 0.2830765 -0.06972985 0.7523237 -0.9566646 -0.9356968 -0.17961554 0.24254309 0.09982559 0.07974272 0.65505636 -0.4005762 0.6002258 -0.61248296 0.025979878 -0.45202157 -0.44365138 -0.19498056 0.46520767 0.14305769 -0.59759295 -0.059704367 -1.226518 -0.35430315 0.90377563 -0.5172109 0.05829581 -0.28925204 -0.48097074 0.16111746 -0.015211077 0.05539855 -0.34168002 0.26667267 -0.14689524 0.19939595 -0.63776594 0.19347201 -0.10259283 -0.51589096 0.070323505 -0.64227057 -0.71431553 0.9824032 0.21253602 0.87563807 0.3162224 0.06683053 0.07404485 -0.25934333 -0.10423204 -0.27709657 -0.035188932 -0.04580108 -0.12592411 -0.15441537 -0.2567501 1.043132 0.08196779
9791191059229 -0.64032745 0.13885878 -0.44841784 0.26976854 -0.5849984 0.87442666 0.36283723 -0.15799786 -0.44420233 1.1125569 -0.31141526 0.5324617 0.321439 -0.038264386 0.38146418 -0.44807997 -0.34521702 0.58689725 -0.4948082 0.17276691 0.58657026 -0.025219679 -0.19950289 -0.23576988 0.12652698 -0.4648699 -0.5097597 0.27142343 0.16836509 -0.344767 -0.2553769 0.07546661 -0.07785956 -0.29015747 -0.24984103 0.6755503 -0.21383885 0.035999812 -0.45112312 -0.25121808 -0.3922888 -0.044923916 -0.10162724 -0.6988591 -0.47528106 0.29916027 -0.6022766 0.25271592 -0.38921002 -0.1379753 -0.022124536 0.17381182 -0.009479798 0.16126694 -0.3045239 0.8278427 0.08726732 -0.15579411 0.31696975 -0.2767086 -0.21534342 -0.12969427 -0.86674005 -0.39036918 0.56026393 -0.35275176 0.082551084 0.602338 -0.5410383 -0.062574066 -0.36837354 0.16562049 -0.14933841 -0.032903932 -0.19778404 -0.070198216 -0.27616826 -0.6122679 0.6855631 0.0829509
9788925579238 -0.17199785 0.49488428 0.094704725 -0.48646888 -0.9711498 -0.08477339 0.21566734 0.21984263 0.19041377 -0.0036646237 -0.606862 0.5623455 0.7216415 -0.39631417 -0.42672625 -0.108327985 -0.6793678 -0.2524753 0.20609623 0.26160148 0.2621162 0.25413424 0.32307693 0.26535198 0.9065761 -0.4732626 -0.9073963 -0.077332 0.21677113 0.36804754 -0.038192388 -0.076410696 -0.27344778 0.14803241 0.0036816495 0.3268627 -0.6544788 -0.6635832 -0.07295409 0.37356436 -0.018936612 -0.7409504 0.44320682 -0.8754297 -0.01145576 0.16980273 -0.6950601 -0.030476423 -0.5937904 -0.6477881 0.3141627 0.06273841 0.16391827 -0.33839267 0.10099051 -0.3009776 0.49620152 -1.1000193 0.108851336 0.4138272 -0.89839834 0.17618798 -0.4206866 -0.1612484 0.5761171 -0.15171255 0.9412626 0.41398552 -0.36523497 0.17589433 -0.42502317 -0.041324683 0.01298131 0.40607253 -0.5943971 0.042467054 0.27268285 -0.25619078 0.86900336 -0.27454677
9788931586077 -0.5705684 0.071757734 -0.21009903 -0.5296448 -1.2103419 0.5115342 0.25457042 -0.033189174 -0.34414768 -0.2866871 -0.54018193 0.8024074 0.42253378 0.00066282577 -0.18434812 0.5979202 -0.9487988 0.39667833 0.47480005 0.19970821 0.23230428 0.68041563 0.175912 0.005162188 0.26636076 -0.84219706 -1.221391 0.7147858 -0.25326407 -0.09096787 -0.31610322 0.46215394 -0.7375994 0.5073505 -0.692232 0.60689026 -0.50757784 -0.7358171 0.12524118 0.5881619 -0.33905914 -0.6677536 0.40516713 -1.2673609 0.35637107 0.80736995 0.090322874 0.1946771 -0.26774445 -0.2637288 0.6182671 0.15857506 0.123330094 -0.43999556 -0.08429642 -0.031140428 0.29853374 -1.1693269 0.36093274 0.35796466 -0.53158003 0.35236394 -0.5457307 -1.1005666 0.57783157 -0.5095171 1.1743953 0.38547274 -0.4401446 0.3379916 0.004004371 0.10423606 -0.625899 -0.011001166 -0.2128765 0.022633864 -0.0040732576 -0.3121191 1.4992577 0.33582172
9791185473925 -0.09015293 0.1319098 -0.21963842 -0.22027957 -0.6477488 0.66009057 -0.013478023 -0.015547958 -0.275378 0.39934102 -0.32400915 0.3749582 0.36802465 -0.101704024 -0.34919357 -0.33998317 -0.74476254 0.13850182 -0.006911915 0.029548187 0.22899483 0.20491298 0.23530823 0.038125906 0.09546979 -0.7868206 -0.3839846 -0.13838208 0.2853224 0.4403631 -0.73487246 0.25237656 0.18407264 -0.2925829 0.12676066 0.694324 -0.23782541 -0.0019059919 -0.11106908 -0.08679083 -0.3584277 -0.24292134 0.07785071 -0.584277 -0.2147964 0.5782693 -0.7199147 0.63379925 -0.15195914 -0.25656375 0.26962277 0.025327781 0.16172723 -0.29972476 0.032316178 0.018715354 0.2589363 -0.08800877 0.34634995 -0.2691111 -0.7551128 0.05531778 -0.5835152 -0.028660119 0.34717926 0.5140684 0.4115773 0.7931398 -0.14319143 0.069778256 -0.007313918 0.32319483 -0.41518807 0.13351037 -0.16795482 -0.19124721 -0.44981325 -0.21730042 0.86757857 -0.15995382
9791185402383 -0.09643416 0.1977228 0.2722006 -0.29898223 -1.0624077 0.02147456 0.41516513 0.13738593 -0.28385472 -0.16144249 -0.59889823 0.5570554 0.2732345 -0.14465936 -0.06872312 0.17450349 -0.8290305 0.16394304 0.31681147 -0.17067751 0.48408934 0.5241704 0.015294514 0.035910413 0.46510908 -0.8748635 -0.84618276 0.12911804 -0.03904585 0.059708647 -0.40779233 0.32783505 -0.14847027 0.47309804 -0.4109824 0.4128075 -0.49687323 -0.69077384 -0.16503799 0.45722792 -0.033422254 -0.77547526 0.15854108 -1.1830585 -0.22265287 0.653687 -0.43611473 0.23794384 -0.40228215 -0.34752125 0.2922345 0.19642782 0.24651678 -0.35958797 0.0074767713 -0.012218703 0.34584725 -0.84028196 0.18229018 -0.022432033 -0.6606108 0.0390598 -0.5809464 -0.9101424 0.8305533 0.007882091 1.0024626 0.40418562 0.06575614 0.23107721 0.12686622 0.12694748 -0.46642488 -0.078139305 -0.10355382 -0.28626272 -0.10610426 -0.29971522 1.0330081 0.2810857
9788994780801 0.039008483 0.014078016 0.2938094 -0.79565185 -0.96666193 0.0019363533 -0.3407818 0.5612457 0.13632691 -0.14158706 -0.96902776 0.8879968 1.0557466 -0.5816314 -0.52382374 -0.2644924 -0.8842216 -0.23420258 0.57225704 0.23755175 0.6889691 0.26783028 0.21124095 0.23018153 0.85556024 -0.77619493 -1.0713793 -0.55203223 0.91914964 0.89501566 -0.5450776 -0.102230944 -0.18851377 0.8617272 0.3550767 0.049226645 -1.2679824 -1.4457849 0.7608365 0.44097507 0.45067686 -1.6579118 1.0203573 -1.0273434 -0.516769 0.012273225 -1.3489308 0.42167348 -0.6187515 -0.89003867 0.5483013 -0.30408266 -0.0034010194 -0.85413826 0.10888597 -0.057187088 0.50071263 -1.1933737 0.5261706 -0.13594806 -1.2314458 0.4290745 0.090699464 0.5684345 1.531328 -0.4360825 1.5321896 1.0977479 -0.17339759 0.09141927 -0.8670563 0.36779514 -0.36485305 0.61593527 -0.60563034 -0.14962947 -0.80842113 -0.63619065 1.2728941 -0.060132585
9791191013344 -0.12045278 -0.12380475 0.11083276 -0.80528843 -1.0662594 -0.18080708 0.25285205 0.0012579986 0.13378799 0.2232324 -0.5841345 0.83516324 0.6030799 -0.53662413 -0.2267941 0.16666983 -1.1232289 -0.073351145 0.56324726 0.12538743 0.4137107 0.061726853 0.016951364 -0.12507452 0.92120445 -1.0598229 -1.1953741 -0.22880772 0.47819123 0.15047416 -0.51073915 0.26775363 -0.4914255 0.9820542 -0.2065238 0.24545512 -0.6427009 -0.9437761 0.1659862 0.453272 0.2461176 -0.76956564 0.41061485 -1.1566889 -0.49356863 0.46324527 -0.56805575 -0.11613675 -0.31464767 -0.41011226 0.011531762 0.24482125 0.20025147 -0.2993167 -0.14796625 -0.3586978 0.41885608 -0.9569682 0.5502011 0.15818106 -0.65474063 -0.15645093 -0.5558076 -0.62848747 1.0755457 -0.113441564 1.3642247 -0.057768814 -0.31222397 0.46400145 -0.17677619 -0.012399594 -0.33248562 0.06604832 -0.19554405 0.031069497 -0.23741809 -0.7402115 1.3717755 -0.009835589
9791186361900 -0.2887961 0.21114442 -0.009528627 -0.5628046 -0.5852455 0.05428953 -0.017861338 0.13179357 -0.17498602 0.1989042 -0.1823565 0.28045538 0.45613685 -0.30367264 -0.22834547 -0.06400488 -1.1542428 0.20625027 -0.030683761 0.31941926 0.8818989 0.21814366 0.33036026 0.19395861 0.40789437 -0.55036145 -0.57797104 -0.94253963 0.66177386 0.38128972 -0.1159564 -0.1667032 -0.15525907 0.24224338 0.10882868 -0.015735744 -0.82857746 -0.53846073 -0.11986255 0.39701992 0.37418157 -0.5138774 0.5397877 -0.44207606 -0.23243186 0.26059088 -0.6281525 0.4865688 -0.17724405 -0.07452218 -0.004720529 -0.21103473 0.2903201 0.009988729 -0.44595936 -0.14186563 0.29696283 -0.54662454 0.385411 -0.5474993 -0.53307444 0.29898378 -0.2122126 0.002529035 1.0362537 -0.17675066 0.6891258 0.5697021 -0.06507408 -0.09431711 -0.47686058 0.20108172 -0.059763376 0.14357458 -0.5586946 0.5044044 -0.14019872 0.10945565 0.69914263 -0.15875764
9788934907749 -0.20116378 0.075503215 0.24865074 -0.657617 -0.69543535 0.4087803 0.29053622 0.2908521 -0.090341695 0.3966394 -0.3952343 0.18573374 0.5161907 -0.22163497 0.012252486 0.10211855 -0.728775 0.399019 0.3801147 0.37274358 0.7630452 0.16029845 0.5577997 0.02086291 0.745774 -0.561812 -0.5401173 -0.05702661 0.62135494 0.4257436 -0.013085042 -0.21504503 -0.6840322 0.5541835 -0.005877537 0.35364655 -0.61477494 -0.7818097 -0.122808665 0.31182253 0.43628377 -0.14201428 0.3947709 -0.68494 -0.3043171 0.025386749 -0.50179327 0.21637976 -0.13784063 0.08852511 -0.28731886 0.12527293 -0.08879635 -0.15920454 0.2025302 -0.60073423 0.3194891 -0.605915 0.3853686 -0.8364663 -0.8264033 0.2970975 -0.07594946 0.14349023 0.9559222 -0.6506505 1.0123242 0.55728674 -0.5883849 0.23343045 -0.8680615 -0.13216536 0.123379335 0.54313695 -0.806238 0.3283502 -0.14384387 -0.36668786 0.5820223 -0.15582918
9788997195022 -0.5360752 0.25270727 -0.28420457 -0.24987306 -0.5439044 0.5726811 0.5289123 -0.16849448 -0.14691418 0.8258741 -0.019232886 0.37468097 0.58961713 -0.16246425 -0.02526682 -0.06946488 -0.6846096 0.42871502 -0.2781137 0.37040493 0.6296866 0.08278981 -0.1595404 0.015246291 0.05382495 -0.2914951 -0.7288247 0.3162233 0.45364323 -0.10690542 -0.1867226 -0.08872061 -0.4574985 0.4273545 0.028618619 0.5277649 -0.5884344 -0.21327563 -0.272649 0.14906172 -0.19469771 -0.29980186 0.19538683 -0.48915502 -0.17006661 0.12830773 -0.22732231 0.5252588 -0.1833337 0.007014681 -0.31984383 0.06756776 0.09791822 -0.112019226 -0.18128175 0.5693208 0.2600226 -0.23445615 0.54368734 -0.12280757 -0.54281104 0.2757264 -0.7820744 -0.25635415 0.8984225 -0.43801248 0.23739827 0.5778291 -1.0593089 0.08842075 -0.36375535 -0.027429257 -0.40530986 -0.2920281 -0.005893376 0.11384943 -0.41872695 -0.42806652 0.6317327 -0.12306389
9791165217396 0.14497541 -0.06934699 0.44752657 -0.469234 -0.92563796 0.05627166 -0.064628646 -0.08826278 -0.21308587 0.2418323 -0.3244857 0.6000017 0.5060321 -0.5308444 -0.24627985 -0.26804483 -0.6588736 -0.06461485 0.3076679 -0.06371299 0.6032063 -0.40034658 0.24965554 0.2966402 0.7693275 -0.5604158 -0.88002807 -0.8258105 0.41258645 0.76582706 -0.6590104 -0.26270553 -0.13331169 0.31347272 0.1758157 0.44094235 -0.7012178 -0.7397379 0.13286225 0.2809097 0.14400195 -0.5806205 0.55049324 -0.6674508 -0.62639964 0.6416756 -0.85640854 0.42772216 0.0049461327 -0.41688025 0.32365054 0.09587232 0.24375823 -0.18125555 0.107079 -0.28941414 0.12953413 -0.47573504 0.32183522 -0.08303942 -0.57046723 -0.026945952 -0.1239674 0.3716486 0.70144314 -0.16582161 0.5575889 0.21729904 0.22174671 0.10252754 -0.4672812 0.15127483 0.013659399 0.24228881 -0.24121195 0.18870637 0.07215659 -0.7748416 0.61549497 -0.4964015
9788947546591 -0.3351643 0.31781963 0.22296603 -0.43394452 -0.8970107 0.113031924 0.18670508 -0.05472264 -0.11711692 0.06953341 -0.3673562 0.4245758 0.4107473 -0.31760225 -0.40354308 0.25734165 -0.84400165 -0.23288293 0.09109709 0.16805278 0.5477026 0.51215327 0.18552993 -0.13246241 0.41388854 -0.76602113 -0.9271237 -0.20663145 0.30491582 0.18639316 -0.34189048 0.23326509 -0.387875 0.31537315 -0.18723369 0.52926636 -0.6122442 -0.7901404 0.074930355 0.7280494 -0.030123224 -0.701142 0.36949328 -1.0983394 -0.2828537 0.23170316 -0.6664167 -0.007734714 -0.14894205 -0.3278692 0.25256816 0.22433603 0.1972578 -0.15921997 -0.10197306 -0.2633688 0.34118617 -0.7899609 0.29391798 -0.11803287 -0.5928502 -0.041958474 -0.20732553 -0.19027403 0.7079523 -0.3616511 1.2934124 0.446203 -0.5780257 0.16337702 -0.49845183 -0.14649871 -0.013183755 0.45381224 -0.46901837 0.257121 -0.09765235 -0.122614846 0.8620212 -0.09453827
9791165211646 -0.08509844 -0.027228229 -0.42172423 -0.3551062 -0.42709705 0.59183055 0.24087119 -0.28518295 -0.22835396 0.9968038 -0.057655886 0.23743549 0.59385127 -0.23131575 -0.013551018 -0.94347364 -0.8596593 0.11647347 -0.22461736 -0.10081677 0.34657943 -0.041020766 0.09759726 -0.056567155 0.006410196 -0.6914022 -0.7571333 -0.36810756 0.31731954 0.04957676 -0.30510613 0.38695726 0.016026724 -0.2963384 -0.11123999 0.67869866 -0.424544 0.26792127 -0.36303893 -0.16459984 -0.49500918 -0.18866894 -0.09801119 -0.24546301 -0.6083234 0.65798724 -0.40353742 0.54402983 -0.45407897 0.054294724 0.20816858 0.03248185 0.12608436 0.072008125 -0.27738884 0.5410838 -0.002174009 0.1207953 0.2980728 0.017601408 -0.5619323 0.15604115 -0.7814221 -0.068902336 0.4937611 -0.09121539 -0.14941643 0.55209595 -0.089967854 -0.079469875 -0.40763095 0.12264755 -0.36170205 -0.00012984275 -0.28247005 -0.10320629 -0.66867757 -0.5202663 0.7105907 -0.1273333
9791188700042 -0.37181786 -0.10181931 -0.3621295 -0.28567883 -0.82227093 0.30755967 0.2923415 0.10528902 0.004175083 0.64846003 -0.10921005 0.32313597 0.49129784 -0.3683085 -0.26012403 -0.38172007 -0.5533771 0.18691957 -0.16459027 0.29727235 0.74328446 -0.2077585 0.01853869 0.116206795 0.34576505 -0.2909596 -0.8562794 -0.037107356 0.56543875 0.2243183 -0.10111585 -0.22390155 -0.47258013 0.2344116 0.13779028 0.2395342 -0.39992988 -0.058345772 -0.14618467 0.20943856 0.10818749 -0.26316297 0.3170938 -0.50431293 -0.41521737 0.20894106 -0.40188372 0.4452935 -0.022098238 -0.21163322 -0.2742927 0.24111646 0.092269346 0.032630112 -0.34933636 0.17157342 0.25559637 -0.34742 0.31917697 -0.14531392 -0.398389 0.1642061 -0.53031445 -0.115892366 0.8142815 -0.22198573 0.24775246 0.44624823 -0.24500412 0.15257287 -0.49463493 -0.090148106 -0.3159362 -0.077391095 -0.05353727 0.23865192 -0.1936189 -0.55750906 0.80880183 -0.1552806
9791186117767 -0.4826334 0.009454229 -0.16246957 -0.4754461 -0.5053686 0.44070482 0.5343732 0.06962044 -0.31645712 0.21553236 -0.39170805 0.09397781 0.15276502 0.0815511 -0.17966096 0.08376756 -0.8769069 0.3182089 0.008203133 0.5660477 0.50749516 0.06700154 0.19606085 -0.086061075 0.64603823 -0.29501918 -0.41679552 0.08987949 0.48732334 0.42484257 0.34776583 0.05734634 -0.4244826 0.6153224 0.31901503 0.086431764 -0.29487598 -0.89037174 0.125945 0.22004205 0.3215356 0.09035976 0.5415752 -0.16474548 -0.0915156 -0.2256599 -0.109381795 0.48740232 0.16804524 0.18548101 -0.5160357 0.32256094 0.21324769 0.21046719 0.1571088 -0.5992376 0.10324222 -0.61849535 0.668127 -0.607625 -0.80670166 0.054484535 -0.114852175 -0.1828946 0.8833282 -0.36837357 0.4412923 0.52964 -0.8978779 -0.1578976 -0.71705365 0.018574003 -0.20889464 0.19978844 -0.41442344 0.3996625 -0.024085294 0.10158136 0.2938455 -0.16873129
9788931465778 -0.71696794 -0.6325444 -0.23844902 0.2067662 -0.1780927 0.5185387 0.15219203 -0.5416749 -0.49726188 0.89470005 -0.011735195 0.14412579 0.23158702 0.10988828 0.18872038 -0.43014115 -0.4479366 0.79434305 -0.58465785 0.05534387 0.8372909 0.17592706 -0.53678036 -0.20001684 0.19668318 -0.12424992 -0.3258944 0.1274746 -0.0714251 -0.5251619 0.2886984 0.10983192 0.29898098 0.10124755 -0.26167068 0.63917214 0.09705396 0.018918034 -0.25577557 0.038528502 -0.40739843 0.36004367 -0.012916721 -0.32992443 -0.45729882 0.19188194 -0.31374252 0.48022145 -0.04599345 -0.07073706 -0.2687916 0.3131841 -0.09822337 0.27534166 0.08597548 0.3761859 -0.026379133 0.04312244 -0.041426577 -0.08636345 -0.2437402 0.16541614 -0.57992387 0.024358947 0.26872933 -0.12697862 0.021207629 0.39910105 -0.3260067 0.5162357 0.094435655 0.01332712 -0.06843998 -0.1823854 0.04666523 0.0792342 -0.3599618 -0.7558118 0.06090527 -0.057912633
9791191104165 -0.26082817 0.029886149 -0.14148724 -0.105297714 -1.3286675 -0.15209901 0.51456743 0.13195774 -0.23497769 -0.024074089 -0.57004404 0.5952565 0.48829782 -0.20631438 -0.2855647 0.15168084 -0.93327314 -0.27949843 0.2549195 0.0015481872 0.032074925 0.76259995 0.35927463 0.5016399 0.62940997 -0.5616873 -0.88057965 0.1864518 -0.08327907 0.10775751 -0.09654506 -0.18882595 -0.54837865 0.33721888 0.13068157 0.15593071 -0.7506237 -0.7139388 -0.008119451 0.4517558 0.10093355 -0.46851104 0.21656765 -0.7635944 -0.09782445 0.35582575 -0.29009032 0.6386428 -0.36600456 -0.6752999 0.2229248 0.13794626 0.028010327 -0.25750437 -0.21936294 -0.4156637 0.6283927 -1.108358 0.24342813 0.16671605 -0.8558412 0.30967033 -0.55347824 -0.29768217 1.048095 -0.07313566 0.5596049 0.091363125 -0.4301363 0.14923789 -0.58954936 0.039756957 0.00013520905 0.12661359 -0.10935709 0.20012659 -0.00051827525 -0.21683307 0.8223695 -0.06175235
9791186117002 -0.08496636 0.7252686 -0.36917862 -0.8460548 -0.846516 0.2883724 -0.25753322 0.33068705 -0.014636043 0.32785714 -0.62256277 0.6675926 0.5499187 -0.5396155 -0.040307827 -0.22822788 -0.64797074 0.5327518 0.16415726 0.03671322 0.7006285 -0.77269876 0.2971966 0.051266722 0.19328009 -0.61038643 -1.0371363 -0.94301414 0.4102724 0.284056 -0.00074285764 0.13078783 -0.75655276 0.6469066 0.060006514 0.3765681 -0.4394704 -0.52601314 -0.36254826 0.15999795 0.6279443 -0.33386633 0.13671823 -1.0305915 -0.45325994 0.051015276 -0.6701302 0.6769932 -0.08926319 -0.3767948 -0.16508752 -0.16825254 0.6546086 0.19802234 -0.19842283 0.024152197 0.0730534 -0.03980611 0.047450572 -0.7219133 -1.0250177 -0.34112364 0.031548023 0.042012572 1.163751 -0.011293348 0.9178423 0.695923 0.19947353 -0.024406467 -0.18838415 -0.06765329 -0.81375015 -0.4953721 -0.2797211 0.14722961 -1.1446964 -0.3065987 0.671106 0.17249162
9791185473895 -0.35262436 0.00018303485 -0.13351752 -0.012898713 -0.51480734 0.52679145 0.07798042 -0.24305438 -0.28657714 0.55959207 -0.0827219 0.31322718 0.485219 -0.1570587 0.17915922 -0.12031632 -0.66435796 0.5324618 -0.29814965 0.100873694 0.22001877 0.221341 0.03888033 -0.1345009 0.30186462 -0.5939627 -0.4521055 0.029911716 -0.10785111 0.030965753 -0.24849844 0.25914633 -0.10154674 -0.23952495 -0.024571639 0.5839766 -0.07637474 -0.21508142 -0.16519555 0.13936667 -0.3339373 0.085816406 -0.15507776 -0.40689614 -0.1458537 0.65099835 -0.51093286 0.29970834 -0.06048184 -0.14432965 -0.012075063 0.041186433 -0.14497995 -0.090321176 -0.022739727 0.31632084 -0.11906822 0.2920782 0.17358571 -0.32503313 -0.16201113 -0.09260067 -0.45864415 -0.06292874 0.38257352 -0.047933858 0.019779598 0.48414758 -0.5357335 -0.22035752 -0.45982304 -0.008053151 -0.20498787 -0.4102183 0.006911358 -0.11094302 -0.0040073125 -0.44615248 0.4090713 0.19057424
9791164062300 -0.14806473 -0.22128354 0.15137385 -0.7356137 -0.8612012 0.42270872 0.75925165 0.31351092 -0.116443224 -0.32748047 -0.38360775 1.0744681 0.66964835 -0.042842697 0.21088059 -0.076007605 -1.5657907 0.46282333 1.5306106 -0.08222588 0.4522801 -0.36557406 0.830108 -0.3202439 0.98024493 -0.67639077 -0.5015062 -0.62000656 0.20802467 -0.049147747 -0.55804455 0.06773065 -1.2984107 0.642408 -0.61615205 0.12380754 -0.5289147 -1.52189 -0.034918793 0.3118426 0.62642026 -0.6004756 0.36709082 -0.87032807 -0.50260025 0.8830586 -0.061685584 0.3639942 -0.83771276 -0.10796463 -0.20391035 0.11427873 -0.4802433 -0.8499713 0.36579868 -0.40049854 0.3342855 -0.6636196 1.1750214 0.064285755 -0.70459986 0.516924 -1.0329385 -0.40547377 1.0584865 -0.5868991 0.9955085 0.23159993 -0.23554084 0.39580786 -0.34937492 -0.029177811 -0.31068462 0.269819 -0.3075683 0.26635936 -0.17997132 -1.0985789 1.502194 0.0933128
9791188700905 -0.8483968 0.7421102 -0.06410157 -0.9329307 -0.8224708 -0.2104658 -0.6692544 0.21113464 -0.1621728 -0.3257709 -0.765581 0.91106725 0.54820544 -0.7127551 0.07888542 0.41850558 -0.56899834 0.21914905 0.104364686 0.6058248 0.18645176 0.19730128 0.014605249 0.07382731 0.36552584 -0.75611025 -0.6771717 -0.42877153 0.6776696 0.5005755 -0.41015115 0.6073948 -0.4493076 0.7001713 0.00954761 0.1315297 -0.6075952 -0.9702796 -0.28081396 0.80220544 0.35624018 -0.7754579 0.1095795 -1.149697 -0.28830013 0.2104605 -0.8063793 0.1899105 -0.4120018 -0.58325344 0.60661757 -0.24559173 0.6700899 -0.46026933 -0.035380233 0.2660403 -0.222002 -0.6850332 0.35445288 -0.18381818 -0.7632021 -0.26193047 -0.6986402 -0.06610211 0.652998 -0.042288672 1.3586707 0.74870473 0.081669115 -0.042366527 -0.15340237 -0.14448294 -0.57937753 -0.12818548 -0.68391865 0.13816388 -0.62034357 0.18509005 0.88734686 0.118296266
9788927812272 -0.52747506 -0.011855091 -0.2310386 -0.11115628 -0.1993746 0.63588184 0.286924 -0.2007884 -0.44150707 0.678072 0.13450381 0.25680736 0.51922697 -0.18127006 -0.07012898 -0.15910271 -0.79028296 0.55230397 -0.33687934 0.16171049 0.6765731 0.05256925 -0.14331843 0.0016462439 0.2740894 -0.20856595 -0.74712527 -0.27544248 0.38616836 0.30176413 -0.16739796 -0.059090324 -0.1804718 0.26816815 0.002028313 0.36593106 -0.11594628 -0.40984818 -0.35345843 0.4606196 -0.016858298 0.020766785 0.10052331 -0.32810894 -0.07923595 0.055209298 -0.24332125 0.4092119 0.020311454 0.19663548 -0.57478136 -0.13033225 0.35747918 0.16908452 -0.065467924 0.38010037 -0.19454318 -0.36335358 -0.18507403 -0.14867648 -0.37720424 0.067506425 -0.47626457 -0.46925026 0.8236138 -0.3314691 0.18717486 0.3318066 -0.710039 0.30429474 -0.3982536 -0.08809292 -0.290144 -0.42308217 -0.098360375 0.14269549 -0.46330157 -0.31456324 0.44458494 0.06806843
9788925551425 -0.49526846 0.09223848 -0.020670913 -0.38324603 -0.66093427 0.17202136 0.37108794 -0.18000335 -0.21665154 -0.17840703 -0.4833246 0.66796845 0.4859851 -0.39053345 -0.31893894 0.19647963 -0.8618235 0.19314127 0.19623193 0.22946802 -0.024181131 0.23762701 0.004877793 -0.025214147 0.48390874 -0.38415998 -1.394891 0.05588486 0.061265163 -0.0749491 0.27835765 0.16855201 -0.8728868 0.5421635 -0.6092589 0.26616314 -0.34291884 -0.67300886 0.021958802 0.4946741 0.06850445 -0.15299803 0.05559368 -0.67969936 0.07358606 0.31949383 -0.118756905 0.30001763 -0.42668226 -0.3238084 -0.005951209 0.115823984 -0.12084277 -0.16321209 -0.21399096 -0.19827764 0.26149207 -1.0709566 0.53314215 0.4677513 -0.6106657 0.051971596 -0.6681202 -0.884465 0.45417455 -0.21732531 1.3216796 0.07881669 -0.3504847 0.17804109 -0.23848505 -0.43579096 -0.36958417 -0.035608415 -0.5440272 -0.09946168 0.3101603 -0.49830586 1.4369259 0.24368407
9791168011632 0.16221154 0.62364554 0.29719368 -0.31223062 -0.9629908 0.13969551 -0.034175187 0.043358754 0.20438142 -0.016105475 -0.6086655 0.39069307 0.27113447 -0.38464725 -0.25489926 0.63189846 -0.24580258 -0.6039721 -0.0901095 0.12101593 0.1274237 0.6892426 0.28644526 0.33616388 0.2348211 0.22602618 -0.68284285 0.41147932 -0.023162168 0.10585076 -0.4231972 -0.39428532 -0.13522354 0.17774348 -0.23301463 0.765655 -0.27505407 -0.57575744 0.0005672771 0.36241376 -0.039102875 -1.0035304 -0.047529213 -0.108339585 -0.24980655 -0.2357153 -0.43723667 0.13355052 -0.73202837 0.08600771 -0.28257272 0.2865522 0.31488505 -0.6481856 0.21194036 -0.054523073 0.5247808 -0.82154346 -0.15187171 0.48948509 -0.52698827 0.003046151 -0.26999143 0.06690833 0.500002 -0.19852206 1.4337525 0.2635825 -1.3972113 0.16969325 -0.6680793 -0.31579065 -0.5903518 0.45493922 0.17950425 0.06160106 0.035871755 0.035632916 0.78586715 -0.33402133
9791190488198 0.3462506 0.8315238 0.029787077 -0.4357401 -0.7983682 0.25957856 0.49316248 -0.08902392 0.008016617 0.10234433 -0.31435546 1.1337845 0.45528105 -0.9206959 -0.53097904 0.52971834 -0.25058624 -0.93779594 0.17734973 0.46714434 -0.11169871 0.24205792 0.9265778 0.089469284 1.0547385 0.2621904 -0.8695491 0.7534145 0.17156354 0.56312144 -0.06400885 -0.34886777 -0.6570309 0.78166187 -0.1355189 0.75092375 -0.6692665 -0.7965152 0.32503125 0.85158885 0.12029895 -0.85173535 0.31643394 -0.15326561 0.32154787 0.22915623 -0.53000027 0.058684286 -0.4996423 -0.3745599 -0.11949471 0.08274168 0.101960845 -0.03102058 -0.43627554 0.14854763 -0.28013146 -0.6322027 -0.296783 0.22932555 -0.7012429 -0.31017056 -0.09722633 0.43230468 0.83892274 -0.22764632 1.4339236 0.35016364 -0.48950937 -0.101483226 -0.31207645 -0.54949456 -0.4717471 0.30778524 -0.44616336 0.33372664 -0.1490016 0.23872116 1.4748225 -0.34356326
9791159099472 0.075013235 0.19451034 0.18451232 -0.7086743 -0.9713696 0.3400056 0.16498335 0.39688012 -0.2798638 -0.10171109 -0.5046348 0.53761977 0.2874284 -0.46170977 -0.22364931 -0.3778109 -0.38929632 -0.07927247 0.17995816 0.26406908 0.9342634 -0.009387002 0.31486946 -0.17378849 0.79981786 -0.36825648 -0.6581132 -0.49107853 0.63517433 0.5187719 -0.091538645 -0.025622003 0.20848735 0.31848437 -0.0879179 0.09752254 -0.8088899 -0.7763352 -0.12571266 0.31184316 0.34462884 -0.67270464 0.70219 -0.62991834 -0.2589438 0.27888948 -0.9413497 0.04053027 0.05777904 -0.58483094 0.014627011 0.17005141 0.04199947 -0.15710148 -4.7136265e-05 0.031275805 0.4737854 -0.76151234 -0.027266217 -0.22603847 -0.5673209 0.19699527 -0.15632705 0.37930822 1.0783938 -0.3174975 0.7472767 0.7098305 -0.18850566 0.18990815 -0.7075451 0.017854752 -0.2767993 0.37312117 -0.5102975 0.29871625 0.0063456297 -0.3827505 0.48643625 -0.07210066
9791168220218 -0.10701696 0.20330364 -0.15516782 -0.23168945 -1.5715337 -0.114407755 0.2608779 -0.11208443 -0.020876765 -0.049601108 -0.9293199 0.8335852 0.80938804 -0.2942936 -0.46883762 -0.13913909 -1.1382983 -0.049251236 0.54841626 0.2685334 -0.20653863 0.15925528 -0.020920027 0.12925035 0.8376029 -0.7214357 -0.96875983 0.3175649 -0.022609843 0.19418472 -0.07306656 0.22604242 0.01727483 0.16271862 -0.42952016 -0.13568938 -0.5412525 -0.94949114 0.046636946 0.042348478 0.02652178 -0.43250915 0.13590886 -0.6595469 0.27917758 0.33441204 -0.5408835 0.16021875 -1.1050342 -0.5085908 0.7950059 0.10879204 0.16640571 -0.3229698 -0.26916838 -0.29522002 0.7883054 -1.106526 0.01771138 0.710139 -1.0166371 0.26787254 -0.58424604 -0.53039026 0.33765295 0.20575769 0.92408264 0.40657592 -0.10345325 0.07644356 -0.059866015 -0.07379477 0.12644783 0.2432465 -0.6786046 -0.38701153 0.348476 -0.085499145 1.4376184 -0.08549684
9791189712679 -0.3212045 0.16321193 0.058812235 -0.6561655 -0.70778143 0.01748415 -0.1566203 -0.042480692 -0.24051178 0.07212355 -0.6930416 0.38917524 0.32444796 -0.13066804 -0.32377553 -0.13990785 -0.86894536 -0.30209088 0.6205844 -0.16378705 0.7604505 -0.04599119 0.045745295 0.10955299 0.5171619 -0.7112644 -0.69789064 -0.4084866 0.1271915 0.18552236 -0.014130722 0.17095011 -0.17371295 -0.086936206 -0.1390473 0.32587826 -0.83998173 -0.3872929 -0.13766634 0.37232128 0.16551998 -0.47330356 -0.17965934 -0.57268196 -0.46741632 0.7989119 -0.78257054 0.24862033 -0.101738065 -0.3613472 0.37338647 0.016191045 0.32524848 -0.19859594 -0.18296395 -0.06755599 0.32840765 -0.4552171 -0.0711993 -0.49905637 -0.789774 0.11253934 -0.17488775 0.2645464 0.9097414 -0.2063295 0.51722014 0.40645975 -0.046882365 0.24830534 -0.16224416 0.1441912 -0.10734192 0.0020717748 -0.094654545 0.08052456 -0.076198034 -0.22809112 0.5112029 -0.24657199
9791156162438 -0.5643182 -0.046596665 -0.2714194 -0.12648419 -0.7549155 0.7338445 0.05626967 -0.1068552 -0.90063673 0.94173086 -0.19859168 0.14852276 0.583916 0.25378445 0.31480062 -0.87045014 -0.15972051 0.83633256 -0.75746953 0.33231977 0.31501284 0.21882758 -0.04646246 -0.21215719 0.2711402 -0.41459072 -0.60960364 -0.11725093 0.4771495 -0.23304205 0.0015637401 0.018167973 -0.28089142 -0.39976445 -0.14543161 0.7223139 -0.18139374 0.13196823 -0.29849884 0.16892806 -0.39678288 0.13479841 -0.018455394 -0.8014843 -0.334289 0.75980365 -0.7898445 0.7548435 -0.24740587 -0.26656172 0.042750478 0.13397634 0.104281574 0.10996983 0.12914641 1.0005484 -0.031082613 0.27761078 0.50149643 -0.19419795 -0.20937133 0.25697988 -1.0116746 -0.15852721 0.71415365 -0.32449687 -0.19316433 0.4618576 -0.44336042 -0.32730237 -0.6742046 -0.10083217 0.07779839 -0.340486 -0.12502451 -0.4722657 -0.16005705 -0.46665436 0.30883744 0.33864433
9791190846271 -0.0979249 0.10205407 -0.06270836 -0.59892994 -1.0220582 0.37465775 0.5523624 0.11581188 -0.005780279 0.029930169 -0.5936397 0.7066718 0.7317542 -0.23648858 -0.12137254 0.52397054 -0.82301366 0.2336525 0.6098601 -0.09238498 0.15654604 0.49869797 0.10433522 -0.27964735 0.2822686 -0.9061631 -0.96900934 0.5736406 -0.23347795 -0.32391983 -0.3407042 0.42874405 -0.2265239 0.6805691 -0.5816498 0.5052486 -0.310452 -0.6285636 -0.07786655 0.26929164 -0.17743407 -0.55416554 0.050608825 -1.0675902 0.059085656 1.0251266 -0.32242557 -0.085692026 -0.5758207 -0.523988 0.45397374 0.13628608 -0.20924346 -0.39236468 -0.010623303 -0.096500576 0.24127813 -0.87549406 0.4122115 0.11891672 -0.4573273 0.13199466 -0.77908814 -0.7370405 0.5247492 -0.23156857 1.0822953 0.0875914 -0.18063207 0.4003639 -0.022775842 0.03868372 -0.62329227 0.37547883 -0.27175185 -0.3028696 -0.41204703 -0.68417114 1.3381134 -0.026727179
9791187152323 0.03571004 0.60865533 0.27527267 0.0048835464 -1.1449617 -0.20474246 0.35207316 0.18161426 0.2934607 0.066484034 -0.78063875 0.9778999 0.69634664 0.08517084 -0.25793138 0.4030317 -0.96690446 0.07697957 0.342697 0.4230535 -0.018674683 0.6959477 -0.19767684 -0.088684306 0.46980366 -0.8497224 -0.67626035 0.4502595 0.12774867 0.20725448 -0.2886473 0.112891234 0.1463388 0.25894275 -0.03807981 0.09802061 -0.59903747 -1.112194 -0.029947432 0.4266301 -0.28900647 -0.859175 0.28915286 -0.87762034 0.25305244 0.2851294 -0.8736843 -0.020590005 -1.0491648 -0.65378827 0.6131063 0.037675437 0.37117007 -0.39261952 -0.24736927 -0.52902585 0.5978213 -1.1391476 0.292791 0.75559753 -0.8254273 0.3228749 -0.49835077 -0.48788807 0.6260643 0.19058022 0.9716085 0.7630862 -0.65105814 0.12093823 -0.15119302 -0.14101994 0.10863058 0.042379554 -0.739906 -0.10456196 0.3987657 0.132981 1.0485253 0.080968946
9788925552651 -0.5088875 -0.121686146 -0.03560285 -0.5389094 -0.6583307 0.4482281 0.6119648 -0.18804011 -0.15981294 -0.27289903 -0.49849 0.37158298 0.32407862 -0.23066387 -0.30708387 0.43264276 -1.0136813 0.07057185 0.5793202 0.09427841 -0.24726826 0.32100996 0.17204128 -0.028690524 0.507465 -0.5905723 -1.07165 -0.01789531 -0.2669511 -0.029742751 0.28430852 0.077232786 -1.0536052 0.4914966 -0.70213306 0.29246598 -0.15414953 -0.99193156 -0.18910421 0.6797335 0.16448988 -0.22833811 0.16787529 -0.59843266 0.293135 0.6476247 0.36287344 0.31195912 -0.48533872 0.13161272 -0.1807892 -0.06913591 -0.20463882 -0.27302155 0.19473013 -0.35785735 0.02536926 -0.95460796 0.56303716 0.41924953 -0.51725286 0.09467872 -0.7550464 -0.84930927 0.3326913 -0.37632 1.0414468 -0.050354496 -0.3716011 0.31641752 -0.120700136 -0.2142 -0.29744953 0.03855938 -0.41633317 0.23399225 0.13094392 -0.3867418 1.4998035 0.06456541
9791188801084 -0.48347434 0.018116996 -0.402514 0.050440725 -0.29358593 0.9036531 0.071118034 -0.21613993 -0.6837261 1.0311011 -0.011071435 -0.22014534 0.43771794 0.2049523 -0.037569355 -0.3940292 -0.4589505 0.9979522 -0.325796 0.27232254 0.3288094 -0.01780884 -0.29757744 -0.23492186 0.063548386 -0.40687776 -0.56971824 -0.2825896 0.41532025 -0.22734421 -0.037572786 0.055662222 -0.021770498 -0.3761181 0.18990844 0.5841212 -0.078759596 -0.05048774 -0.3817312 0.19883199 -0.022644276 0.25622284 -0.24958624 -0.36437708 -0.23547262 0.6466304 -0.7010684 0.91243386 -0.053599373 0.21822198 -0.16928793 0.21217477 -0.043261897 0.112154976 0.28092873 0.6818839 -0.28352022 -0.0061698216 0.43823397 -0.3161004 -0.07910039 0.13511598 -0.6564149 -0.54066336 0.549201 -0.14775063 -0.10557749 0.652549 -0.5148998 -0.08140456 -0.39883348 -0.036906622 -0.032926176 -0.39325607 -0.01670413 -0.4903235 -0.2300516 -0.5331625 0.18965161 0.1613453
9791190179430 0.017925726 0.121952266 -0.10765884 -0.6398257 -0.74611056 0.47212425 0.2765594 -0.07595738 -0.2642996 0.15011059 -0.5471482 0.5411162 0.62785673 -0.37386066 -0.29684743 0.80040324 -0.78202283 -0.2806447 0.34632775 0.09762652 0.28217098 -0.41231647 0.5573287 0.3348874 0.7167732 -0.38691247 -0.5469688 0.15172762 0.09136948 0.06124726 -0.2673153 0.22628991 -1.5545934 0.4262806 0.0044446574 0.51879245 -0.83530873 -0.60617137 -0.14451137 0.13356377 0.5428469 -0.5018314 0.3265759 -0.7725272 -0.3667302 0.291897 -0.6598465 0.5989875 -0.5578028 0.09150843 -0.5290464 -0.09138147 0.008001776 -0.337241 -0.15625848 0.3215278 -0.37167692 -0.16589381 0.4263656 0.052492592 -0.8154462 -0.009706337 -0.57814807 0.60552377 1.0758678 -0.32687798 1.0361847 0.13761352 -1.0348234 0.37950772 -0.6866488 -0.48499176 -0.24238548 -0.79426813 0.07917921 0.25588936 -0.123604104 -0.2765261 0.983776 -0.1472777
9791185402345 -0.41408315 0.057967853 0.3446798 -0.6906344 -0.85757196 0.022839682 0.40181568 0.058395658 -0.23045965 0.15887342 -0.35382643 0.6511947 0.45368004 -0.27271837 -0.04904443 -0.23439205 -0.9940013 0.06900912 0.3249825 -0.012427087 0.37905583 0.3183377 0.28887552 -0.04663427 0.7734499 -1.1146836 -0.7668234 -0.2743901 0.32719252 0.07014211 -0.24778554 0.46937263 -0.31755638 0.32362908 -0.5443796 0.29365125 -0.545108 -0.66695565 -0.20849586 0.48503453 -0.0071872748 -0.5417674 0.115514666 -0.9251285 -0.32682332 0.8911004 -0.33066523 0.052229982 -0.2218559 -0.5413619 0.37646815 0.069546096 0.2300401 -0.47083965 -0.15059754 -0.070802614 0.24221277 -0.7432952 0.3863057 0.13933918 -0.44143713 0.03205666 -0.6702978 -0.7836329 0.79912066 0.048266713 0.89276624 0.3728892 0.12706907 0.10122885 -0.12453621 -0.06368489 -0.3454247 0.10843421 -0.0892422 -0.010661934 -0.3974345 -0.5272491 0.9921075 -0.056290515
9788931461794 -0.71683985 0.82739514 -0.05465663 -0.0221457 -0.35542312 0.4879691 -0.0065351287 -0.3804632 0.016269196 0.33629465 -0.64321303 0.3886374 0.7266866 0.16884328 0.13280164 0.13393728 -0.6154458 0.41496187 -0.060946316 0.40362978 0.14044048 0.17752317 -0.14485334 0.018679125 -0.10400522 -0.3566123 -0.49322906 0.32200164 -0.24602626 -0.21946916 0.18978915 -0.19339141 -0.043858964 0.62716776 -0.16638276 0.7136079 0.19249983 0.15606326 -0.32440984 0.19690737 -0.3485095 -0.6295161 -0.086031765 -0.15818079 -0.00820937 -0.27900988 0.040987913 0.74445105 -0.12985261 -0.07644548 0.06618443 0.21313176 -0.10796856 0.001426538 0.04880102 0.88976794 -0.05530546 -0.06365928 0.6868688 -0.21897219 -0.46924537 0.112662524 -0.15958413 -0.13635099 0.062046126 -0.66267157 0.3563408 0.5611116 -0.76955086 0.009348096 -0.08573233 -0.28529143 -0.3028076 -0.02501334 -0.12655787 -0.074100815 -0.2730209 -0.5170279 0.52999616 0.13516156
9791186494059 -0.083304755 0.1113629 0.6052232 -0.53707856 -1.1906047 -0.016071245 -0.4195358 0.48529145 -0.28369293 0.36134475 -0.45693412 0.91996694 0.8299753 -0.3383179 0.42067757 0.516818 -0.67727387 -0.27849147 0.6929987 -0.6926927 0.82869184 -0.77206415 0.10823158 0.2604743 0.3924084 -0.4083133 -0.8063442 -0.06686316 -0.32971558 -0.24142027 -0.5947091 -0.0054802094 -0.38563287 0.31866086 -0.425419 0.32469475 -0.79394376 -0.4659243 0.025445435 -0.26571313 0.299812 -0.7849608 0.27019522 -1.19204 -0.5763525 0.21584785 -0.7891437 0.1564025 -0.50390846 -0.22100128 0.4011725 -0.079054125 0.082643054 -0.79003656 0.457024 -0.18165581 0.18553632 -0.4886006 0.0672296 -0.1825888 -0.9149571 0.28661105 -0.697524 0.09584798 0.8407461 -0.47891057 1.1705999 0.38897339 -0.41151848 0.2693825 -0.4602904 -0.16462052 -0.1646828 0.571196 -0.32374546 0.16381231 -0.13849916 -0.64620864 1.0642321 -0.18892303
