3649 100
9791190776820 -0.51840776 -0.28316954 -0.5382327 0.30850637 0.32250628 0.0256871 -0.04953867 0.14137946 -0.34991843 0.414915 -0.47002658 -0.022228666 -0.4790268 -0.18725172 0.28810066 0.12900329 -0.6285711 0.5868678 -0.13794331 0.114723384 -0.74258983 -0.10764807 -0.42646968 -0.07117019 -0.034948826 -0.13352762 0.41763204 0.2591045 -0.99548656 -0.32614055 0.1909774 -0.8802466 0.72596943 0.67565954 -0.75818163 0.13218273 0.32230738 0.40038362 -0.23208863 1.0787095 -0.23531102 0.021201583 0.30548725 -0.29301697 0.10444913 0.2329247 0.09165289 -0.013756296 -0.092444204 0.33685195 0.6104655 -0.044956524 -0.41089064 0.5081469 0.42769772 -0.8089597 -0.58943754 -0.301196 0.21248566 -0.5874235 0.5674013 0.06465536 0.8545518 -0.295687 0.042783603 -1.1355517 0.25924447 0.0642992 0.22326823 -0.6352896 0.98550045 0.15904811 0.19373573 0.6925455 -0.25250727 -0.084367864 0.4607355 -0.81128436 0.26009682 0.071439944 0.3556351 -0.2920592 -0.35571918 -0.57570285 0.09144876 -0.69318646 -0.4646826 0.23684373 0.37507528 -0.11598746 -0.5664002 0.19891307 -0.0015853354 0.4758469 0.31456003 -0.11717022 0.26373965 0.54827034 0.2602239 -0.32856596
9788954759335 -0.7216267 -0.13900496 -0.64530635 0.1097343 0.16996813 0.2061331 -0.3870507 0.15703905 0.083426744 0.43175378 -0.22008173 0.18346936 -0.63533247 -0.236746 -0.062008403 0.21001484 -0.48277777 0.22893666 -0.29863888 0.029249867 -0.602409 -0.3577082 -0.5632589 -0.30534336 0.42310497 -0.3676856 0.4174158 -0.065140426 -0.4968278 -0.30523318 0.31329203 -0.32598898 0.015958961 0.69779295 -0.793488 0.43208027 0.75352246 0.025149092 -0.504432 0.89101315 0.05269862 0.20045 0.017544506 0.007450995 0.15438886 0.21374509 -0.022780059 -0.26183712 -0.29154864 0.5250503 0.36433572 -0.08728851 -0.27356625 0.17459172 0.31967607 -0.919999 -0.68677974 -0.31160563 -0.0976008 -0.20166703 0.53716874 0.55111724 0.6710628 0.0170694 -0.033724923 -1.0772599 0.33886808 0.23280826 -0.0023987393 -0.40236014 1.3264941 0.12821846 0.15913093 0.5615471 0.038151804 0.067672744 0.48738384 -0.67862535 0.26950935 0.030236276 0.06591224 -0.58244616 -0.57873243 -0.4846569 0.46160677 -0.56214607 -0.03781841 -0.10379294 0.19926521 -0.14016359 -0.19260724 0.5036859 0.1629563 0.1828807 0.16044778 -0.3797589 0.2854132 0.23681459 0.43747377 -0.26408422
9788934986652 -0.5067738 -0.72290194 -0.66377044 0.100794755 0.35000834 -0.1507953 -0.49026752 0.004358192 -0.32114795 0.43844867 -0.5071203 -0.33548754 -0.046587296 -0.44368693 0.22474122 0.15868913 -0.37845948 0.4577688 0.0039806673 0.09725292 -0.44947243 0.06667857 -0.61324114 -0.38901162 0.18365338 0.024685036 0.26593158 0.516738 -0.6898866 -0.08221474 -0.08486431 -0.9306076 0.20717594 0.82254857 -0.635666 0.32144985 0.105473705 0.52966744 -0.10789706 1.0214425 -0.07122131 -0.031555187 0.1666417 -0.5135114 0.05477747 0.13087387 0.15626626 0.52082235 -0.35472208 0.25700477 0.57130116 0.1786823 0.046021897 0.67682695 0.14776526 -0.69990796 -0.57088363 -0.31907713 -0.18512 -0.14695947 0.13103439 0.36842033 1.038485 -0.4023295 -0.11363836 -0.92717004 -0.1108333 -0.19215101 0.45532715 -0.5662447 1.3858644 0.3386081 -0.16457665 0.35009176 -0.5186424 0.19235216 0.28893575 -0.80260736 0.585992 0.24615076 0.3042383 -0.23831631 -0.7407738 -0.15331404 0.0013272968 -0.7146523 -0.51358426 0.60134923 0.28919926 0.29666317 -0.21931411 0.070343256 0.19046995 0.2831415 0.4251256 0.48821688 0.33201867 0.49485692 0.34625402 -0.13899845
9791188700721 -0.6528624 -0.3597633 -0.96945953 0.052816335 0.673796 -0.19285835 -0.19688581 0.114603795 -0.6409955 0.36803234 -0.3985751 0.52123606 -0.35050806 -0.81505084 0.34038866 -0.39475223 -0.30619252 0.3757547 -0.14186716 0.049990185 -0.5728641 -0.0998409 -0.70978695 -0.026748834 0.39779866 -0.63183624 0.56851226 0.75562984 -0.8222284 -0.058105636 0.14271611 -0.9831023 0.014017032 0.28292426 -0.79514545 0.16724207 -0.24728768 0.7474043 -0.24717993 1.4229144 -0.104257524 0.16601016 0.3077508 0.15100618 -0.21794647 -0.20950618 0.5634965 0.6854622 -0.46925166 0.70953757 0.82221013 -0.32386905 -0.27058014 0.32799566 0.033641994 -0.9640592 -0.81889516 0.17053743 0.4899071 -0.24420308 0.52259314 0.22671102 1.4929459 -0.446666 -0.19745997 -0.8779769 -0.39580312 -0.42950103 -0.27959493 -0.7236199 1.9587783 0.61896795 0.55352557 0.91741097 0.10355818 -0.11353446 0.85225725 -0.8628236 0.15557899 0.36594313 -0.09595336 -0.3571302 -0.6731836 -0.001948384 -0.053402238 -0.36225605 -0.56903255 0.2607779 0.57136345 -0.37031025 -0.12819542 0.36791056 -0.035029713 0.030486418 0.8718118 -0.20171148 -0.14657907 0.32454666 0.44177634 -0.44966665
9791191347456 -0.18928035 -0.5600586 -0.68454105 0.34664986 0.04816093 0.018527294 -0.12281771 0.21025908 -0.14884357 0.10534822 -0.60285676 -0.3561496 -0.41549093 -0.19338912 0.019336661 -0.095998965 -0.47978127 0.09048803 -0.11958308 0.15279047 -0.7722293 -0.4681359 -0.43733498 0.20929466 -0.13410112 0.17095655 -0.14690824 -0.018933775 -0.92736745 -0.45874473 -0.25570756 -0.59829515 0.43938547 0.6333965 -0.66172564 0.0015779072 0.16966572 0.25066826 -0.36535218 1.1395385 -0.26492047 0.14665961 -0.4474003 -0.328722 0.19151613 0.12441274 -0.018977584 0.2834368 0.044343255 0.3397259 0.5496468 -0.3769102 -0.15694875 0.6528106 -0.049544472 -0.46332106 -0.90838677 0.18323487 0.2988746 -0.3820574 0.41264382 0.04184366 0.5489579 -0.4009837 0.30194548 -0.86666423 0.027123041 -0.058958452 0.3920041 -0.64647347 0.74030143 0.17212608 0.17504984 0.124700524 -0.2283215 -0.14352958 0.22564662 -0.60477835 0.41363698 0.1690096 -0.028404277 -0.46149236 -0.58670646 -0.20746885 0.24533544 -0.69680524 -0.4083176 0.21451046 0.5016419 0.049088143 -0.5864668 0.41765714 0.352116 0.786586 -0.4624311 0.09614669 0.27524257 0.34597924 0.45931765 -0.13202512
9791130677880 -0.29774514 -0.71257657 -0.7162401 0.46719515 0.32924053 -0.13276222 -0.28673983 -0.047791157 -0.2911733 0.17287433 -0.2497958 -0.3184241 -0.23628078 -0.30391398 -0.03652184 -0.16107754 -0.22804458 0.41786274 0.041155778 0.12491918 -0.669493 0.007358901 -0.33599994 -0.023836037 0.18639539 -0.04750725 0.2008235 0.19937903 -0.86452717 -0.19660449 -0.2620179 -0.67642665 0.112072594 0.4487534 -0.7228496 0.21237719 -0.05732224 0.6174684 -0.1980258 0.8196533 0.01896517 0.0083030835 0.37093425 -0.24007608 -0.006539717 0.06217242 0.33083916 0.26212087 -0.21322663 0.44122776 0.44358975 0.07485947 -0.10246778 0.64580816 0.1855665 -0.75384086 -0.47693974 -0.18662587 0.08417192 -0.07762697 0.4199173 0.108412646 0.9424232 -0.38851237 -0.06520611 -0.61798114 0.025803193 -0.22022474 0.40442795 -0.5331359 1.305767 0.613816 0.32141694 0.3622161 -0.042049583 -0.12910941 0.29250813 -0.57840353 0.5097791 0.40563884 0.15655437 -0.15115188 -0.7735827 0.013762506 -0.15370756 -0.58457947 -0.4761173 0.23294574 0.332448 0.42347708 -0.54164433 0.25410435 0.087490566 0.37177846 0.087558806 0.34707388 0.023205597 0.21252553 0.23720804 -0.25517467
9788947547659 -0.3631511 -0.672652 -0.9668239 0.6891448 0.43801343 0.10298049 -0.10098854 0.27269548 -0.14074221 0.38927993 -0.19369677 -0.33275786 -0.29482335 -0.25685236 0.22585 -0.0079831565 -0.2753956 0.48036245 0.26350707 0.125377 -0.533465 -0.14107598 -0.22953674 0.19390424 0.2641389 -0.39033452 0.30067098 0.45709866 -0.810504 -0.36215216 -0.5377949 -0.77155536 0.2984121 0.7981086 -0.9719185 0.570389 0.07526137 0.5643854 -0.37031198 1.3066802 0.11021268 0.055594772 0.384132 -0.29704955 -0.122381955 0.2269856 0.017966611 0.3970443 -0.5173429 0.15759192 0.59950316 -0.25463498 0.3730411 0.5968603 0.13864072 -0.7431496 -0.7957304 -0.26450598 0.21421747 0.108438276 0.49690816 0.123810895 1.0608718 -0.27117804 -0.109479375 -1.4539255 0.295464 -0.46722555 0.28320757 -1.0417 1.2768705 0.13069038 -0.09858735 0.5677072 0.15674984 -0.34105176 0.43376467 -0.79252774 0.65941995 0.2983074 -0.16537385 -0.45979396 -0.67566246 -0.48154417 -0.03092864 -0.8117686 -0.59145695 0.6949936 0.28830904 -0.06387336 -0.3407386 0.18449788 0.00784144 0.38241202 -0.09230875 -0.016643377 0.58634424 0.29412153 0.1107544 -0.065171935
9791190846301 -0.40869316 -0.6748686 -1.0128559 0.32908204 0.947224 -0.28706226 -0.38922405 0.18005325 -0.46759087 0.21961659 -0.39633963 -0.42869812 -0.29410318 -0.91939026 0.16005303 -0.18134771 -0.22890854 0.46790332 -0.39823747 0.24161737 -0.33844307 0.071959846 -0.44949877 0.001274201 -0.16912907 -0.032851413 0.3951348 0.4517408 -0.9827982 0.06868135 -0.32637048 -1.131371 -0.1594439 0.29782936 -1.1487335 0.26292297 -0.36599806 0.7334452 -0.024861986 1.6255072 0.23234506 -0.12047713 -0.072649315 -0.5265947 0.06824239 0.26211149 0.19553943 0.41132423 -0.53299916 0.32692906 0.85835695 -0.14645621 -0.10820853 0.5313247 0.3588133 -0.74528056 -0.9511905 -0.14456165 0.12497814 -0.2006673 0.3557142 0.13808632 1.2468127 -0.7441136 -0.37203616 -0.7799262 0.016753372 -0.20158009 0.25480124 -0.6433223 1.7251863 0.70074075 0.16681899 0.540681 0.10937979 -0.042119015 0.783418 -0.7061365 0.40296587 0.422929 0.27590665 -0.6959805 -0.6812137 -0.16627058 -0.18614212 -0.81003547 -0.22823289 0.29166824 0.82493794 0.32232788 -0.16390467 0.25993592 0.53152627 0.2737283 0.036103275 0.3073174 0.22119883 0.5118519 0.33195636 -0.13540336
9788997396658 -0.44892398 -0.8401252 -0.70343494 0.35581356 0.52727437 -0.08403391 -0.16586585 -0.04984419 -0.055413872 0.34413612 -0.41487834 -0.21893513 -0.54263073 -0.6427872 0.0435598 0.029003344 -0.3591931 0.4825336 0.0064610876 0.21312672 -0.67174494 0.08165749 -0.767252 -0.25051492 0.055785526 -0.085768886 0.46047813 0.4576709 -0.90321004 -0.42032653 -0.5114003 -1.106499 0.15357608 0.90369576 -0.7432878 0.13497846 -0.03782113 0.6203656 -0.21731538 1.4067934 0.25892875 -0.21616317 0.17197639 -0.74183404 0.10503585 0.11457282 0.13263617 0.8020948 -0.47833446 0.3727825 0.6279664 -0.06449804 0.2052245 0.74465585 0.47458693 -0.6916856 -0.68997663 -0.13462394 0.45553738 -0.36616793 0.5589153 0.11954577 1.1222091 -0.4950632 -0.31938067 -1.644527 -0.02224495 -0.3767464 0.590716 -1.0930055 1.3254681 0.19430196 0.2549007 0.5013242 -0.03588007 -0.08597134 0.29425898 -0.8524936 0.69497544 0.06962697 -0.12779784 -0.4004675 -0.7707262 -0.18995549 0.528664 -1.1937937 -0.7629704 0.70525455 0.4872912 -0.0068149646 -0.3502165 0.12922876 0.17964806 0.37398386 0.21209309 0.17240909 0.7362313 0.6823737 0.21674198 0.17295593
9791164063932 -0.41648176 -0.22297628 -0.6866124 -0.10899517 0.12008549 -0.072636336 -0.12372826 0.24470396 -0.37454242 0.5237547 -0.12875307 -0.08819388 -0.32069978 -0.025620647 0.19714469 0.22494344 0.07177386 0.24679068 -0.007990547 -0.29954043 -0.47062516 -0.045492236 -0.3624826 -0.16071033 0.3127345 -0.16662563 0.02630189 -0.15114576 -1.0064478 -0.36081082 -0.034679934 -0.12546456 -0.012237171 0.66375315 -0.75023913 0.15576012 0.25744286 0.44879285 -0.20258832 0.48724848 -0.23973648 0.117070675 0.5888631 -0.41168502 -0.095127605 0.23862518 -0.011243963 0.043480724 0.09971575 0.37710583 0.27785498 -0.078333326 -0.06596172 0.49115407 0.14760186 -0.88657093 -0.22975764 -0.16250904 0.29447636 -0.47712672 0.290937 0.013689899 0.39581844 -0.04691802 -0.25789863 -0.6894744 0.24766813 0.27308506 0.15097311 -0.53292584 1.1305438 0.0071000266 0.14764683 0.63974524 -0.28995395 -0.059147004 0.4574982 -0.7728478 0.22449364 0.20545246 0.6254946 -0.1760821 -0.27050263 -0.10255635 -0.086703934 -0.20778769 -0.24702665 0.06329754 0.41224647 0.14436549 -0.62379086 0.1394869 -0.45018774 0.4604425 0.07525308 0.2629537 0.3321632 0.51703906 0.23567563 -0.25514576
9791196848194 -0.11444525 -0.59050566 -0.5414044 0.21531205 0.12176907 0.021405613 -0.8078212 0.14686394 0.34815335 0.48735482 -0.41950718 0.4288603 -0.59868073 -0.06510762 0.37156573 0.12115797 0.13193847 -0.42682013 0.26182967 0.06779652 -0.95817494 -0.45566037 -0.22647817 -0.7073913 0.11337409 -0.14723544 0.14401734 0.3604422 -0.42589584 -0.36624143 -0.10202505 -0.7704497 -0.0045988173 0.47616285 -0.96488243 0.29648623 0.4176315 0.12212009 -0.52897316 1.0674683 -0.51268226 -0.07953782 0.5834734 -0.28601474 -0.2879 0.077839755 0.08100926 0.30763075 -0.74062234 0.3753978 -0.24894254 -0.017213497 -0.67622304 -0.18983662 0.63217556 -0.9899816 -0.36975974 0.05880092 0.06850592 -0.39806575 0.13524139 0.30573598 0.36649927 -0.03518215 0.23135427 -1.4953439 -0.006170381 0.09838822 0.15151522 -0.9792629 1.3253765 0.37730032 0.7049513 0.8462231 -0.13085498 0.73205763 1.1859746 -0.3965927 0.9505186 -0.13795765 0.0017078782 -0.22025889 -0.6998732 -0.16610801 0.7633518 -0.98878217 0.19859077 0.18014859 0.5427775 0.25093508 -0.8850184 0.57907176 0.46808577 0.14402913 0.29489243 0.18076403 0.7349564 0.32090402 -0.0142083 -0.24276459
9791158732202 -0.38899454 -0.44209728 -0.41632155 0.16121304 0.30450782 0.4307311 -0.27271238 -0.19473775 0.034028344 0.7440798 -0.057384036 -0.014969885 -0.3159829 -0.1540285 0.22565587 0.08277328 -0.41038492 0.3014937 0.23965599 0.3132376 -0.79308915 -0.6069037 -0.5909988 -0.27577615 0.36153787 -0.098022155 0.56619227 0.24771106 -0.91573375 -0.6358978 -0.019959114 -0.76777875 0.18239133 0.67080307 -1.0338953 0.7335132 0.52678084 0.4640968 -0.5956593 0.98057365 -0.27834484 0.14312562 0.21412909 -0.040989976 0.014986088 0.014817245 0.058348075 0.20133512 -0.46731177 0.35760212 0.52849406 0.0037009441 -0.38460055 0.32331678 0.47305408 -1.053042 -0.5097101 -0.39880076 -0.020890115 -0.010297883 0.35556892 -0.23007369 0.43735594 -0.36583647 0.1272408 -1.3670042 0.4137096 0.047106914 0.59011024 -0.9147107 1.2788951 0.4530506 0.32199234 0.777787 -0.051285464 0.19784604 0.5861875 -0.87908304 0.91080034 0.0591037 -0.07528221 -0.27268267 -0.69465804 -0.6645709 0.4019784 -0.7251717 -0.45868587 0.29011297 0.2931317 -0.0965758 -1.0177331 0.35977462 0.096069746 0.1759551 0.512067 -0.15026662 0.3764226 0.2826492 0.2756469 -0.48282692
9791166373848 -0.7191799 -0.1527679 -0.84069145 0.37187612 0.18628836 0.33816984 -0.5119787 0.103335746 -0.3102311 0.76102287 -0.15357348 0.074442625 -0.59829456 -0.17051831 0.35958433 -0.15872666 -0.29362458 0.27042148 0.055020165 -0.014411811 -0.9781296 -0.5185342 -0.37525696 -0.3145591 0.2879314 -0.34282735 0.08793652 -0.067149445 -0.93256855 -0.49168184 0.14316855 -0.73922837 0.021564366 0.6102149 -0.94236547 0.5119378 0.496322 0.11932605 -0.3623736 1.0303459 -0.1357921 0.43418235 0.41649994 0.2777289 -0.016422106 0.1320032 -0.07863377 -0.2713636 -0.41687822 0.5435074 0.27285486 -0.1901682 -0.3961064 0.13244607 0.1689264 -0.7076417 -0.7000501 -0.25357357 0.00017997816 -0.13514377 0.36967292 0.4536432 0.54665124 -0.021497842 0.112669274 -1.1340048 0.56752527 0.14271821 -0.24125853 -0.77357596 1.1094043 0.30859 0.026626604 0.75859386 -0.071531065 0.21223898 0.5408222 -0.6087255 0.28371298 0.0067750863 0.09737605 -0.34725487 -0.69228625 -0.7935643 -0.107226 -0.70710903 -0.17948373 -0.2660002 0.09984503 -0.22119409 -0.3251122 0.4517166 -0.09176325 0.2450441 0.06853623 -0.06737638 0.08817075 0.010331709 0.22482184 -0.19399309
9791196533007 -0.2543396 -0.0021154054 -1.1423441 -0.05493127 0.33496436 -0.25229037 0.4064698 0.25227967 -0.40674993 0.14413741 0.1371757 -0.2965182 0.19202118 -0.17963879 0.51311034 0.33901238 0.08654469 0.42925185 -0.23849133 -0.18377487 -0.323535 -0.09756203 -0.2167729 0.10797524 0.39127642 -0.32594174 -0.6663926 -0.037564963 -0.5835136 -0.48436898 0.07923635 -0.34907895 -0.19567116 0.27716872 -0.6407179 0.27981797 0.17348477 0.42830282 -0.1857528 0.48858225 -0.42233008 0.5940789 0.3723836 -0.6252085 -0.43128452 0.25163862 0.22326699 0.33945802 -0.22651874 0.336169 0.5593704 0.051075846 0.122801654 0.34011123 -0.27580932 -0.78242296 0.019860469 0.18661004 0.20929363 -0.05770689 0.60915446 0.28814077 0.82667136 -0.28452262 -0.043033574 -0.5254499 0.13358961 -0.4773858 -0.12083735 0.0025863885 0.57102776 0.2577402 -0.14474891 0.2840076 -0.055031784 -0.1618487 0.16924973 0.049936153 0.63319874 0.23953323 0.14149873 -0.45612666 -0.6253709 0.22426905 -0.3064784 -0.6125443 -0.18045227 0.02243401 0.34061238 0.12732281 -0.5106381 0.20186539 -0.09736148 0.7263582 0.19214721 0.12130308 0.48193482 0.30143327 0.2233545 -0.26297623
9791160077544 -0.46335325 0.9262904 -0.7815846 -0.44697806 0.33573514 0.0315894 0.26797464 0.005224207 -0.8470182 0.20606156 -0.2970694 0.2847135 0.31768292 -0.14766487 0.6947477 -0.4372772 -0.19857547 0.022048455 -0.3048265 -0.35279202 -0.27338195 0.16031863 0.26654652 -0.32332492 0.50466985 -0.24182327 -0.4893722 0.1860503 -0.26339036 -0.6992463 -0.034026217 -0.1529387 -0.015789164 -0.27317116 -1.338991 -0.024238775 0.013822757 0.77051854 0.22841057 -0.22832306 -0.85985935 1.1406342 0.07892734 0.068906255 -0.58178 0.009378441 -0.045279182 0.04521814 -0.1605869 0.4482446 -0.18729286 0.20424658 -0.49009603 0.26656735 -0.09121955 -0.52764064 -0.30823722 0.44537595 -0.24592997 -0.4123825 -0.010062541 0.38439593 0.62129134 -0.17706361 0.16495803 0.12270421 -0.21287544 -0.063716955 -0.25145763 -0.14788087 0.2894477 1.0675497 -0.22355416 0.28264073 -0.082728215 -0.08300471 0.21178359 0.29589117 0.7754515 -0.31085882 0.17396985 -0.62772304 -0.6406508 -0.10954807 -0.41837227 -0.32866967 0.3566166 -0.16034243 0.36771795 0.27336597 0.42565688 0.22550227 0.08528413 0.7471445 0.5145113 1.0148585 -0.05179897 -0.416488 0.051341124 -0.32854578
9788915107908 -0.20870353 -0.4664082 -0.91702706 -0.42246392 0.17818095 -0.32805112 -0.6468932 0.29136568 -0.14783086 0.7476351 -0.25919572 -0.378929 0.19492497 -0.09415309 0.7000041 0.26370898 0.23778164 -0.14874887 -0.16810364 -0.9717365 0.12698792 0.007246601 -0.5186793 -0.6653696 0.5266533 0.26051527 -0.28139725 0.121565744 -0.56841385 0.07031594 -0.13230214 -0.51579714 -0.37704962 0.34070757 -0.77916104 0.068863325 0.2082421 0.32328525 -0.50476485 0.3361554 -0.23037703 0.4850001 0.42982617 -0.73668194 -0.12821583 -0.094687045 -0.1384684 0.7414065 -0.48329845 0.34922487 0.26295736 0.33095264 0.18085508 0.25223917 0.13589825 -0.88936424 -0.12588608 -0.20001858 -0.1229847 -0.6874614 0.07787404 0.8940449 0.8546832 -0.32037872 -0.11779938 -0.5187696 0.37707868 0.41781905 -0.29459968 -0.14789347 0.9375911 -0.36046797 -0.23452722 0.20084597 -0.2843797 0.20487775 0.1546268 -0.50019026 -0.023476217 0.16066048 0.5551903 -0.6524707 -0.68250096 0.27826804 0.09042969 -0.77482444 -0.06905488 -0.16797142 0.27238867 0.10296662 -0.37336645 -0.018454412 -0.26591817 0.15003635 0.24618374 0.5180081 0.29330063 0.32039738 0.72076994 -0.17103404
9791195795529 -0.29274133 0.15192543 -0.84463245 -0.27502722 0.10596976 -0.29063168 0.027507065 0.31939864 -0.16561277 0.44611976 0.11100188 -0.6586537 0.05009402 -0.2032791 0.6385976 0.19764467 0.1733477 0.7098877 -0.7320237 -0.37284195 -0.002445445 -0.31585094 -0.4204772 0.032745868 0.8205083 -0.06534968 -1.0058109 -0.24561563 -0.66989213 -0.3311326 0.05723519 -0.29019865 -0.35263595 0.6098872 -0.5725735 0.32736015 0.56953114 -0.17511494 -0.64750755 0.31157437 -1.0874262 0.6234905 0.18047547 -0.5719258 -0.43116733 -0.47345933 -0.25019398 0.14922206 0.012066753 0.7028093 0.505427 0.08114994 -0.03985225 0.2036031 -0.24866462 -0.8174181 -0.5685669 0.15747142 -0.26511368 -0.997585 0.5368034 0.51690644 0.89619344 0.11760053 0.18029672 -0.20335583 0.3335868 0.25217834 -0.28194436 -0.24783371 0.504425 -0.24125953 -0.24423306 0.30192074 -0.68821216 -0.080336355 -0.06500633 0.13264823 0.37503192 -0.13472246 0.5960194 -0.575788 -0.5860372 0.53744084 -0.053452317 -0.3112431 -0.10390601 -0.59243613 0.07362163 -0.31441775 -0.51634884 0.31669557 0.2862078 0.6567994 -0.11986525 0.18513243 0.54805917 0.24627577 0.87504405 -0.6163131
9791186494431 0.02821044 -0.4672651 -0.39790946 0.06347391 0.58519435 -0.5086275 -0.19026355 0.2849566 -0.55105513 0.70716935 -0.25336513 -0.057310767 -0.4706406 -0.06686697 -0.0462348 0.10112588 -0.116963655 0.09722572 -0.31552383 -0.45396835 0.5868938 0.20600867 -0.2377615 -0.49955127 0.65506077 -0.87579286 0.19120094 0.6627172 -1.3414501 -0.111625955 0.3014744 -0.62090886 -0.15969226 0.6574746 -0.9477169 0.21450962 0.22474752 -0.045511495 -0.5412391 0.49176815 -0.26072702 0.09106349 0.52931494 -0.47046316 -0.34492618 0.18123963 -0.17127731 0.28782633 -0.8645488 0.52158856 0.7093561 0.46106663 -0.0131391 0.18315336 0.7396696 -0.9631253 0.27590463 0.30912036 0.0720441 -0.21422037 0.18828899 0.3210007 0.728346 -1.1888249 -0.0928013 -0.50262034 0.26280645 0.017821798 -0.16865318 -0.5362987 0.72445774 0.45858306 0.30195385 0.18383117 0.18133475 -0.09785128 0.9352178 -0.18127306 -0.24870019 -0.5021531 -0.06444455 -0.30033067 -0.5067911 -0.60952556 0.2436587 -0.32206774 -0.10914002 -0.050897 0.4087821 -0.5661272 -0.068269774 0.2824928 0.22714569 0.21095538 0.14721267 0.17308092 -0.24527803 0.11018637 0.026883867 -0.28898355
9791185402475 -0.7322508 -0.7243898 -1.0508033 0.33343777 0.6385911 -0.3281675 -0.032342684 0.5406591 -0.28462568 0.23090643 -0.063442625 -0.0113724265 -0.3350584 -0.58327585 0.11106262 -0.2858446 0.3297412 0.18743974 0.30506492 0.20298359 -0.5731492 -0.63565624 -0.33011007 0.077958845 0.49117327 -0.25329143 0.19470581 0.18750836 -0.7476976 -0.18144949 -0.19275491 -0.30522168 0.09563489 0.7599831 -0.88548297 0.80544573 0.062342715 0.7674812 -0.5950836 1.124832 0.23367226 0.428753 0.29703224 -0.61325896 -0.034688625 0.17654836 0.22525263 0.45076725 -0.27933198 0.095791265 0.71179867 0.15260792 0.44781688 0.15755725 0.12295779 -0.74860823 -0.33465382 -0.39608812 0.17468 0.5252876 0.8183374 0.14079931 0.93737304 -0.8546865 -0.051433884 -0.87040776 -0.19675355 -0.62578565 -0.18444017 -0.2695555 1.2829481 -0.08644035 0.093216434 0.27671272 0.78221923 -0.2591988 0.7486446 -0.3518496 0.34712955 0.3243753 0.39356393 -0.508592 -0.6088784 0.18687226 0.15632877 -0.6633183 -0.17157115 -0.062110156 0.5905364 0.21820216 -0.45558494 -0.15698527 0.021416778 0.16944958 0.15509625 -0.1343411 0.13143118 0.1956946 0.013618535 -0.10389926
9791190275026 -0.5325373 -0.37878078 -0.48326805 0.6498264 0.5986074 0.049502656 0.2321509 -0.05032689 -0.3255454 0.10044411 -0.7134857 -0.16942565 -0.30175474 -0.64843524 0.054652326 -0.032360703 -0.51754034 0.54191226 -0.27759758 0.44249153 -0.9282258 0.08187291 -0.34946412 0.0788926 0.39007118 -0.12234032 0.26662052 0.73835975 -0.77890354 -0.2956155 -0.29377785 -1.2067066 0.2600306 0.41639623 -0.96086955 0.54977816 0.07344777 0.7695606 0.2661374 1.4462047 0.05435044 -0.04073084 -0.004036016 -0.1458531 -0.027808394 0.16015793 0.008674519 0.19361562 -0.2766491 0.25498724 0.4641768 -0.22710466 -0.040855184 0.51920646 0.055492926 -0.42185673 -0.87137866 -0.057937417 0.103440344 -0.040576417 0.5384456 0.09434122 1.0438602 -0.4722728 -0.2813383 -1.0155239 0.320923 0.13624486 0.05741047 -0.7495908 1.2706769 0.55175984 0.06501523 0.29679066 -0.35420102 0.19314308 0.6478147 -0.6960999 0.74994594 0.19032827 0.16429967 -0.47928688 -0.61467785 -0.15136412 0.11319554 -0.9789098 -0.492486 0.20151754 0.26971322 -0.08219344 -0.16378027 0.21602273 0.5591684 0.30946073 0.0017244699 -0.092806235 0.4883479 0.21244198 0.41313207 -0.16416328
9791191426328 -0.04313766 -0.4880396 -0.55714643 0.479389 0.15769441 -0.34646344 -0.8539862 0.41562292 0.2110403 0.6191733 -0.23081258 -0.1268144 -0.7027679 -0.14952993 0.16235992 -0.06361323 -0.06414307 -0.20245613 0.07384217 0.05439163 -0.7770862 -0.29251027 -0.46247667 -0.32688475 0.18768677 -0.114757 0.10830337 0.6304182 -0.5079042 -0.29182088 -0.16489732 -0.9620584 0.070198834 0.7666715 -1.0133941 -0.05592823 0.6120779 -0.0017293114 -0.67445993 0.9057933 -0.42023346 -0.0745039 0.12303372 -0.087416455 -0.1649384 0.19934072 0.10845849 0.3799616 -0.730564 0.67147064 -0.029348867 0.16163777 -0.4420752 0.227326 0.560857 -1.2117014 -0.8253775 0.028185412 0.0703736 -0.7357611 0.21869554 0.30009267 0.2255311 -0.31106865 0.39733014 -1.2445056 0.38421708 0.32012752 0.49974477 -0.6711627 0.9991948 0.21465819 0.5633408 0.43848884 -0.40071228 0.24633302 0.45610288 -0.73080015 0.7087677 -0.018743841 -0.019829888 -0.36396298 -0.5410885 -0.35160714 0.6198613 -0.7199635 -0.08260849 -0.06295007 0.3736923 -0.029480005 -0.49279365 0.23385397 0.3438206 0.1861441 -0.21485598 0.4606331 0.4019454 0.13322522 0.34851965 -0.1118232
9791191347470 -0.7163632 0.14409791 -0.4316045 -0.4644836 0.45692673 0.12386914 -0.4466192 0.4861655 -0.2718012 0.6445209 -0.23099232 0.0954446 -0.46453878 -0.29744455 0.2671209 0.11210501 0.4453153 0.03768291 0.31205449 -0.23189493 -0.86630005 -0.25580835 -0.35186028 -0.116025165 0.39317024 0.046275556 0.3719542 0.5042625 -0.8484767 -0.24815464 0.08891556 -0.35159674 -0.010899087 0.34707698 -1.2765508 0.34453952 0.15974656 0.6631666 -0.39360952 1.1263169 -0.46715897 0.08630078 0.30293742 0.101363055 0.0063511054 0.32706004 0.36979932 0.22376396 0.028408006 0.42602742 0.13341165 -0.045770425 -0.18829134 0.3917505 0.13700093 -1.3768226 -0.62811357 -0.03924203 0.03463453 -0.32427207 0.6113949 -0.09549389 0.25116012 -0.10156071 0.01226383 -1.0537508 -0.37406743 0.40280947 -0.17389038 -0.91728175 1.8560776 0.18995234 0.44329205 0.78284645 -0.29066223 0.3712425 0.8247135 -0.6600949 0.35579637 0.3547143 0.6938687 0.14594956 -0.3390687 -0.011859664 0.3309357 -0.4078678 0.07740625 0.17869619 0.5244409 -0.056607246 -0.66273105 -0.17793138 -0.5311607 0.35196677 0.7421179 0.5724661 0.78946054 0.5211266 0.046620253 -0.38728136
9791195616169 -0.70415574 0.0973866 -0.7394344 -0.18558978 0.4608115 -0.041277606 -0.01673333 0.14718133 -0.33474362 0.37811604 -0.14219087 -0.21091215 -0.05942748 -0.18204537 0.50634897 0.3896564 0.054320574 0.29338622 -0.56950516 -0.4115493 -0.28427503 0.12830552 -0.47595105 -0.53298396 0.8365246 -0.3427774 -0.7229613 -0.067689024 -0.517503 -0.31665948 0.16645119 -0.49530354 -0.53006405 0.4421968 -0.7117539 0.3349472 0.35562667 0.013413771 -0.42315102 0.56324035 -0.66750807 0.55460703 0.4880995 -0.6088296 -0.32617244 -0.12564786 0.021556266 0.14142734 -0.36427554 0.62376845 0.33773804 0.1234223 -0.0647802 0.153977 -0.031950194 -0.72692937 -0.3549968 -0.12175304 -0.058784988 -0.6054827 0.39497846 0.60425997 1.2077765 0.011202112 -0.035641264 -0.43371087 0.44458267 0.053109974 -0.67295283 -0.5150214 0.7709292 0.113932975 -0.32979965 0.48742932 -0.38690475 0.3160601 0.11444674 0.023542803 0.34189093 -0.3379728 0.37269148 -0.47821075 -0.44986957 -0.13472441 -0.2916871 -0.5352253 -0.11360437 -0.0629347 0.102022335 -0.188156 -0.2146992 0.49792016 0.34032682 0.30981663 0.32803223 0.34892252 0.50922656 0.30635223 0.6550428 -0.2927171
9791191426311 -0.7558819 -0.7372085 -0.4249862 0.32662317 0.37747177 -0.1264668 -0.45567757 0.17416412 -0.15258065 0.5885018 -0.040990774 -0.23018101 -0.5982443 -0.5651254 -0.060343824 -0.12588619 -0.55178034 0.22096612 0.0036799423 0.3371907 -1.2255757 -0.41685197 -1.0566479 -0.19991249 0.35468572 -0.0044952873 0.1268628 -0.35720733 -1.0221027 -0.6311441 -0.35575995 -0.7880523 -0.061025992 0.89995867 -0.7975175 0.26973575 -0.017358646 -8.139357e-05 -0.042456932 0.70250756 -0.058719903 0.025428072 0.30122182 -0.5321051 -0.015164336 0.18285598 -0.102803186 0.532618 -0.16563965 0.491571 0.78589743 0.060835294 0.10992465 1.0775765 0.31160438 -0.8472463 -0.4788997 -0.22236514 0.047845628 -0.17816491 0.5509077 -0.15142158 0.7579032 -0.4291405 -0.19559132 -1.2174215 0.1268355 0.065045305 0.5435192 -0.6766779 1.1328429 0.4920532 0.2773885 0.6914209 -0.29588717 -0.039872356 0.23303553 -0.55037975 0.5740558 -0.24559882 0.22912343 -0.4426667 0.08979519 -0.3850297 0.31858045 -0.76276267 -0.7057059 0.164053 0.3970576 0.012185955 -0.51091266 0.2736257 0.40268207 0.5540682 -0.07006194 0.1863634 0.108535714 0.52565587 0.045040015 -0.06597073
9791188007134 -0.45142865 -0.7212356 -0.9958197 0.14670427 0.40209952 -0.13183545 -0.63764447 0.09356259 -0.39615718 0.53924835 -0.16152309 -0.081927404 -0.24134111 -0.34902567 0.12135485 -0.10535214 -0.13430917 0.563607 -0.11885353 0.15842098 -0.47934073 -0.037119463 -0.66640246 -0.25984728 -0.12197908 -0.23247543 0.3473331 0.38104308 -0.9295101 -0.53159654 -0.25828853 -1.101801 -0.28714368 0.68818945 -0.77226806 0.34729025 0.14315256 0.7612841 -0.39562318 0.93239355 -0.15390193 0.37160265 0.2743519 -0.52444774 0.07495133 -0.07931446 0.14792663 0.5215085 -0.37230557 0.37173784 0.8156631 0.09926265 0.30858928 0.6590551 0.503778 -0.77040106 -0.9138246 -0.27757263 -0.038516965 -0.2840439 0.13274066 0.41729444 0.9932658 -0.68053025 -0.2454914 -1.4440184 -0.13720846 -0.039254975 0.5780946 -0.8270912 1.8765079 0.45552316 -0.04095614 0.45770726 -0.46589565 -0.23899668 0.50623995 -1.0972619 0.60917795 0.2867821 0.19603568 -0.6732736 -0.738113 -0.66081077 0.10091213 -0.5652989 -0.86909455 0.5777254 0.506183 0.36919978 -0.15501137 0.15524614 0.10107579 0.17875187 -0.057035286 0.35713512 0.21599606 0.21590282 0.14165977 -0.30801722
9791196316808 -0.76139677 -0.1826987 -0.5681295 -0.22095902 0.27428937 0.36849144 -1.0005667 -0.12541181 -0.68186915 0.8926399 -0.03918411 0.43033314 -0.16402881 0.23939829 0.118657336 -0.4531213 -0.31071702 -0.07293871 0.19583087 -0.13631588 -0.74214566 -0.9447632 -0.24788776 -0.76905894 0.53114974 -0.19427757 0.4696241 0.006943682 -0.9426817 -0.3045412 0.41204455 -0.85203654 0.1402609 0.4641107 -0.80635065 0.6174024 0.34303826 0.29481852 -0.25094002 0.36545858 -0.2507035 0.43352127 0.28542402 0.5582409 -0.07859966 -0.015534521 0.26565906 -0.34288082 -0.64886487 0.14369802 0.1732895 0.45431048 -0.70905435 0.051240917 0.8885677 -0.8374673 -0.7194833 -0.0049833483 0.021882318 -0.75151765 0.42654526 0.21816228 0.6508915 0.25001088 -0.13450319 -1.37198 -0.06508713 0.40671018 -0.2700061 -0.83788675 1.6517949 0.6960934 -0.112539075 0.97234565 0.22114727 0.3791727 0.4663835 -0.82674515 0.40665644 -0.20029134 0.07636798 -0.42905357 -0.46478653 -0.091885656 0.046378814 -0.8904096 -0.25690013 -0.43484226 0.2829371 -0.11222619 -0.5076521 0.33015725 0.052134324 -0.26090372 0.592008 -0.19377236 0.13291317 0.65922946 0.28292283 -0.7557683
9788960499225 -0.64402944 -0.1423076 -0.37827572 0.34736523 0.068699196 0.7694053 -0.398288 -0.24078006 0.15358499 0.59797585 -0.123474844 0.24651651 -0.4835378 0.42632928 0.2579998 -0.085986786 -0.046203155 -0.19131617 0.245363 -0.16241775 -0.84252816 -0.4140075 -0.36653742 0.07468522 0.43643466 0.22668833 0.71520984 -0.084852725 -0.56798494 -0.2587285 -0.26900625 -0.24504428 -0.050305158 0.47628424 -1.0888491 0.5907554 0.3905543 0.43530115 -0.4728493 0.61017525 -0.38690138 0.15327637 0.46973985 0.1726583 0.14905289 -0.19966939 -0.088928044 0.088433005 -0.43050298 0.29346678 0.066953056 0.51807237 -0.28672406 -0.25842533 0.3159115 -1.3359747 -0.7724525 -0.21995854 -0.3398916 -0.72864336 0.09648528 -0.06432649 0.43150645 -0.08780368 0.17191245 -1.8075087 0.079856366 0.88915 -0.19060774 -0.7211356 1.4260848 0.5842886 0.5431955 0.7189979 0.21766646 0.7394105 0.4834511 -0.5371757 0.2770897 0.31169924 0.3252281 -0.40338188 -0.37319884 -0.030850668 0.7871917 -0.89286935 -0.10432394 0.14222588 0.10520203 0.11299473 -0.9318171 0.49798617 0.18932521 0.3575183 0.44088167 0.22877245 0.6148108 0.4487159 0.23881471 -0.038238443
9788960499119 -0.2887242 -0.18893489 -0.32490247 0.3740328 -0.194415 0.04212323 -0.94765437 0.1458683 0.58306706 0.7712402 -0.6255914 0.42995366 -1.0532964 0.32948965 0.4681407 -0.030187344 0.14575599 -0.7884992 0.31068888 0.10957101 -1.2363142 -0.57558143 -0.0044256332 -0.44325197 0.24946284 0.11633432 0.50417274 0.32557794 -0.2697887 0.08543753 -0.26646024 -0.6280734 0.19498774 0.5070356 -1.0637796 0.20543636 0.44916442 -0.17482811 -0.6503572 1.1359304 -0.8763026 -0.00093330065 0.51218426 0.18876702 -0.29244626 -0.09545887 -0.07651327 0.1085305 -0.8523031 0.35554975 -0.34324676 -0.12546152 -0.6333034 -0.37628278 0.33238158 -1.2212166 -0.79993564 0.27291724 -0.032400772 -0.58668226 0.045595944 0.039451815 0.2526069 0.54101527 0.45798787 -1.4975667 0.27326354 0.37441766 0.08319807 -1.1034598 1.6360992 0.5323859 1.0978347 0.8095303 0.06547606 1.0434499 1.2342004 -0.61851066 0.7776566 -0.07458809 -0.20954013 0.02379652 -0.48378098 -0.30939177 0.99040955 -0.92547584 0.5657614 0.27565843 0.5713916 0.09259951 -1.1052071 0.92631644 0.4793822 0.16608362 0.17472522 0.27020296 0.85747945 0.37671736 0.04703171 -0.17631218
9788952736574 -0.24383701 -0.4596113 -0.46028298 0.14829783 0.6883345 -0.3170003 0.3036161 0.14197233 -0.050651807 0.1704554 -0.46918726 -0.31062007 -0.33395126 -0.6852557 0.119181566 0.17787595 -0.22185545 0.5270113 -0.66762644 -0.21568228 -0.69008225 0.022341648 -0.7476682 -0.30100074 0.23232533 -0.30006975 -0.44163302 0.047998417 -1.3532485 -0.0066826358 -0.21547578 -0.4358671 0.2907747 0.5551553 -0.6052797 0.2502649 0.3305467 0.366996 -0.23736176 1.3203807 -0.14649005 0.11896861 0.30477688 -1.0396315 0.09263023 0.09334348 0.10997601 0.23160078 -0.12588781 0.65933794 0.6135364 -0.36185887 0.06006479 0.71695715 -0.012995042 -1.068509 -0.48881853 -0.08240455 0.15043364 -0.41132513 0.8324158 -0.017214887 1.209414 -0.3175325 -0.1303962 -0.7210848 0.60130435 0.15292805 -0.21418066 -0.15033183 0.6562345 -0.27640483 0.29763275 0.31598586 -0.1314002 -0.06366406 -0.015163629 -0.21515132 -0.122295976 -0.3397667 0.37456387 -0.3336042 -0.41733745 -0.03884405 -0.06444485 -0.8398971 -0.34557554 0.022707481 0.34852874 -0.33279103 -0.5298017 0.24903376 0.56388396 0.78299063 0.20845744 -0.06023028 0.560278 0.73018914 0.41045484 -0.15926881
9791165217556 -0.5078498 0.62375236 -0.984999 -0.1778982 0.3014382 -0.1992775 0.36016956 -0.022422362 -0.5622484 -0.26737443 0.2001836 0.11302117 0.20251077 -0.20865907 0.49088615 0.0666394 0.05838786 0.29555312 -0.3759446 -0.03009694 -0.7565023 -0.15371628 -0.45382273 -0.12881579 0.38705575 -0.08297712 -0.54926324 -0.32692766 -0.15434696 -0.6449971 0.1859398 -0.09906725 -0.34553498 -0.019945512 -1.3432707 0.18229459 0.013445043 0.35348335 0.0030213473 0.29076976 -0.30662182 0.5978681 0.44100153 -0.3912787 -0.3620719 -0.105929725 0.31849995 0.12879702 -0.011372315 0.6336011 0.1508822 0.18838957 -0.45857346 -0.065972455 0.17717469 -0.5402885 -0.11374858 0.34375632 -0.043426897 -0.13766056 0.07094031 0.28460217 0.60773396 -0.137259 0.24328427 -0.01750786 -0.32928085 -0.1660769 -0.4755214 -0.044121426 0.34838596 0.97939724 0.25341108 0.22584921 0.0067346673 0.10589709 0.44358143 0.41285828 0.70225 -0.33002797 0.21708454 -0.5218229 -0.6376016 0.30239025 -0.11826269 -0.39972147 0.24617177 -0.27749735 0.31773755 0.41762054 -0.008733183 0.35756478 0.25109735 0.4839262 0.6669596 0.41436526 0.088992454 -0.2489783 0.28936306 -0.29648975
9788925564081 0.14526314 -0.73779553 -0.32471648 0.20519358 0.7007665 -0.50645447 -0.90419155 0.18778947 -0.09045762 0.8168627 0.13257615 -0.37507135 -0.08677245 -0.41999227 0.52411157 0.0850212 0.07079284 0.2709159 0.096960925 -0.09185192 -0.08037875 0.090724036 -1.0387058 0.12283974 0.42088413 -0.03003246 0.21185097 1.0542166 -1.9107513 -0.32850495 0.21125454 -1.129842 0.18982075 0.9692033 -1.1151806 0.26516756 -0.39405295 0.2825174 -0.8050619 1.0060066 0.11872612 -0.09322101 1.04119 -0.33412087 -0.6216035 0.4343524 0.20292167 0.5318515 -0.8091 0.26303124 0.54830873 0.7329033 -0.180934 -0.14487857 0.7259203 -0.97069 -0.3776162 -0.44369388 -0.14108355 -0.15158059 0.50086296 0.21094085 0.6489909 -0.764403 0.043713566 -0.9335315 -0.0499312 -0.20822707 0.4585342 -0.7468148 1.3664197 0.48109928 0.780646 0.77962065 0.13807552 0.21629442 0.48089775 -0.7498677 0.397822 -0.49899516 0.25092417 0.097693615 -0.7096549 -0.086586684 0.29021826 -0.4594034 -0.5291359 0.47117025 0.6723475 -0.3306887 -0.2872511 -0.50210744 -0.30089954 0.038516097 -0.1434904 0.4650035 -0.011467019 0.8801941 -0.37998468 -0.34575886
9791157687534 -0.279579 -0.61419684 -0.63443977 0.6308666 0.43240213 0.30875993 -0.08884376 0.032635715 -0.1524828 0.3133449 -0.36176324 0.08535819 -0.6398173 -0.23118535 -0.1959684 0.47241402 -0.47676942 -0.012632676 0.08765824 0.08910685 -0.5503091 0.09676564 -0.8127185 -0.41566542 0.4328958 -0.017050954 0.26571912 0.60792804 -0.6646593 -0.7113333 0.06259809 -0.6467969 0.0043040663 0.70974857 -1.2388432 0.3117515 0.62152904 0.9206465 -0.61967766 0.9013089 0.14356473 0.21996136 0.22456905 -0.22283795 -0.25871158 0.20621398 0.15864585 0.29136074 -0.38280803 0.10121403 0.43436 0.3167249 0.042916343 0.11117069 0.41082194 -0.83535856 -0.5547308 -0.3769036 -0.034743473 0.01658974 0.23141092 0.16289313 0.58743435 -0.5075844 0.19326274 -1.2240379 0.2633003 0.14651285 0.0071313074 -0.845727 0.9557405 0.4894747 0.278736 0.108407125 0.026421342 0.08460395 0.48412058 -0.7118085 0.73457754 0.05422525 -0.119141415 -0.5500042 -0.5988499 -0.28405493 0.2591462 -0.68606734 -0.03192634 0.16373831 0.11813715 -0.07402348 -0.33350068 0.35618758 0.35921752 0.07907104 0.036559705 -0.1557673 0.114022724 -0.19113337 0.55862033 -0.160899
9791168220041 -0.40525287 -0.36983407 -0.55027705 0.052053332 0.40121222 0.34691283 -0.53962135 0.009783539 -0.093628086 0.69982255 -0.3422627 -0.059962742 -0.6856699 -0.101564586 0.060444303 0.13175812 0.19815616 -0.14361563 0.5834194 0.048046794 -0.90926147 -0.67655605 -0.3938072 -0.3137865 0.3639714 0.008221158 0.541343 0.184447 -0.5694459 -0.14829908 -0.1378756 -0.35564196 0.21461917 0.5733347 -1.0423819 0.5421198 0.39585313 0.57036847 -0.36273688 1.001975 -0.38985384 -0.11015521 0.6298258 0.11350121 0.33229086 0.099501915 -0.071895845 -0.00061022793 -0.2271223 0.53063375 -0.012268791 0.18644382 -0.22925657 0.1386644 0.6037368 -1.38617 -0.3554671 -0.025813866 0.04070048 -0.44214752 0.4985602 -0.0031586133 0.09720359 0.046925493 0.17408493 -1.46772 -0.24583824 0.8216105 0.039867334 -0.9462756 1.6027023 0.015447163 0.39126304 0.44540966 -0.2113311 0.67458344 0.7104678 -0.688336 0.7204255 0.36927384 0.31679827 0.12599757 -0.24746917 -0.21575399 0.56526095 -0.7223968 -0.27399492 0.28142068 0.42543626 0.05270211 -0.7218173 0.15644409 -0.09444861 0.29177123 0.73260045 0.10117836 1.0030451 0.5336873 0.15877056 -0.26279756
9791191462005 -0.14685929 -0.8803999 -0.616518 0.649139 0.43421298 -0.029684953 -0.20422706 -0.008578665 -0.21133593 0.32178417 -0.28819525 -0.01964494 -0.34818542 -0.49519825 -0.14812517 0.061235897 -0.4781072 0.029908337 0.20067367 0.38317028 -0.16192083 0.021408392 -0.6882889 0.013043119 0.30072692 -0.06541179 0.44092396 0.6841403 -0.88759786 -0.46680462 -0.31338638 -0.96781284 0.115004964 0.82679856 -1.0588409 0.4182941 0.16115348 0.75366133 -0.33409914 1.3567089 0.2875999 0.00046284343 -0.06357886 -0.34109148 -0.1666989 -0.095654316 -0.02738278 0.47875682 -0.39172396 0.17613514 0.6313145 0.11466232 0.12264505 0.22619337 0.59207803 -0.6455819 -0.68547326 -0.34224898 0.090811744 0.0049273013 0.08081103 -0.14379874 0.7826014 -0.6593379 -0.2753475 -1.187525 0.011391944 -0.2520742 0.4405284 -0.8898386 1.3474817 0.5431326 0.022301313 0.30490774 0.068492986 -0.07684037 0.4939287 -0.9292659 0.5863008 0.22526835 -0.060530577 -0.61322755 -0.48249406 -0.13497244 0.40107396 -0.7025655 -0.7995906 0.5477493 0.3157025 -0.07323757 -0.288654 0.19556811 0.37645394 0.08632065 0.2484148 0.060411204 -0.02731099 0.4284215 0.12140643 -0.07297827
9788925579870 -0.6394301 -0.17001373 -0.4267424 0.26253211 -0.09124331 0.23420615 -0.32480758 -0.07583967 0.008468789 0.34115228 -0.30696294 0.14974841 -0.55706567 -0.09102524 0.2842798 0.117022626 -0.555434 0.20953996 0.18124036 0.23083906 -0.6418069 -0.46469152 -0.71016514 -0.068405695 0.37564903 -0.1841079 0.5082734 0.12586214 -0.77947557 -0.18001676 0.2657478 -0.33979198 0.10008428 0.75340843 -0.87912565 0.20589504 0.77576184 0.25634632 -0.68640655 0.94947034 -0.03532281 0.23464887 -0.09867415 0.15755706 0.070915975 0.06371362 -0.05785937 -0.18896486 -0.29164758 0.44704792 0.49100554 0.05177778 -0.3400245 0.025121845 0.2617861 -0.9481652 -0.7230538 -0.11629026 0.0489084 -0.22592117 0.46508488 0.22350611 0.55862147 0.032746397 0.26247954 -1.0246826 0.4837142 0.2186172 0.1543727 -0.49862993 1.2583926 0.06856525 0.21229406 0.4173628 0.1239571 0.09100093 0.2988648 -0.84161395 0.34395182 0.014666414 -0.05860499 -0.2629414 -0.70376664 -0.37561575 0.42415488 -0.6537548 -0.19649412 -0.0929768 0.12988234 -0.48900253 -0.59887487 0.5069807 0.040115144 0.18964915 0.23401207 -0.48249465 0.07564935 0.29003957 0.4599261 -0.5621261
9791168120501 -0.43298367 -0.10005715 -0.9177291 0.44289845 0.73090285 -0.30484393 -0.39996475 0.23798065 -0.70062864 0.26307333 -0.58501256 0.27761677 -0.39347404 -0.49624497 0.14601614 -0.013266832 -0.56097096 0.5120149 -0.16861941 0.30052617 -0.441138 -0.12715556 -0.45259827 -0.27814165 0.026127532 -0.17322494 0.5447702 0.3676502 -0.65611047 -0.16741307 0.16944206 -0.7808671 0.20191656 0.4837898 -0.89523387 0.08240325 -0.0348492 0.8597671 -0.335464 1.0750965 -0.06359439 0.14512162 -0.0036709118 0.12295529 -0.10887888 0.25942358 0.39163828 -0.2186176 0.034731552 0.45339578 0.7202811 -0.18210275 -0.16597545 0.30932257 0.4842184 -0.88836116 -1.0469375 0.060023542 0.20940071 -0.17268735 0.4519529 -0.11720398 0.934433 -0.17097075 0.03900536 -0.9339298 -0.17974988 -0.030905914 0.16723354 -0.95093197 1.6653755 0.30224457 0.13933608 0.6566595 -0.11706969 -0.14236975 0.9404195 -0.8391104 0.49261066 0.4137106 0.20936105 -0.3483081 -0.49726152 -0.4560719 -0.3060022 -0.3635713 -0.56596214 -0.051727105 0.74533546 0.0783524 0.10379211 0.6736927 0.04879353 0.102765664 0.18616125 0.20796888 -0.12799741 0.3520232 0.4323678 -0.2863574
9791197576416 -0.5035419 -0.7069962 -0.75313073 0.15964122 0.42520684 0.06262527 -0.58320415 0.06771133 -0.18900976 0.46135423 -0.119984984 0.22614363 -0.4963822 -0.17016113 -0.18265612 -0.0771186 0.12871584 0.34611136 0.29767272 -0.35912362 -0.5968374 -0.13481596 -0.6333709 0.08386286 0.02032084 -0.08695105 0.8718622 0.69960666 -0.8874082 -0.32205483 -0.21158864 -0.5646013 0.18644543 0.6524776 -1.0078759 0.21769036 -0.17779727 0.68147564 -0.33264154 1.3404136 0.14640023 -0.051894445 0.6059387 0.10683484 -0.012351386 -0.0702189 0.5581634 0.14155965 -0.79575217 0.43909898 0.5985467 0.13651647 0.052061457 0.1311852 0.6887125 -0.9858925 -0.7790718 -0.45658624 0.2780323 0.08684544 0.62999326 0.105515584 0.88522846 -0.7533676 0.41527504 -1.108147 0.011588171 0.06793489 0.2666958 -0.87208664 1.7839608 0.6357186 0.3820162 0.4308525 0.16159558 -0.056666642 0.7795024 -0.7213793 0.14672317 0.2435996 0.21535899 -0.26476684 -0.6599816 -0.030737385 0.0050335294 -0.66712934 -0.27851203 0.24011531 0.47657835 -0.23529038 -0.7813293 0.1072649 0.33990005 0.07949114 0.20424952 0.31862307 -0.057056483 0.5805565 0.40418297 -0.3483997
9788934986690 -0.4634296 -0.73001325 -0.7610488 0.49904424 0.44103903 -0.019771187 -0.05542117 0.20764187 -0.12193247 0.21640721 -0.34698007 -0.41774565 -0.10482872 -0.37064233 0.11351059 0.07006067 -0.3794107 0.49743775 -0.16365975 0.12652437 -0.7414782 -0.021910878 -0.78567183 -0.0370433 -0.05215608 -0.11573174 0.44276807 0.32553154 -0.7877034 -0.42418814 -0.4019548 -0.8742611 0.1404559 0.594531 -0.6847475 0.3606125 -0.084975146 0.5446118 -0.24928081 1.1195465 0.37317824 -0.13219655 -0.19561432 -0.57463783 -0.04000833 0.2351148 0.029429516 0.6333343 -0.19497035 0.1589298 0.5048721 -0.19012892 0.3065165 0.9937698 0.0096307155 -0.51350677 -0.7513637 -0.14282668 0.286815 0.01853765 0.46360794 0.1284922 1.025502 -0.54105675 -0.45567673 -1.1971365 -0.14040942 -0.35850027 0.5627929 -0.85755914 1.1326531 0.296764 0.05952126 0.38778555 -0.13640435 -0.11193537 0.38481757 -0.5928025 0.6691049 0.44881418 -0.35844702 -0.5894655 -0.4754004 -0.038262814 0.3072941 -0.95329684 -0.81209147 0.92724067 0.48043355 0.26656663 -0.3167762 0.19525626 0.1088844 0.5929283 -0.17870408 0.25167707 0.6701745 0.6121495 0.22792332 0.047812127
9791185952352 -0.39050332 -0.57613623 -0.8426852 0.2102486 0.45186934 -0.02990523 -0.046664856 -0.0938458 -0.24639495 0.5519442 -0.30267856 -0.018336091 -0.42334715 -0.53564453 0.2988566 -0.18703412 -0.02480863 0.61554754 0.19312747 0.23838972 -0.97359365 -0.47359696 -0.49881035 -0.10648234 0.18962453 -0.3076805 0.32758558 0.2598667 -1.1230555 -0.50387406 -0.18446636 -0.8639119 0.25939608 0.5635109 -0.8196787 0.21317038 -0.0271778 0.61848176 -0.43742442 1.1403247 -0.10198978 0.24320133 0.64728045 -0.65865225 -0.33476597 0.11937722 0.3094899 0.47664753 -0.47858682 0.4675319 0.64555573 -0.02466707 -0.31598634 0.60137117 0.04592182 -1.0915024 -0.5242433 -0.041307215 0.12286263 -0.074071504 0.6859502 0.085083544 1.0859928 -0.32235494 0.08759686 -1.4801083 0.2132863 -0.25441998 0.31036925 -0.7260396 1.4803259 0.29755613 0.6546695 0.7594345 -0.0003080617 -0.052294333 0.55685765 -0.71504056 0.47873047 0.26304752 0.054131526 -0.26427752 -0.84360063 -0.3615914 0.1517944 -0.6582103 -0.41698438 0.18047298 0.4189677 0.13646123 -0.62242305 0.009055897 -0.3021471 0.19207947 0.33975723 0.2621176 0.28077027 0.42406175 0.20492584 -0.38247994
9788994780795 -0.6550272 -0.6912571 -0.8921978 -0.0315384 0.8423199 -0.5059641 -0.24923979 0.14537628 -0.53426033 -0.08710724 -0.50895953 -0.07051377 -0.020336188 -0.43890262 -0.11949381 0.2139155 -0.32063586 0.13709477 -0.5499204 0.0689612 -0.88408023 -0.04715379 -0.5881313 -0.24068819 -0.22410364 0.11753671 0.7634573 0.17702746 -0.4868381 -0.26668835 0.016045786 -0.9032551 0.06487535 0.737724 -0.5096352 -0.09864584 0.080497146 0.12855788 -0.2600807 1.1505756 0.12208021 0.4208682 -0.11597798 -0.462237 0.15524256 0.15686089 0.18964565 0.52396977 -0.13791925 0.37124372 0.964214 0.022614485 -0.4018087 0.36841658 0.5170367 -0.4598205 -0.95883375 -0.34377003 0.34490392 -0.8344722 0.58695376 0.25874835 1.1493732 -0.06313921 -0.30905408 -1.3734059 -0.6662384 0.11445093 0.3565463 -0.9504092 1.8291692 0.26317793 0.20941141 0.6929681 0.064716324 -0.3540526 0.6276261 -0.6419422 0.3660628 0.11163239 -0.33076188 -0.48269174 -0.561954 -0.4524494 0.38694945 -0.7652983 -1.2871909 0.25904593 0.5633922 0.12225212 0.02041379 0.232523 -0.034342963 0.5966252 0.12493143 0.18269701 0.2098818 0.68409103 0.26340473 -0.0030411847
9791188700929 -0.5227201 0.10740444 -0.40837988 0.2506843 -0.08315964 0.033665624 -0.26921502 0.208578 -0.06612124 0.3785581 -0.48847285 0.13863634 -0.6831866 0.15963031 0.11037804 0.40656552 0.1648607 0.11754385 -0.115029514 -0.87083083 -0.3373486 -0.10661669 -0.6430571 -0.00049620104 0.4263615 -0.06690507 -0.025485838 -0.1408399 -0.48032632 0.053774696 0.015836572 -0.17633373 -0.011671202 0.5577795 -0.5930091 0.6388976 0.17967418 -0.022415087 -0.14326315 0.6815893 -0.57005996 -0.044915628 0.61378324 -0.26242918 0.46941772 -0.12663965 0.11379549 -0.2677751 -0.33221376 0.5949312 0.2815353 0.27586117 -0.053131152 -0.121205136 0.1543964 -1.119368 -0.580144 -0.17822617 -0.3249867 -0.61692524 0.11932291 0.4287442 0.86545914 0.44292864 -0.0732691 -1.1377276 -0.043220427 0.54373944 -0.63502836 -0.42530003 0.8377861 -0.019472143 0.33726397 0.54842174 0.038418878 0.44406748 0.18470758 -0.38556585 -0.09819021 0.11741316 0.45288825 -0.27394047 -0.4215562 -0.07314966 0.62513334 -0.28486553 0.045093708 0.32988238 -0.1093625 -0.14914276 -0.47370404 0.26084927 -0.031822063 0.11787856 0.36120677 0.16231917 0.49789542 0.38994572 0.53419405 -0.22479331
9791190776127 -0.36512303 -0.55146927 -0.96788204 0.15875259 0.6532073 0.25473127 -0.47113657 0.12862387 -0.40849066 0.64303887 -0.6491672 -0.23937713 0.0021137192 -0.65731734 0.3409676 0.0027932075 -0.17708074 0.94925845 -0.4519403 0.23875502 -0.904951 -0.35217324 -0.47460538 -0.19636074 0.39894104 -0.49936458 -0.042312913 0.60643977 -0.9139925 0.029257363 0.2103708 -1.0913081 0.22044948 0.2789932 -0.64040554 0.63389397 0.06588443 0.6225869 -0.16787603 1.2556995 -0.32612514 0.008674174 0.28885922 -0.34824604 -0.17776565 0.28235853 0.1944788 0.07104866 -0.34255138 0.41708443 0.55084157 -0.21581219 -0.2691805 0.48868692 -0.05145328 -0.72753185 -0.97900414 -0.34668884 -0.21467508 -0.38403466 0.5404896 0.62735915 1.4128072 -0.19033948 -0.0034835828 -1.1282686 0.5249903 0.20786567 -0.47364056 -0.6483691 1.3859144 0.1944662 -0.21349122 0.6182293 -0.60059273 0.34968638 0.32919097 -0.893684 0.73063195 0.2280869 0.55469406 -0.40680075 -0.7147126 -0.21686196 -0.40798488 -0.87477267 -0.5040184 0.41651905 0.33851972 0.26244897 -0.30775452 0.1895439 0.45552826 0.2743205 0.2384569 0.06456948 0.55960923 0.4600807 0.6769016 -0.6883991
9791188801107 -0.6615343 0.6049491 -0.70649713 -0.37313265 0.7264228 -0.009717621 -0.17065093 0.16625756 -0.58016723 0.15135688 -0.19966449 0.08422694 0.34090477 -0.3364586 0.23766856 0.047496043 -0.15047297 0.37113824 -0.43336037 -0.37421364 -0.54945743 0.008574558 0.030370947 -0.22207373 0.9038639 -0.3714668 -0.15189119 0.43300945 -0.225317 -0.41990042 0.18410842 -0.22651623 -0.41812256 0.002188633 -0.9813442 0.18104535 0.1966339 0.40626127 0.020923194 0.027437042 -0.5979612 0.73279417 -0.03357798 -0.35913432 -0.4024509 0.27641398 -0.09562507 0.09076221 -0.19369923 0.5652516 -0.08331593 0.023320938 -0.32469216 0.10034716 -0.35334402 -0.23090081 -0.38108706 -0.12749894 -0.2111959 -0.570713 0.19409935 0.5991368 0.7519199 -0.24870567 -0.040147725 0.09635851 -0.14684999 0.16968724 -0.2160994 -0.08542339 0.7439092 0.8468742 -0.15949415 0.3581397 -0.1343625 -0.03822086 0.44505006 0.36613697 0.6866063 -0.19021173 0.34712932 -0.69517744 -0.73013747 0.5209209 -0.38287532 -0.56475204 0.33167502 0.12254497 0.18205422 0.14610742 0.113127254 0.17638649 0.16913046 0.3603073 0.55301887 0.65167856 0.020482322 -0.31556025 0.123858646 -0.06479488
9791155814277 -0.5654047 -0.3817828 -0.6658217 0.45727545 0.31847742 -0.06535331 -0.18725176 0.12643874 -0.11470086 0.08844512 -0.23369522 -0.07469595 0.019882934 -0.2960518 0.1279057 0.08710099 -0.48094797 0.4880684 -0.09852771 0.19278155 -0.56998545 0.009942025 -0.53132266 -0.20706141 0.00052158517 -0.24018379 0.1852311 0.32367983 -0.69765216 -0.38451302 -0.2317833 -0.61586756 0.16846626 0.61508876 -0.6596648 0.39593506 0.16759787 0.3465037 -0.13585936 0.7979575 0.14014354 -0.013221565 0.272276 -0.11712649 0.1729758 0.23601615 -0.058379535 -0.000753967 -0.040015277 0.12221466 0.40483883 -0.032909613 -0.040037032 0.56615835 -0.17665362 -0.5991001 -0.76326686 -0.115643896 -0.0990886 -0.2972736 0.36484432 0.23076981 1.0536449 -0.01547352 -0.18959068 -0.95121676 0.06869025 0.08173149 0.22500636 -0.69648933 0.81703305 0.19294547 -0.021923415 0.2897487 -0.22156791 -0.1178981 0.18008408 -0.83987963 0.6345206 0.23436205 0.15973276 -0.34170097 -0.5785134 -0.12110439 0.039512698 -0.6547372 -0.5279871 0.4799608 0.22043696 0.09111745 -0.11266407 0.18502474 0.17391938 0.25129154 0.10455302 0.06368235 0.21435575 0.2905493 0.41385034 -0.117913626
9791164380381 -0.5239052 0.7024516 -1.1356038 -0.2974777 0.5105069 -0.043453388 0.036759477 0.010662857 -0.56107444 -0.23202343 0.21802314 -0.30875525 0.47909933 -0.0922078 0.47126633 0.04462352 -0.06810939 0.25108534 -0.66680616 -0.12964045 -0.34655914 0.07498682 -0.033051573 -0.3048931 0.8569066 -0.37186736 -0.4934805 0.09040791 -0.29042548 -0.3200276 0.17727585 -0.14575586 -0.44016004 0.01990099 -1.2311945 0.45130414 -0.02666824 0.38879946 0.010522886 0.40692833 -0.38589287 0.7269376 0.1872842 -0.010793933 -0.26476 -0.080322795 0.15395696 0.25057822 -0.41455656 0.45090312 0.15229975 0.14111899 -0.4935174 0.0059029213 -0.34607324 -0.38051134 -0.24590132 0.18569958 -0.033158038 -0.69662267 0.16846079 0.6223336 0.9764625 -0.16182086 0.045440435 0.13350075 -0.1856517 0.046838235 -0.4413666 0.0060841837 0.42852503 1.1907852 -0.20373528 0.4468169 0.14116773 0.34227356 0.60250753 0.26132005 0.7550774 -0.35668477 0.116853505 -0.58935076 -0.6029681 0.04022033 -0.39022642 -0.6784705 0.20796138 -0.4942557 0.1265688 0.07764245 0.0032182976 0.5052762 0.2493909 0.518363 0.7631477 0.43818876 0.020537386 -0.2822014 0.18345109 -0.15778756
9791188700936 -0.77024215 0.044759247 -0.59111625 -0.039748408 0.2928569 0.5234751 -0.47110504 -0.072457686 -0.0731214 0.8355137 -0.41509005 0.35341194 -0.82955515 -0.092597015 0.21370763 0.110496245 -0.20704348 0.39088237 0.42816368 -0.06041178 -0.9559629 -0.8214186 -0.62803686 -0.40800714 0.5349465 -0.19846247 0.79794085 -0.009389441 -0.73676765 -0.22802487 0.19506995 -0.42378443 0.0029226604 0.50890094 -1.1112008 0.56001276 0.53668714 0.28951594 -0.57219005 0.95782053 -0.10000758 0.40217978 0.46495444 0.1604527 0.27676067 0.03392998 0.24195346 -0.18995404 -0.32464623 0.44055042 0.33281973 0.21896519 -0.554736 -0.073711224 0.5674465 -1.4157816 -0.8792126 -0.09139522 0.19164968 -0.5891319 0.6076162 0.16121273 0.5067258 0.2335782 0.38682753 -1.4034789 0.33110902 0.6672264 -0.13948096 -0.83998007 1.7248219 0.19035807 0.57253283 0.8505881 0.21710761 0.52159077 0.72618 -0.6372157 0.34733045 -0.009222473 0.18540557 -0.26634014 -0.6728552 -0.5671484 0.6591051 -0.7937124 -0.18731186 -0.31715563 0.18692277 -0.124659285 -1.01903 0.3924072 0.009446318 0.09244658 0.81156194 -0.2507412 0.34384587 0.7062085 0.24356979 -0.5614673
9791186494622 -0.3768259 -0.6194276 -0.61187875 0.37248284 0.24826565 0.04470003 -0.32130677 -0.09402101 -0.13342904 0.9464147 -0.19625504 0.08202373 -0.569996 -0.28861344 0.1794878 0.072253436 -0.30365604 0.13535334 0.1039894 -0.08493251 -0.1358743 0.11351298 -0.5950911 -0.123027354 0.34889233 -0.587299 0.12259839 0.23853196 -1.0847777 -0.30982444 0.106046066 -0.6654867 -0.10274369 0.58784163 -0.7833497 0.30798835 0.29055753 0.34025064 -0.37104976 0.45140773 -0.29488307 0.21503694 0.74372005 -0.47188774 -0.18517892 0.38367125 -0.11211481 0.30264506 -0.2495544 0.4086149 0.4846289 0.50491023 0.013985845 0.35104004 0.36596543 -1.1007814 -0.34350523 -0.19954191 -0.2088221 -0.32055244 0.25062189 0.051045675 0.8001523 -0.32191354 -0.10193782 -1.4582826 0.45023954 -0.0032952381 0.06449943 -0.49876356 0.8533545 0.21677978 0.3503661 0.6966906 0.116464466 0.00262157 0.28472024 -0.7236615 0.34392405 -0.05045229 0.27267662 -0.097328864 -0.60886866 -0.21757504 0.22547245 -0.6058801 -0.5986903 0.39428553 0.15983218 -0.3407605 -0.6190284 0.15689449 -0.22922377 0.30910507 0.104839444 0.1440871 -0.08496886 0.4206446 0.21236612 -0.5088787
9791191104226 -0.5256815 -0.68736947 -0.45535737 0.35347337 0.22279501 -0.03769648 -0.23380509 -0.101285405 -0.11066707 0.27768242 -0.14591855 -0.007084491 -0.31363538 -0.5803637 0.07901472 -0.04842827 -0.39188007 0.1407728 0.102106616 0.2650525 -0.66063315 0.068261325 -0.5100936 -0.17119709 0.2777001 -0.0042640916 0.39990368 0.64405656 -0.7875739 -0.2880724 -0.31801194 -0.9109396 0.1290542 0.8236009 -0.57606983 0.28442004 0.104373075 0.59578127 -0.1531295 1.3257684 0.015671888 -0.04503442 0.14381164 -0.46987873 0.11899589 0.12688924 0.356389 0.48153138 -0.5603534 0.39108035 0.5480394 0.06954963 -0.040441174 0.66244733 0.32598898 -0.7400697 -0.54896 -0.21749806 0.18429305 -0.24553667 0.51385045 -0.0477387 0.86470366 -0.47230956 -0.17003857 -1.2280177 -0.086941294 -0.38713357 0.54377544 -0.87958497 1.3572621 0.53859985 0.24263385 0.53643423 -0.11381668 -0.06255333 0.27757144 -0.89297456 0.6223967 0.21396421 -0.04992396 -0.42884555 -0.5545717 -0.063567996 0.37475315 -1.0593479 -0.63538605 0.42921484 0.29139102 -0.028751347 -0.41320294 0.34420034 0.1900527 0.4396264 0.3436835 0.054437943 0.40346286 0.5748324 0.2600037 -0.24183455
9791155814017 -0.33010897 -0.3057728 -0.5139287 0.12716857 -0.027383585 -0.28254503 -0.21092221 0.104372546 -0.7911536 0.09595403 -0.26378363 0.18845952 -0.15911941 -0.1584295 0.12953821 0.06862119 -0.35123116 -0.4816402 0.16869584 -0.18292257 -0.28254193 -0.02107402 0.06299303 0.28674722 0.33399168 -0.03067029 0.19523045 0.67683244 -0.5339143 -0.16285315 0.33696294 -0.24097334 0.11717283 0.52019686 -0.5577273 0.56561464 -0.02560938 0.7089306 -0.22200355 0.55413926 0.16928272 -0.016663352 -0.097244084 -0.05031073 -0.21546224 -0.29908234 -0.1460343 0.21465637 0.06507158 0.119405694 0.46673223 0.289505 -0.48280078 0.44432205 0.27626655 -0.5038313 -0.14092937 -0.39857376 -0.25886196 0.018206596 -0.06980972 -0.06699874 0.5505192 -0.40918297 0.045572743 -0.23081493 -0.071361445 -0.34022272 0.54173446 -0.38152578 0.30078867 0.5570562 0.12587622 0.25916126 0.6420793 -0.3977885 0.51397353 -0.5096093 0.46888715 -0.015884269 0.24901797 -0.27065653 -0.16974224 0.1108975 -0.25896245 0.089286014 -0.23099522 0.08725012 0.8061941 0.20521513 -0.3150071 0.20902589 0.12490353 -0.042440735 0.16505314 -0.30223128 -0.62522465 0.037597355 -0.18607749 -0.18920617
9791191509250 -0.6698613 0.5571987 -0.7904526 0.044013605 0.1023492 0.09968115 -0.032128796 0.19305862 -0.3274202 -0.1142605 -0.0016444934 0.17561276 0.036820427 -0.2068111 0.6288561 -0.15654227 -0.14522825 -0.024917984 -0.38307893 -0.23786896 -0.47857514 0.06530023 -0.2004902 -0.14958808 0.5649035 0.10876663 -0.4295951 -0.13350283 -0.31533942 -0.5141604 -0.3573472 -0.103918344 -0.10369004 0.030621931 -0.966088 0.1631887 -0.028510861 0.2951686 0.21247235 0.058014654 0.053700924 0.37950537 -0.0069699977 -0.13248561 -0.31761444 -0.010649886 0.06388069 0.25539336 -0.21107434 0.6266597 0.081004925 0.15702334 -0.59481484 0.2142131 -0.25441658 -0.67721605 -0.25825056 0.2678372 0.10318954 -0.1468075 -0.29796207 0.13927165 0.40732613 0.030347781 0.12443959 0.078968324 -0.08365632 -0.10819071 -0.39276347 -0.4608749 0.07795243 0.64377844 0.113268144 0.44333103 0.16551855 -0.24067777 -0.0034893302 0.08685794 0.4947786 -0.31953886 -0.035745945 -0.5321128 -0.58979505 0.1757603 -0.27792317 -0.32339758 0.27482006 -0.4243755 0.13943191 0.38359162 -0.15071516 0.33913964 0.38037923 0.6226775 0.39136875 0.6925903 -0.1704373 -0.25669807 0.319624 -0.24890439
9788960498679 -0.42994818 -0.36292547 -0.43317965 0.26765674 -0.16543324 -0.0008447568 -0.44991532 0.028627876 -0.016646316 0.45363438 -0.3867888 0.36773983 -0.8575962 0.18723227 0.36576495 -0.09569918 0.13085505 -0.05314435 0.5350989 -0.43747863 -0.75826114 -0.48628476 -0.41580176 -0.28254354 0.087860376 -0.05567337 0.42313245 0.001562719 -0.46177185 -0.09053828 -0.21370298 -0.2614426 0.3788727 0.40632424 -0.98083276 0.23845942 0.12008718 -0.015443034 0.045223054 0.93303055 -0.06390713 -0.09776746 0.88155603 0.02107292 0.409091 0.034168866 0.2691443 -0.028187834 -0.8180997 0.67788464 0.017157279 0.4342747 -0.28700048 -0.04292969 0.64100355 -1.5285072 -0.31467697 -0.029002266 -0.10004261 -0.38792938 0.2908805 0.33179563 0.35491863 0.3008297 0.19664669 -1.4942073 0.028894627 0.25416416 -0.2045082 -0.6505413 1.4441717 0.3419712 0.7479404 0.37806416 0.06512386 0.7821258 0.75047034 -0.544164 0.060183294 0.25473824 0.12803346 0.09665492 -0.27109858 -0.1777434 0.8357048 -0.73845524 -0.14949715 0.10714889 0.014146193 0.15354 -0.5277586 0.38557854 0.019617481 0.31484953 0.61515224 0.55454355 0.5555251 0.57355493 0.13228762 0.14627773
9791191209020 -0.69661343 -0.0025039213 -0.7992973 -0.4137898 0.47618687 0.11655733 -0.58923745 0.21853225 -0.30441597 0.7733013 -0.4367347 -0.23198234 -0.303036 -0.82680196 -0.13181816 -0.038594913 0.11903398 0.16268343 0.052500643 -0.12656987 -0.68324643 -0.47107285 -0.22189061 -0.51471394 0.45880368 -0.14566363 0.23233652 0.3566155 -0.6199032 -0.52599657 -0.033215787 -0.35220647 -0.23402229 0.47559747 -1.3405826 0.40014702 0.43540868 0.7355033 -0.35108066 0.98580325 -0.33604386 0.3562618 0.2561779 -0.353874 0.021362452 0.07941386 0.32195866 0.10794556 -0.14043213 0.5783507 0.20293128 0.0704204 -0.09839184 0.644279 0.46359095 -1.0925149 -0.59077305 -0.02625177 -0.16063924 -0.32036486 0.55331725 -0.027625497 0.83147305 0.09274413 -0.20492814 -1.2431984 -0.3372158 0.49989015 0.1962329 -0.6944771 2.235383 0.305708 0.20610699 1.003451 -0.5291985 0.31735846 0.63118094 -0.8415935 0.70785964 0.40468535 0.73149717 -0.01699835 -0.6469857 0.04208679 0.3679368 -0.50183547 -0.19904359 0.2027184 0.1797264 0.60175616 -0.27408323 -0.1984693 -0.28754815 0.20134692 0.47004795 0.89914125 0.57507056 0.5377087 0.02371014 -0.43272316
9791130678030 -0.5677896 -0.4177911 -0.65023714 0.03832779 0.12055464 0.4769172 -0.21832411 -0.10002421 -0.021408401 1.0760889 -0.39812362 0.13427238 -0.72171575 -0.10761603 0.208207 -0.3514324 -0.114523076 0.19992204 0.3399301 -0.035408378 -1.0226716 -0.7651467 -0.38528717 -0.55517644 0.5215089 -0.14918317 0.5962798 0.047397394 -0.9320218 -0.369328 -0.14122622 -0.6316684 0.2697432 0.6090904 -1.0574461 0.7703443 0.46348652 0.42844775 -0.4601792 0.8394856 -0.560695 0.40245688 0.5887929 0.028127022 0.17091902 0.08695772 0.03826025 0.1393453 -0.4443642 0.10392356 0.43033177 0.28385445 -0.40181896 -0.021240033 0.6282053 -1.3188319 -0.7128811 -0.020320734 0.13409503 -0.5648467 0.6530946 -0.16433628 0.7664213 -0.29334563 0.24012037 -1.736799 0.25760195 0.38996565 -0.15753973 -1.0982295 1.4739169 0.31504062 0.3602573 0.9768472 0.052068178 0.2783723 0.49112394 -1.063923 0.69724464 0.23144796 0.13561222 -0.3135678 -0.7223648 -0.5064859 0.69401467 -0.9935108 -0.12699132 0.18099779 0.13796112 0.06839518 -0.93391865 0.221978 -0.036232755 0.0413854 0.43551522 0.1804452 0.391273 0.71883965 0.1827867 -0.5899896
9791187512578 -0.42554748 -0.5360668 -0.5470395 0.6865774 0.25280738 -0.5284855 -0.33239833 0.39603108 -0.25230527 0.49198413 -0.5993231 0.034496184 -0.6075475 -0.46539223 0.32989207 -0.06420831 -0.6091517 0.3263094 -0.017491303 0.3780907 -0.79987216 0.008835044 -0.49256447 -0.084920496 -0.21960083 -0.15175816 0.4045057 0.8919022 -0.863349 -0.20542979 -0.10961821 -0.91521746 0.3458034 0.9112987 -0.95537555 0.2770295 0.43444604 0.6577674 -0.42996663 1.487022 -0.1456895 -0.2994305 -0.11186848 -0.49246287 -0.22201654 0.5046154 0.5374277 0.05269543 -0.4688663 0.66982174 0.5114179 -0.049286988 -0.007458622 0.8449865 0.32175416 -0.90003824 -0.5229686 -0.09207859 0.33695138 -0.086917765 0.5513366 0.048457667 0.6680953 -0.3949729 0.03983088 -1.3304628 0.31242236 -0.14193894 0.70608854 -0.7276008 1.3117208 0.282068 0.15429063 0.49774322 -0.64292556 -0.20900255 0.82174325 -0.6882501 0.9507455 0.46999586 0.07317917 0.08147544 -0.2542623 -0.55181843 0.3892316 -0.47637329 -0.5860531 0.2013195 0.47108716 -0.12416271 -0.28679144 0.2360936 -0.098812796 0.38792717 -0.19952331 0.02372072 -0.033223383 0.5971858 0.12545857 -0.047658686
9791164133055 -0.38429183 -0.31616542 -0.6243404 0.32070827 0.5413151 -0.33437914 -0.20354204 0.32703143 -0.0040544714 0.38633472 -0.27440274 -0.27867457 -0.48872885 -0.6470528 0.1648898 0.1919475 -0.17676803 0.22627981 -0.33135432 -0.19946401 -0.40324998 0.2574604 -0.585722 -0.17150836 0.20146066 0.058834836 -0.21364006 0.14624944 -0.85099936 0.06404389 -0.11558587 -0.52909976 0.14541855 0.84237784 -0.7470666 0.427884 0.557082 0.24098182 -0.63398314 1.0724406 -0.22111389 0.021192858 0.2685554 -0.8307328 0.101279534 0.10927819 0.33530164 0.41220683 -0.3350703 0.6025688 0.40506223 -0.14459386 0.20969357 0.17381635 0.17062138 -0.6421511 -0.59037197 -0.2658311 0.052446466 -0.53678817 0.7649563 0.47102356 1.2521992 -0.44729477 0.00038242375 -0.968105 0.34255737 0.13140284 -0.29582897 -0.29863325 0.8397738 0.03981422 0.03723481 0.40671 -0.28677374 0.13139513 0.25975397 -0.41705456 0.41839665 0.024636634 0.6044596 -0.45067888 -0.23347904 -0.03478767 0.06468273 -1.0430083 -0.2732133 -0.121990114 0.45237467 -0.35421026 -0.41164574 0.11095389 0.32660565 0.48457238 0.05326205 0.06314267 0.594605 0.46582666 0.469125 0.056242738
9791195795505 -0.33785713 -0.11556388 -0.55967635 0.04447094 0.24141055 -0.29853603 -0.22122784 0.24778487 -0.3027001 0.47999018 -0.19695458 -0.26334321 -0.14547089 -0.35112664 0.49170053 0.20301446 -0.26538086 0.17311066 -0.17358622 -0.5121146 -0.28213048 -0.16816959 -0.4171715 -0.4317354 0.44351342 -0.3716409 -0.2462111 0.0038606497 -0.76832736 -0.021372544 -0.0677951 -0.40612552 0.0068546 0.7797832 -0.29223603 0.26775008 0.27955163 0.19342428 -0.31900647 0.7414432 -0.15985 0.40378058 0.18539567 -0.85813445 0.20389391 0.20710407 0.015810011 0.34726807 -0.23128137 0.24528033 0.43912125 -0.08027547 0.12885599 0.5680182 0.044938467 -0.6952429 -0.47351483 -0.14774154 0.07548136 -0.74027896 0.49040726 0.4644659 1.175378 0.038611934 -0.3103501 -0.6559866 0.29554966 -0.07307753 -0.23897915 -0.3866047 0.64293313 -0.2308495 -0.058631256 0.5107318 -0.23654552 0.047987986 0.020647809 -0.48593205 0.34642103 -0.025550656 0.5419118 -0.64420736 -0.41561344 0.12543446 0.12145665 -0.9267437 -0.41125214 -0.3434802 0.30936524 -0.08302423 -0.43613416 0.1935608 0.15239066 0.57223016 0.21713033 -0.32497355 0.3885355 0.62247115 0.7680428 -0.3559934
9791195153886 -0.31475493 -0.8167101 -0.8804387 0.28341404 0.31014308 -0.25695503 0.07429044 0.32312784 -0.033372093 0.17525682 0.005465767 -0.39006558 0.024572406 -0.39486924 0.13412173 0.076473355 0.19711852 0.5098201 0.39212158 -0.019617151 -1.0691421 -0.4748059 -0.45718786 0.19891495 0.30766702 -0.08942949 0.15314302 0.06942595 -0.71445954 -0.46977934 -0.30841 -0.47582856 -6.575355e-05 0.81662744 -0.7575734 0.2497541 -0.19421698 0.34089077 -0.22948676 1.0570368 -0.025713155 0.04773412 0.48698226 -0.60036373 -0.08829305 0.45098755 0.301345 0.66017854 -0.5832515 0.3667406 0.521907 0.047655076 0.21780172 0.5161679 -0.22527047 -0.7141956 -0.21441068 0.15476848 0.39733928 0.19446677 0.8863118 -0.10209683 0.8569397 -0.35228476 0.16279536 -0.9500618 0.06355071 -0.7786843 0.34679314 -0.49796036 0.9065444 -0.011610061 0.23924035 0.25854576 -0.060865827 -0.048181783 0.20952632 -0.35691836 0.9291125 0.60380375 -0.16331236 -0.12709957 -0.6424132 0.14004253 -0.04389203 -0.9297198 -0.57601696 0.43371534 0.4519718 0.25537202 -0.5730151 0.20012777 0.086043335 0.6072826 0.12197376 0.077484064 0.5288918 0.62329787 0.1599913 0.020526754
9791159098802 -0.3875656 -0.56202245 -0.44086468 0.32258445 0.6932994 0.4522811 -0.29174358 -0.51088375 0.09738528 0.7202448 -0.625624 -0.2468686 -0.55599254 -0.5444916 0.058673874 0.13359217 -0.2548282 0.3316401 0.4771493 0.2175163 -1.18755 -0.60097116 -0.8734174 -0.18245175 0.29820108 0.3446022 0.87522006 0.37967595 -0.9028127 -0.3897176 -0.10687657 -0.86401135 0.44524074 0.32789344 -0.9527694 0.665141 0.07961871 0.7655939 -0.59035474 1.4933882 -0.3978822 0.050402116 0.20594381 -0.39791086 0.23145911 -0.10243375 0.32317182 0.6376641 -0.3404513 0.3090199 0.73466617 0.017477967 -0.35794768 0.10598088 0.7407624 -1.1063282 -0.5829508 -0.26975104 0.55843204 -0.47649688 0.80188286 -0.3820094 0.77349037 -0.58583045 0.24902216 -1.7148904 0.031805556 0.3617081 0.75090504 -1.5004172 1.9016788 0.36833864 0.76383436 0.88564044 0.19092654 0.4998058 0.72583795 -0.72650117 1.0695945 0.029002039 -0.2820333 -0.2918404 -0.4412748 -0.67885995 0.8106562 -1.079727 -0.6660123 0.5367086 0.3640849 0.003509343 -1.3333694 0.15061274 0.08856774 0.42617962 0.8594714 0.21010932 0.76994926 1.1192608 -0.030346718 -0.23040433
9791191509243 -0.47151664 -0.81105584 -1.074233 0.21381515 0.810025 -0.2545408 -0.010288375 0.45694143 -0.05859646 0.007154658 -0.22241409 -0.38612625 0.15829179 -0.45248583 0.2581213 0.142 -0.14644425 0.736796 0.1824485 0.26293904 -0.6755422 -0.16819954 -0.52803504 0.12979677 0.20063715 -0.005190036 0.46522528 0.6468408 -0.8690844 -0.05405582 -0.561275 -0.8298867 0.22662196 0.90265155 -1.1964618 0.49100044 0.05088541 0.68478626 -0.3361562 1.283471 -0.19764926 0.06910643 -0.0649591 -0.75455815 -0.18284452 0.40736276 0.25370213 0.7247943 -0.61239415 0.22648928 0.8517123 -0.2836714 0.33845606 0.5148037 -0.24977449 -0.9713168 -0.7297125 -0.22086363 0.45934412 0.27936536 0.5431402 0.27872074 0.8649612 -0.51481485 -0.2206501 -1.1764357 -0.047454543 -0.9124906 0.55678695 -0.6474671 1.3741685 0.120400846 -0.19028138 0.20381397 -0.020471489 -0.31526157 0.47371313 -0.4555876 0.83886254 0.5238918 -0.17226735 -0.3038612 -0.5004821 -0.21264318 0.07427157 -1.0088158 -0.5305115 0.62280464 0.5202091 -0.15411025 -0.1856586 -0.025586013 0.02376955 0.23800346 0.12748088 0.32199088 0.58228344 0.6902856 -0.17355016 0.092924856
9791191462029 -0.5678439 0.23335777 -0.8965259 -0.0005644786 0.09646211 0.07402801 -0.30026236 0.1282838 -0.38544747 0.4913752 0.13257703 0.024494415 -0.17216897 0.1781436 0.42465085 -0.056185808 -0.0026243608 -0.040264204 -0.2559747 -0.0008985302 -0.11147806 -0.15505639 -0.19056356 -0.13110264 0.4146503 -0.14287077 -0.28815863 -0.109002545 -0.5431026 -0.5674984 0.005919539 -0.31153926 -0.28874034 0.22387524 -0.7987136 0.3273705 0.3206853 0.54796404 -0.122232296 0.3964718 0.06875976 0.29170075 0.11984944 -0.037107952 -0.1278997 -0.04858448 -0.0019219776 0.24483533 -0.09093624 0.24735057 0.17698163 0.44957525 -0.63156664 0.31602827 0.2051195 -0.74490696 -0.25166962 0.041979194 -0.12351966 -0.28380647 -0.21046704 0.14249599 0.2625755 -0.38242483 0.12849651 -0.47227556 -0.5361205 0.2563062 -0.06201683 -0.5096549 0.5922019 0.3048424 0.19910419 0.3491058 -0.09317378 -0.23614965 0.31248042 -0.34856588 -0.0710322 -0.045792915 0.14754035 -0.55745244 -0.6209627 0.3200067 0.10027261 -0.40599817 0.007991047 -0.14141056 0.14493941 0.19607368 -0.1254888 0.09985314 0.0770159 0.0790893 0.7666072 -0.050534498 -0.28736702 -0.20197624 0.28694487 -0.35373577
9788965749868 -0.3711463 -0.33916098 -0.7796336 0.19984455 0.38593802 0.002841268 -0.4074562 -0.182107 -0.35068542 0.80641806 -0.11921478 -0.0055677425 -0.4322322 -0.24644263 0.1792705 -0.23627776 -0.44568542 0.015156538 -0.25865522 -0.10693841 -0.23939955 -0.034463998 -0.7648751 -0.54307854 -0.2728324 -0.22480936 0.24747123 0.35202846 -1.063414 -0.46015918 -0.15742485 -1.0972024 -0.015298244 0.74890476 -0.63525736 0.09105839 0.28228042 0.59101653 -0.40660077 0.780001 0.09081178 0.100009285 0.24371554 -0.31313545 0.039719544 -0.24400556 -0.13452004 0.8019652 -0.35856935 0.61134523 0.45108104 0.07013336 -0.24548955 0.6359197 0.7664933 -0.815932 -0.96357375 -0.24471518 0.1488693 -0.54632556 -0.15123609 0.41435665 1.0199168 -0.7669951 -0.08315124 -1.4857931 0.19903219 0.16432257 0.6945615 -0.9593672 1.2593455 0.48294932 -0.03523656 0.42154676 -0.1113042 -0.1411505 0.47509 -0.9294692 0.21918167 -0.09067749 0.10474435 -0.54829234 -0.53147 -0.8896081 0.2900495 -0.50179917 -0.89758295 0.19546464 0.5051353 0.25250247 -0.25544515 0.2371876 0.09235789 0.28709367 0.16403826 0.173969 0.06699901 0.08001184 0.2163103 -0.02091213
9788969524478 -0.4250799 0.13793497 -1.1882764 -0.007262783 0.5403246 -0.022924988 0.12761001 -0.040036116 -0.38349006 0.43706748 0.13158491 0.099179976 -0.1567239 -0.40769666 0.6135132 -0.14702363 -0.109763354 0.25397545 -0.40625256 -0.10252149 -0.46588722 0.1884277 -0.5564143 -0.36332598 0.8263072 -0.12351831 -0.33555743 0.045187484 -0.6657533 -0.7091287 -0.4518413 -0.43888694 -0.48419803 0.2618832 -1.1898766 0.17356664 0.1539034 0.71383965 -0.12084331 0.40658766 -0.009035706 0.5197167 0.68327767 -0.7089239 -0.38472053 0.059942346 0.09891047 0.52581555 -0.6207643 0.6909837 0.2820882 0.33678353 -0.1810171 0.1704773 -0.056719642 -0.9402974 -0.1770202 0.19011375 0.06846939 -0.31028402 0.4538384 0.064491384 1.0277553 -0.36629683 -0.16890025 -0.59272623 -0.069610044 -0.16012481 -0.1826455 -0.5808819 0.87823457 0.8935817 0.34055308 0.6947637 0.01844964 -0.2412675 0.38593125 -0.21372133 0.76504844 -0.090913944 -0.076335244 -0.6497534 -0.7095234 0.0007895613 -0.12393464 -0.6407636 0.03804291 -0.031095818 0.06705086 0.08752857 -0.05221938 0.29568353 0.0937611 0.5650055 0.5074029 0.7241525 0.036613453 -0.023096697 0.025207115 -0.018001433
9788934907725 -0.60125166 -0.6450021 -0.68272257 0.1025376 0.2942221 -0.12105807 -0.40987164 0.031357404 -0.49401152 0.47619945 -0.5628032 -0.3748026 0.20816614 -0.26672766 0.41491428 0.252366 -0.38268209 0.542504 0.118915364 -0.10014025 -0.4256519 0.079119064 -0.60437435 -0.29536873 0.2823996 0.059014283 0.11035919 0.5217139 -0.7483559 -0.07532141 -0.007181773 -0.9049905 0.2014756 0.7839416 -0.6483001 0.31463543 -0.10055725 0.51337266 0.11110928 0.6454416 -0.1689114 0.03482229 0.066997945 -0.4315485 0.042064324 0.3203713 0.03846683 0.49735484 -0.22160539 0.1073963 0.53285587 0.12695192 0.11922111 0.7184475 -0.15360379 -0.75698406 -0.5952084 -0.3189942 -0.29269204 -0.13153115 0.22290558 0.46134007 0.9297884 -0.17231709 -0.31721503 -0.830226 -0.16156727 -0.27080745 0.46110857 -0.5443012 1.2207919 0.1603573 -0.291044 0.32605505 -0.47080758 0.33829346 0.090361126 -0.71860623 0.6165266 0.36374998 0.4033734 -0.1948874 -0.6736358 -0.030592486 -0.16733405 -0.6431885 -0.4933131 0.66667944 0.28157312 0.25788814 -0.14128987 0.140672 -0.15966117 0.26413655 0.4141751 0.57692033 0.43812668 0.65260994 0.26772267 -0.1543563
9791191393385 -0.6928251 -0.34176946 -0.4718994 0.40085572 -0.07325207 0.12764813 -0.64869183 -0.10975349 0.20620525 0.6046078 -0.08992137 0.17968735 -0.3613159 -0.098028265 0.25220266 -0.3554758 -0.07567843 -0.17850973 0.06922345 -0.215063 -0.7113206 -0.42715326 -0.30404955 -0.07473004 0.3374781 -0.1711361 0.36050716 0.00698221 -0.71087295 -0.20057026 -0.3961512 -0.3508855 -0.16255856 0.6176695 -0.68735397 0.6049051 0.1505578 0.43095174 -0.17981997 0.7079429 -0.13472384 0.060726173 0.6999699 -0.009790835 0.21981841 0.03698494 0.08929479 0.08069976 -0.6240091 0.39950737 0.020383708 0.43730667 0.008350003 0.18638058 0.21308799 -1.0457518 -0.52633697 -0.06731006 -0.47002015 -0.52961016 0.4165694 0.0836589 0.8644916 -0.0846681 -0.050419707 -1.4260728 0.050331157 0.28546453 -0.24252613 -0.5056098 1.1947864 0.5352735 0.4465337 0.70707995 -0.059203804 0.10577225 0.20235422 -0.7366975 0.6310993 0.4721353 0.28478175 -0.39413506 -0.37527263 0.07809264 0.49428892 -0.8213861 -0.19454193 0.22075434 0.3039476 0.3550203 -0.45313492 0.37792715 0.17230515 0.33025983 0.12522306 0.15916227 0.5010351 -0.0015096269 0.35396847 -0.2714008
9791188700288 -0.58316076 -0.34720197 -0.6983819 0.16170286 0.19282703 0.07095217 -0.39787778 0.11993279 -0.35331288 0.58053523 -0.3510939 0.16480969 -0.3676157 -0.6649221 -0.0067372145 -0.41254202 -0.54181 0.28796133 -0.14334805 0.1841802 -0.5212066 -0.37029904 -0.3746793 -0.124767974 0.22572723 -0.4285344 0.48699722 0.66694903 -0.84975827 -0.44757017 -0.005649497 -0.99289584 0.12718694 0.6096578 -0.9377634 0.41554022 0.32367066 0.5681593 -0.45398474 1.2758144 -0.12750204 0.24912836 0.27237117 0.14264974 -0.12178413 -0.35038972 -0.038448196 0.160025 -0.35511622 0.3718105 0.6888192 -0.07884957 -0.44047377 0.49755782 0.35346064 -0.96093136 -0.97634685 -0.017946636 -0.11813011 -0.45172614 0.33618474 0.19543299 1.0151407 -0.345341 -0.10459971 -1.3041122 0.20266643 0.15764546 -0.12617384 -0.8047454 1.4098457 0.6314374 0.18309097 0.75449264 -0.17851396 0.018841842 0.67517865 -1.0915525 0.43094984 0.3218695 0.20116295 -0.5223595 -0.6995075 -0.47915936 0.13171123 -0.38244408 -0.35571742 0.18318844 0.2848493 -0.206 -0.192239 0.47424966 0.44348377 -0.24296512 0.43971422 -0.1404207 0.071926914 0.16393952 0.39341816 -0.48981908
9791190846264 -0.7294604 0.11405164 -0.43461204 0.29340613 0.0455308 0.6361601 -0.58435017 -0.26103356 0.29943994 0.59527254 -0.13009766 0.22745554 -0.5861416 0.2203445 0.17468056 0.09392794 0.27689704 -0.16146943 0.29080763 -0.46277052 -0.7440252 -0.49241105 -0.21267886 0.0049694693 0.19317056 0.091584615 0.67267776 -0.37822488 -0.5576486 0.16809759 -0.4644371 -0.1355296 -0.06635771 0.36915877 -0.8611036 0.81248724 0.2751796 0.0865877 -0.13366143 0.86203617 -0.26363564 -0.058982927 0.752281 0.17124271 0.5194568 0.0714266 -0.1932372 -0.20667772 -0.60667145 0.69792014 -0.087666765 0.6056409 -0.09334507 -0.37725654 0.23313265 -1.1736318 -0.5659171 -0.13802895 -0.6084288 -0.6438791 0.19320713 -0.09651733 0.5279663 0.15257336 0.07895327 -1.6307377 0.14290741 1.1058065 -0.5041375 -0.4283775 1.3175987 0.41010138 0.8090865 0.6109158 0.19525717 0.71079916 0.36964726 -0.2589089 0.19752581 0.37285993 0.22350037 -0.47531888 -0.47201765 0.20613697 0.6438198 -1.1608232 -0.01455281 0.040036242 0.19638611 0.19312343 -0.67342305 0.49497163 0.34780705 0.32021508 0.45533735 -0.087857924 0.8527086 0.5917269 0.43100142 -0.047505375
9791197438707 -0.20428084 0.30190724 -1.0295484 -0.21298106 0.35415125 0.25941703 0.075485885 -0.18206252 -0.1994515 0.235465 0.12761432 0.1840493 -0.041869923 -0.11138611 0.40573266 0.079057306 -0.38577336 -0.12325668 -0.18564342 0.2025074 -0.51005787 0.0078726625 -0.12216773 -0.09713002 0.6958722 -0.083000824 -0.4557232 0.20133474 -0.53788286 -0.7230735 0.07326076 -0.264188 -0.16928615 -0.3144528 -1.0409821 -0.028478663 0.32177666 0.8623641 -0.3680358 0.39721984 -0.30316803 0.71256393 -0.16502474 -0.11775617 -0.73226863 0.10370244 0.19668667 0.56056625 -0.14136012 0.5315886 0.38820004 0.27408826 -0.23009734 -0.0036413965 -0.2838334 -0.86570936 0.020594973 0.36536485 0.12138077 0.2862454 0.12893458 0.27374062 0.34229565 -0.41893843 0.20848137 -0.02742843 -0.14737032 -0.1258076 -0.14963634 -0.33474353 0.72067326 0.8719911 0.29507262 0.113838166 0.26953343 -0.30082306 0.47054914 0.004476019 0.64723915 -0.08266082 -0.2652828 -0.56411445 -0.67075884 0.043689203 -0.49419507 -0.36775658 0.32292554 -0.13697861 0.12865059 0.33011028 -0.38107866 0.42066967 0.26253307 0.76361793 0.7574227 0.57902193 -0.11754843 -0.47788683 0.35976753 -0.17484768
9791191183078 -0.62280875 -0.25197017 -1.0225418 0.020338517 0.68179613 0.034148786 -0.49779722 0.1436467 0.030884594 0.72846544 -0.09171556 -0.10975008 -0.29162592 -0.63797724 0.15086794 -0.024345675 0.08891061 0.1445332 0.5312181 0.06040993 -0.5046948 -0.39547402 -0.29393044 -0.34878564 0.41693717 -0.365252 0.23482482 0.81309444 -0.8403704 -0.20538966 -0.036465205 -1.0208892 -0.034890726 0.8535039 -1.0102056 0.39186236 0.26219404 0.56068367 -0.31446567 1.2739803 -0.16759531 -0.46107507 0.72294205 -0.27565107 0.38613972 0.3784769 0.37704492 0.4016688 -0.5345524 0.6800058 0.18132134 0.039107602 0.06175736 0.46987233 0.39909518 -1.143587 -0.40076342 -0.306975 -0.0076462976 -0.34840527 0.69653934 0.042819135 0.8699602 -0.26730302 0.030598788 -1.2144661 0.0045500724 0.34353012 0.2339423 -1.0407068 1.5637573 0.20962228 0.3375777 0.96302223 -0.4580727 0.14897391 0.7979464 -0.6401732 0.8842416 0.2897634 0.43116435 -0.31276873 -0.64612824 -0.011263581 0.33114594 -0.8942037 -0.6119631 0.1330129 0.42692327 -0.18686505 -0.38533014 -0.074689455 -0.094459295 0.20442759 0.58866876 -0.0041625444 0.9683313 0.41918707 0.37995973 -0.4007681
9791191119121 -0.17061014 -0.3564832 -0.60779285 0.18065247 0.32151622 -0.26286033 -0.2308129 0.05771096 -0.47373095 0.39487824 -0.46188062 -0.37436986 -0.31283036 -0.12289306 0.20966017 0.44306964 -0.22990844 0.26348802 -0.5930035 -0.083325945 -0.21722202 0.35347742 -0.6306778 -0.30182615 0.120650776 -0.045691382 -0.18973075 0.22075994 -1.0075266 -0.0700142 0.27576286 -0.6813785 0.286025 0.6058543 -0.7361871 0.2103033 0.3660185 0.28367922 -0.51990414 0.99494886 -0.43934864 -0.035769973 0.2975204 -0.71544206 -0.24178444 -0.014041842 0.3174016 0.17251037 -0.31083527 0.72750944 0.8084577 0.021819104 -0.34217152 0.53416455 0.3756611 -0.7340387 -0.5173762 -0.44479388 -0.19151849 -0.50657046 0.09719454 0.3602045 0.9583165 -0.4847524 0.17290585 -0.5500527 0.4066993 0.22740053 -0.091261655 -0.1300234 1.2417722 0.09474325 -0.43092614 0.3239953 -0.6822082 0.3512745 0.50018513 -0.6118416 0.01968663 0.047287323 0.7533527 -0.29912812 -0.21538319 -0.45426884 -0.4072051 -0.31301206 -0.39597672 0.25904945 0.33281082 -0.16610456 -0.4566185 0.13411437 0.58983964 0.40053827 0.0023032753 0.18634066 0.24757142 0.59197474 0.5496817 -0.46200597
9788990496041 -0.1375834 -0.1826919 -0.37178245 0.17459545 0.03711432 -0.16556574 -0.10085065 0.10254771 -0.25822112 0.4101717 -0.1540759 -0.04355091 -0.5709638 -0.19396317 0.09796263 0.23678438 -0.57327044 0.12770627 -0.22517355 -0.20566933 -0.36349797 0.05341565 -0.27833852 -0.22792761 0.020952431 -0.13059144 0.09296703 0.30413052 -1.0752448 -0.5491912 0.20383038 -0.51972646 0.5475397 0.6640023 -0.5429594 0.06411886 0.43200466 0.4510642 -0.19803345 0.75395733 -0.2382411 -0.07945291 0.25834933 -0.48721868 -0.07696098 0.031960495 -0.074407935 0.15791903 -0.11902235 0.45261723 0.5258659 0.0658191 -0.28339502 0.64852875 0.28711882 -0.7284295 -0.32666788 -0.15683612 -0.23343873 -0.34200758 0.20382579 0.1308517 0.7121229 -0.40603763 0.078290306 -0.5247482 0.40491775 0.17492113 0.3308901 -0.041266385 0.6805166 0.27598804 -0.0013769207 0.3457489 -0.25716457 -0.06351089 0.3564885 -0.68854034 0.101733394 0.010733858 0.5868951 -0.28832033 -0.28564313 -0.35845923 0.0019943353 -0.2972769 -0.38315192 0.13597833 0.39679736 0.01368347 -0.5505394 0.08985496 0.19121559 0.24814491 0.11191721 0.076562785 0.13403349 0.17464101 0.3661634 -0.26930043
9791164060351 0.37892467 -0.7148969 -0.7178927 0.2410273 0.517207 -0.42845583 -0.9226436 0.0803381 -0.15639588 0.64952624 0.22042857 -0.44181725 -0.042369675 -0.3082663 0.43778557 0.2934954 0.2562895 0.122122146 0.15250544 -0.0048137447 -0.47586107 -0.12432976 -0.7709472 0.46497464 0.29298726 0.13886102 0.24111536 0.86155456 -1.4444282 -0.03337343 0.22302619 -0.9479749 0.17099589 0.6478753 -1.1686605 0.4628106 -0.5103634 0.70317346 -0.76760596 0.7883414 0.33744478 0.17994833 0.8822196 -0.5361637 -0.76112777 0.56536615 0.11611297 0.7763816 -0.58700293 0.27568132 0.27443227 0.77557594 0.04027478 -0.2696673 0.33117306 -0.794829 -0.22786959 -0.32792276 -0.25017 0.3361672 0.583934 0.55671287 0.55413127 -0.47505125 -0.062111944 -0.5714946 -0.054568514 -0.36306068 0.39088565 -0.32955405 1.3860501 0.31036514 0.69326645 0.24799049 0.2668711 0.16121809 0.5087743 -0.2870869 0.72726774 0.05961586 0.053038638 -0.07138251 -0.6882704 0.108238585 0.08158221 -0.51261395 -0.4505025 0.47346115 0.88650113 0.12237886 -0.44932672 -0.38063025 -0.26748812 0.38005218 -0.28898263 0.35004768 0.035306666 0.41884977 -0.09520413 0.02168249
9791185402376 -0.7147076 -0.19473222 -0.58782595 0.03392068 0.37692645 0.12162864 -0.34927803 0.22277795 -0.025394104 0.44663823 0.1847913 0.42115664 -0.46187714 0.021654554 0.15000325 -0.023911057 0.020125128 0.23452109 0.23731221 -0.3956612 -0.6285548 -0.16928655 -0.51248235 -0.22035445 0.22157258 -0.14921412 0.7414989 0.516309 -0.6381106 -0.32978195 -0.27883115 -0.26925662 0.0366553 0.5489481 -1.0226743 0.3514163 0.06160422 0.5730529 -0.20048939 0.85513276 -0.2007541 0.23747948 0.5993488 0.097523466 0.08787256 0.08959016 0.37207007 0.15560195 -0.65578437 0.31773177 0.5766909 0.15042382 -0.022389807 0.095480114 0.43818772 -1.3087106 -0.9143674 -0.10933143 -0.04940925 0.037048206 0.4831411 -0.13273926 0.62423444 -0.41880912 0.2872895 -1.1842709 -0.009375559 0.004139716 -0.17507136 -0.37802184 1.5474949 0.6397274 0.452666 0.43240052 0.029571937 0.16790722 0.6858091 -0.55312914 0.07750139 0.07833823 0.2972515 -0.10117057 -0.7083479 -0.037758928 0.33042812 -0.5134388 -0.21023922 0.20182297 0.205609 -0.22208263 -0.5516418 0.23392572 -0.02183669 0.050274465 0.5060902 0.5546488 0.15349418 0.43992102 0.344414 -0.19624633
9791191059229 -0.31528112 0.4794002 -0.8885726 -0.21844232 0.31485298 0.07023941 0.04518123 -0.03828003 -0.68031305 0.33395988 0.23393779 0.04389582 0.23316127 -0.17816411 0.36689746 -0.05385075 -0.04310989 -0.03470221 -0.16794884 -0.32797608 -0.4456349 0.043474678 0.14535554 -0.29218015 0.5841171 -0.31586823 -0.45404088 0.031308856 -0.41155756 -0.60495394 0.1707934 -0.11759946 -0.3517446 0.13711761 -0.877888 0.27035022 -0.01616067 0.7528998 -0.14317463 -0.20720805 -0.22084212 0.9770823 0.32607687 -0.42797357 -0.75111294 0.008375206 0.036619816 0.09490196 -0.09343086 0.35786524 0.14823946 0.44305688 -0.5737233 0.13691756 0.29216027 -0.9139465 -0.11275421 0.1975422 -0.029390033 -0.39964777 0.19085917 0.40470102 0.62357295 -0.30923063 0.18092747 -0.31795347 -0.0027836065 -0.035648156 -0.24514703 0.054138176 0.5014385 0.87926453 0.18365024 0.15153155 -0.053062208 0.024899192 0.27874023 -0.07736902 0.6185473 -0.21436837 0.32574567 -0.48182327 -0.50301737 0.011742622 -0.30828655 -0.4143517 0.14883073 -0.42113882 0.63300776 0.4718708 -0.36168525 0.5481206 -0.19255836 0.4755335 0.40228447 0.0892518 -0.11985758 -0.112425484 0.23531953 -0.17698586
9788925579238 -0.47605023 -0.37625036 -0.43310505 0.40794107 0.2870746 0.31651786 -0.16103965 -0.30463704 0.121941745 0.47056255 -0.5443504 -0.421313 -0.40540692 -0.22946543 -0.03186176 0.021408532 -0.36747205 0.13871355 0.09913789 0.17385158 -0.66453356 -0.30682135 -0.6926501 -0.1877302 0.103109024 0.020309363 0.43967497 0.16665286 -0.70842767 -0.2627682 -0.09196661 -0.4803587 0.30535892 0.5360488 -0.56841826 0.61277825 0.25015667 0.4744557 -0.42800784 0.88824856 0.006244721 -0.040227268 0.016317265 -0.3486748 0.27152875 0.08639076 0.062436275 0.29842916 -0.20578252 0.32461134 0.35565013 0.039120346 -0.34036562 0.38350353 0.59640557 -0.690546 -0.59259045 -0.3744958 0.15072183 -0.3941257 0.39712828 0.0032299154 0.7787 -0.22828841 0.13177323 -1.1738826 0.08126195 0.19449118 0.61791116 -0.77983373 1.1335939 0.40301913 0.38156685 0.47448575 0.013848289 0.27795216 0.4148941 -0.68247086 0.7290777 0.12234935 -0.058155425 -0.31816828 -0.50060815 -0.24960601 0.39154875 -0.79310477 -0.40852642 0.37356785 0.24809916 0.2940613 -0.8829459 0.28801364 0.31091282 0.23941486 0.36158335 0.05210456 0.1792385 0.5817406 0.24379183 -0.17121378
9788931586077 -0.6509191 -0.053807437 -0.74343294 -0.18896998 0.18215945 0.26164743 -0.8758199 0.0924375 -0.43955424 1.1458774 -0.25853175 0.31130698 -0.4952015 0.002790954 -0.060047958 -0.113696404 0.09416303 -0.41628358 0.15974204 -0.60554206 -0.4639792 -0.5704611 -0.49182412 -0.75690496 0.22056583 -0.21135947 0.34220573 0.07315398 -0.7792336 -0.3285696 0.13096136 -0.51307 -0.019948756 0.56795496 -1.0954639 0.47501108 0.62727886 0.40760636 -0.47435492 0.849566 0.09730488 0.29885834 0.50363696 0.015724627 0.045773916 -0.09087373 0.29002357 -0.07425511 -0.59735775 0.44838533 -0.081618994 0.43302995 -0.4932095 0.22299764 1.1439674 -1.0716356 -0.59553 0.13500208 0.06136181 -0.9017807 0.39568985 0.31013772 0.59078735 0.1621722 -0.035971142 -1.7297146 -0.08721575 0.79504406 -0.38419047 -0.89106125 1.6148967 0.30238447 0.22501181 0.8754922 -0.23271744 0.26103693 0.7759971 -0.7142112 0.34018937 -0.18068938 0.35717776 -0.5107878 -0.49501705 -0.04494216 0.6158985 -0.97776115 -0.30120918 -0.34117445 0.2633439 -0.0003661533 -0.44336334 0.15702188 -0.07553643 0.03475259 0.35617962 -0.01961566 0.57748437 0.5253617 0.49286819 -0.5302978
9791185473925 -0.44055858 -0.33353138 -0.9422322 -0.24335748 0.18599539 -0.10737618 -0.36309862 0.24136876 -0.3209159 0.26398727 -0.13639897 -0.14264809 -0.25628358 -0.24824132 0.016117346 0.024708005 0.1628616 -0.062327903 0.017906606 0.044609483 -0.45761496 -0.20548126 -0.29513294 0.039436657 0.46503296 0.020122763 0.0067323986 -0.09451074 -0.49313584 -0.42835796 -0.018557934 -0.41085583 -0.37279227 0.36126226 -0.792124 0.400142 0.26063538 0.5374852 -0.28731465 0.5494023 -0.05819383 0.27723864 0.25159773 -0.47283408 -0.12638883 -0.2035586 0.037669595 0.51305926 -0.07126238 0.4577215 0.27741987 0.54390097 -0.45468664 -0.11378967 -0.018789012 -0.4954806 -0.13856624 0.08520264 -0.090126924 -0.055396765 0.0932554 0.25002143 0.7776984 -0.45594427 0.20161258 -0.3514187 -0.5346994 -0.04128249 -0.091276035 -0.097423784 0.8790216 0.5515705 0.65863496 0.14463234 0.21298447 -0.28112197 0.46061748 -0.18323728 0.25215375 0.3140356 -0.023528034 -0.3704485 -0.75329083 0.5956807 0.10695878 -0.39151147 -0.15753926 0.14279951 0.414699 0.3646776 -0.56029505 0.056071218 0.30635613 0.13380644 0.6958539 -0.0693383 -0.38414997 -0.029398438 0.28390473 -0.087702066
9791185402383 -0.38336274 -0.19233696 -0.5940158 0.042768013 0.2304474 0.005949654 -0.6417216 0.14398494 -0.09815918 0.5987905 0.08503749 0.31627086 -0.72730726 -0.15855484 -0.13389009 -0.06002807 0.019693248 -0.002612001 0.120815605 -0.42193407 -0.3406834 -0.2708547 -0.51339954 -0.30808488 0.22277911 -0.07339765 0.50084764 0.32752308 -0.70395845 -0.14774844 -0.19836628 -0.5097053 -0.07396519 0.36027676 -0.94139564 0.44171607 0.2991586 0.3806571 -0.5922772 0.8584455 -0.124160804 0.22048147 0.42135945 -0.120947465 0.075440206 0.028896015 0.3389616 0.2692449 -0.7851533 0.5263316 0.2326537 0.27971417 -0.1795815 0.07750568 0.6841327 -0.94299126 -0.54457265 0.015404777 0.04128147 -0.12005464 0.37116557 0.20870481 0.59524006 -0.3018956 0.063684516 -1.1724674 0.1080036 0.25489196 -0.22665915 -0.48053074 1.6061852 0.48833755 0.5339586 0.21733664 -0.20013663 0.31078428 0.6970454 -0.7037679 0.052837323 0.09216774 0.3322906 -0.27908257 -0.65907735 -0.0991774 0.4777784 -0.7923794 -0.119056776 -0.03721594 0.1345391 -0.012482432 -0.71829695 0.30355126 0.09083028 0.052718166 0.43257403 0.1568174 0.04519924 0.16243972 0.5896577 -0.044503845
9788994780801 -0.6717837 -1.3487723 -0.96911263 0.36895162 0.9597157 -0.0929673 -0.5343419 0.25010973 -0.12750953 0.07301876 -0.8651928 -0.3319026 -0.57103765 -1.1841686 -0.56293964 0.0868233 -0.63876677 0.5670952 0.35362023 0.7612706 -0.9253732 -0.15825707 -0.9909584 -0.029934404 -0.0011013263 0.029604763 0.8223308 0.63530636 -0.6912935 0.022110019 -0.49985904 -1.3020406 -0.14106616 1.0743997 -1.0756788 -0.042160016 0.2330146 0.7947508 -0.4860444 2.0648196 0.15751138 -0.29985815 0.44882745 -1.0969198 -0.011523399 0.123571955 0.49817488 0.9911673 -0.7239675 0.74756444 1.0947156 0.706209 0.037546985 0.46512434 0.4852677 -0.9014244 -0.9490291 -0.39838687 0.35812306 -0.3154034 0.67556137 0.65105534 1.1782347 -0.8223255 0.12371904 -1.8400503 -0.11835419 -0.5157162 0.6875719 -1.1902528 1.8816808 0.39244252 0.5669475 0.50378823 0.026388198 -0.25032845 0.5127976 -0.5524408 1.1154222 0.11991097 -0.13627921 -0.20240287 -0.7171529 -0.5533821 0.4232315 -1.5467155 -0.67574626 0.547387 0.6724693 -0.09464381 -0.13329208 -0.107749924 0.6173849 0.25538474 0.08681448 0.1606915 0.0579228 0.6011685 -0.10310462 0.12555116
9791191013344 -0.5936 -0.359098 -0.9888232 0.13530295 0.2143759 0.12228638 -0.60649955 0.2745851 -0.057465732 0.7902731 -0.1871715 -0.07596641 -0.7896965 -0.3963799 0.35144356 0.023746671 0.08686535 0.42931113 0.46683124 0.15108266 -0.8508396 -0.34407312 -0.5957493 -0.3900697 0.24750158 -0.22562641 0.48003456 0.11296436 -0.9015427 -0.07121641 -0.1711117 -0.60825825 0.017790772 0.7482514 -0.90574944 0.35552153 0.18341444 0.17961934 -0.58087385 1.3992809 0.14013322 0.04422698 0.566554 -0.35630608 0.028910713 0.5902253 0.51904726 0.28837213 -0.6720187 0.56532407 0.5945781 0.20300438 -0.053415433 0.27667055 0.24030598 -1.4737737 -0.48563427 -0.0707691 0.26137292 -0.078885525 0.65163136 0.3698926 0.7298874 -0.23657541 0.30097133 -1.3983272 0.20274925 -0.20124772 0.10020329 -0.64379066 1.7474823 0.051135294 0.4161554 0.5958555 -0.06986406 0.30137837 0.9016702 -0.7717135 0.42226538 0.37796006 0.3044786 -0.18388736 -0.65261865 -0.43055165 0.4876366 -0.7959573 -0.3328557 -0.03141325 0.37341997 -0.01327767 -0.7031562 0.35970354 -0.16605444 0.2639126 0.29339364 0.21179959 0.44354552 0.8363503 0.16591455 -0.21952258
9791186361900 -0.3810903 -0.7164171 -0.7151122 0.444895 0.22798803 -0.043307703 0.0141960615 -0.053138584 -0.32046425 0.052503407 -0.06014358 0.09621413 -0.0077373814 -0.24758029 0.02015709 0.29917228 -0.19313647 0.72950745 0.20591089 0.10081351 -0.48911503 -0.1845894 -0.51243097 0.31979313 0.39609036 0.010151068 0.24386474 0.33195996 -0.57052565 -0.39423606 0.11890178 -0.7619262 0.048242204 0.48720282 -0.95230794 0.2999768 -0.1467637 0.67959 -0.23294231 1.3621601 -0.13195837 -0.007947129 0.32777855 -0.37064144 -0.06323986 -0.12329766 0.16177407 0.47524732 -0.36421368 0.17217302 0.5575695 0.025235467 0.26637545 0.40063912 -0.16813266 -0.46293578 -0.18444806 -0.08330646 -0.051896937 0.09073966 0.42728853 0.26829508 0.92899764 -0.17139956 -0.041918766 -0.5277535 0.2161844 -0.4071114 -0.07048635 -0.58357596 1.0431062 0.11955803 -0.28616768 0.29719216 0.0033492842 -0.017218431 0.41156793 -0.16785344 0.79326934 0.27749923 0.17922433 -0.4423327 -0.72375363 0.14995033 -0.12443383 -0.6435354 -0.19974557 0.5446964 0.20331252 -0.2634992 -0.46214235 0.14734857 0.13869484 0.38607368 0.384023 -0.0061096735 0.4379457 0.36777598 0.3120221 -0.057756566
9788934907749 -0.60125166 -0.6450021 -0.68272257 0.1025376 0.2942221 -0.12105807 -0.40987164 0.031357404 -0.49401152 0.47619945 -0.5628032 -0.3748026 0.20816614 -0.26672766 0.41491428 0.252366 -0.38268209 0.542504 0.118915364 -0.10014025 -0.4256519 0.079119064 -0.60437435 -0.29536873 0.2823996 0.059014283 0.11035919 0.5217139 -0.7483559 -0.07532141 -0.007181773 -0.9049905 0.2014756 0.7839416 -0.6483001 0.31463543 -0.10055725 0.51337266 0.11110928 0.6454416 -0.1689114 0.03482229 0.066997945 -0.4315485 0.042064324 0.3203713 0.03846683 0.49735484 -0.22160539 0.1073963 0.53285587 0.12695192 0.11922111 0.7184475 -0.15360379 -0.75698406 -0.5952084 -0.3189942 -0.29269204 -0.13153115 0.22290558 0.46134007 0.9297884 -0.17231709 -0.31721503 -0.830226 -0.16156727 -0.27080745 0.46110857 -0.5443012 1.2207919 0.1603573 -0.291044 0.32605505 -0.47080758 0.33829346 0.090361126 -0.71860623 0.6165266 0.36374998 0.4033734 -0.1948874 -0.6736358 -0.030592486 -0.16733405 -0.6431885 -0.4933131 0.66667944 0.28157312 0.25788814 -0.14128987 0.140672 -0.15966117 0.26413655 0.4141751 0.57692033 0.43812668 0.65260994 0.26772267 -0.1543563
9788997195022 -0.4598629 0.17279175 -0.9751038 -0.053553365 0.29485255 0.05484977 -0.076933526 0.13473637 -0.2960973 0.3084375 0.11692858 -0.18285474 0.22496952 -0.16771923 0.53413653 0.201838 -0.12165201 0.3868695 -0.501673 -0.23665597 -0.50364834 -0.13411675 -0.2664163 -0.4078753 0.34800252 -0.37464976 -0.5677551 -0.0032888833 -0.7022701 -0.51633376 0.08067703 -0.407607 -0.2646057 0.32629257 -0.7804611 0.22080284 0.40563142 0.35243493 -0.40049207 0.48166418 -0.21290025 0.51474774 0.29769686 -0.5174436 -0.37497374 0.16734707 0.2657851 0.14341477 -0.3362793 0.48289233 0.3431251 0.28109992 -0.16369905 0.34348923 -0.022486039 -0.99816316 -0.34816042 0.12283578 -0.13093029 -0.7070207 0.48433906 0.3350712 0.8103231 -0.094270416 0.024282042 -0.5822026 0.18283625 0.065189734 -0.10969839 -0.1927893 0.51577085 0.47781545 -0.010470764 0.48447055 -0.3013961 -0.13971199 0.1528615 0.069442965 0.54464614 -0.04080282 0.24792966 -0.64758563 -0.48940334 0.022935119 -0.19417588 -0.611118 -0.19038874 -0.4229148 0.22467183 0.12040132 -0.41429785 0.28041255 0.023353357 0.7415582 0.17391077 0.22590306 0.35158774 0.2028784 0.4204757 -0.40396672
9791165217396 -0.3211577 -0.7705068 -0.77120835 0.23817648 0.3689955 -0.21024007 -0.19706094 0.033762865 0.046020225 0.09637496 -0.32257652 -0.1867481 -0.47581464 -0.5025134 0.04790865 -0.048783455 -0.09513379 0.04880185 0.30747706 0.0851406 -0.37633848 0.024054237 -0.38047796 0.08745658 0.22518429 -0.08176409 0.22600706 0.36389872 -0.75969493 -0.2216856 -0.19411425 -0.73610574 0.23774067 0.5221253 -0.72440344 0.37487265 -0.24006844 0.3060842 -0.36858693 0.8014465 -0.19090009 0.008594716 0.20809412 -0.7237918 0.06321644 0.18593025 0.33191428 0.5182101 -0.27531818 0.4133536 0.37256476 -0.0047825044 0.23223889 0.4902394 -0.045406964 -0.6755672 -0.085123986 -0.20537612 0.282753 0.18052295 0.6816227 0.18433051 0.8721638 -0.35309196 -0.1477437 -0.81438905 -0.24449469 -0.70168775 0.34771508 -0.47129068 1.1328043 0.34917277 0.56256026 0.30244276 0.6026839 -0.16377962 0.45965463 -0.3302884 0.609271 0.2400817 -0.20827793 -0.08543707 -0.78789616 0.20265901 0.34454504 -0.6705209 -0.2417458 0.58640283 0.35299194 0.19100995 -0.5411908 -0.022090608 -0.3689301 0.514444 -0.0074190823 0.21735458 0.24386808 0.31809503 -0.050654627 0.31364295
9788947546591 -0.6066398 -0.41448808 -0.70002985 0.17086674 0.23556031 0.33224165 -0.2508798 -0.025085207 -0.04557432 0.4666394 -0.31046224 -0.020001965 -0.49882415 -0.35083804 -0.02955217 -0.018312199 -0.4373576 0.27254346 0.10085678 0.09847286 -0.48396605 -0.24171726 -0.42296925 -0.3200664 0.5331943 -0.40212074 0.4632101 0.31709448 -0.7042385 -0.32034773 0.12577046 -0.8765019 0.1788366 0.67256653 -0.6862168 0.28936014 0.22916256 0.26976722 -0.086718 0.89407593 -0.03940847 -0.11755572 0.5075347 -0.22515363 0.044627983 -0.009426489 0.15462601 0.26548147 -0.34412238 0.38318402 0.39684528 0.26335073 -0.28498036 0.30898294 0.30974653 -0.83646995 -0.45732772 -0.40196043 -0.061157573 -0.243571 0.40272924 0.43165898 1.0220203 -0.109102644 -0.061511487 -1.2476796 0.34288839 -0.123681076 0.06601099 -0.5603331 1.2141755 0.40836748 0.072878495 0.582739 -0.10286671 0.25331473 0.6105311 -0.8375737 0.5171825 0.23986252 0.23549786 -0.44874224 -0.7278775 -0.10911082 0.25031158 -0.836074 -0.58022106 0.33811206 0.18503492 -0.059275843 -0.47920594 0.097756185 0.09474152 0.14937773 0.47302502 -0.045898333 0.23091227 0.29684028 0.21272068 -0.27396998
9791165211646 -0.37531108 0.11665002 -1.0828553 0.05216506 0.63001233 -0.043967243 0.13562545 -0.030315438 -0.39908835 0.053426728 0.09366528 0.0058345646 0.017158436 -0.4791525 0.28366283 0.0660323 -0.0031892385 0.16733418 -0.23397614 -0.10250639 -0.44372877 -0.3587457 -0.5562297 -0.26469338 0.5760628 -0.112466104 -0.22735633 -0.3690226 -0.11690267 -0.6762211 0.13763098 0.21007447 -0.19485942 0.056398775 -0.90813875 0.19040404 -0.07155742 0.6775292 -0.1293964 0.16843414 0.073711276 0.46984482 0.5734511 -0.6382608 -0.44356078 0.007438579 0.18086042 0.39569813 -0.0014750283 0.48295966 0.16310285 0.30344573 -0.32870814 0.044650484 -0.057231177 -0.8062914 0.087339304 0.18430743 -0.12430424 -0.071142375 0.20425442 0.09716842 0.57504356 -0.047357343 0.054602716 -0.034670893 -0.49131873 -0.35750496 -0.43274507 -0.105757855 0.55265605 0.5280579 0.7047666 0.33263353 0.16365561 -0.09010929 0.3072259 0.32996303 0.60157 -0.046849385 -0.06958667 -0.64524186 -0.82329255 0.53618366 0.079434924 -0.13006735 0.05349093 -0.28998008 0.4792618 0.43940425 -0.49980426 0.35023734 -0.18116939 0.46537757 0.4645661 0.14005676 -0.25237954 -0.06199706 0.29337934 -0.13440105
9791188700042 -0.39020258 -0.052288573 -0.9397399 0.29577637 0.20384936 0.020718602 0.053554524 0.11430377 -0.34692124 0.104005106 0.18606219 -0.0872282 0.0011198911 -0.09320546 0.48958498 0.18494377 -0.13392764 0.22087954 0.035924777 -0.061802227 -0.62899226 -0.080624126 -0.24193 -0.23319213 0.25041142 -0.07320466 -0.22768374 -0.19472994 -0.46391317 -0.563512 -0.12269655 -0.37779212 -0.02541159 0.3873329 -0.61897916 0.1677682 0.021932086 0.38415316 -0.32560068 0.40430602 -0.076603964 0.38321787 0.25457373 -0.43522632 -0.32969496 0.31537822 0.2767774 0.22061044 -0.2478041 0.4581044 0.43067384 0.26184297 -0.124490544 0.18746445 -0.1853379 -0.8051628 -0.3225499 -0.023252662 0.082586244 -0.1595621 0.4757588 0.16115521 0.75909084 -0.10599732 0.08706915 -0.6600966 0.04111004 -0.39164832 -0.078919634 -0.3956148 0.6972607 0.23130262 -0.040975343 0.39553204 0.019320335 0.013175009 0.10164359 -0.03160317 0.60484445 0.25104696 -0.16909808 -0.3833654 -0.37198108 -0.06148015 -0.2197459 -0.7161718 -0.2805376 -0.09203051 0.28855696 0.1978641 -0.46898466 0.2924071 -0.13820565 0.66807127 0.17312658 0.2004136 0.25953043 0.35600668 0.27275318 -0.007777472
9791186117767 -0.7671483 -0.32072848 -0.79343486 0.08605426 -0.008140959 0.14219916 -0.21042302 0.08303088 -0.47797018 0.023890572 -0.2660295 -0.49680924 0.5325692 -0.098521605 0.41742405 0.06541147 -0.2567858 0.6241908 -0.07412588 -0.10131087 -0.41396978 -0.06635998 -0.24785376 -0.13908215 0.09020027 -0.08013509 0.10982236 0.14403713 -0.51454073 0.030630816 -0.28357098 -0.5642296 0.19176786 0.2527913 -0.8159651 0.26970226 -0.060153343 0.07605723 -0.13214348 0.7115438 -0.5270352 0.19992523 0.059030548 -0.1822462 0.1590154 0.2612067 -0.20740144 0.19733599 -0.15364338 0.23224124 0.30811223 -0.08323332 0.17579894 0.53003824 -0.5694732 -0.45187142 -0.47675565 -0.013687622 -0.11988052 -0.5227436 0.22016637 0.49478582 0.74600744 0.19069375 -0.27495933 -0.6741904 0.21363686 0.2603726 -0.10336417 -0.13990171 0.5669047 -0.22421597 -0.5575326 -0.04107232 -0.51053303 0.25851017 0.12703428 -0.33681002 0.38674653 0.5458572 0.2489822 -0.3162955 -0.40443182 0.12306163 -0.35410497 -0.6266388 -0.42440388 0.4851958 0.1280497 0.09352279 -0.25839928 0.019686097 0.05318368 0.43551236 0.41206488 0.40684462 0.49522254 0.66820633 0.39520293 -0.13947223
