1 100
t -0.0052194227 0.004402945 0.005151305 -0.00074214535 -0.00031080222 -0.008911394 0.003005976 0.012538253 -0.0030449906 -0.0031805795 -0.0038616802 -0.012610256 -0.001143283 0.0013957312 -0.0012803749 -0.004395479 0.0007569732 -0.008215518 -0.00010896496 -0.011024274 0.0012193557 0.001615462 0.002573734 -0.0030493077 -0.0017055952 0.0014200348 -0.004422829 -0.006982068 -0.003016089 0.0013092427 0.008476238 0.0045825737 0.0022212435 0.00016489648 -0.003765322 0.009135432 -0.00022726235 -0.005855744 -0.0029744941 -0.012902074 -0.0015103886 -0.0063282284 -0.00019251139 -0.00023345483 0.003960057 -0.00055009016 -0.0038270187 0.0011296421 0.0045493287 0.001021055 0.0031140759 -0.007011142 -0.0008992041 -0.0005204635 -0.0041993987 0.0022336817 0.0049435 -0.0016529458 -0.010192069 0.0045486884 -0.00083361333 0.003817328 -0.0026994147 -0.00575346 -0.00787843 0.003326779 0.005078349 0.0023796647 -0.006812618 0.007737571 -0.0033539925 0.0030693782 0.005982293 0.00088421075 0.0039111096 0.0050414405 -0.0010153996 -0.005434896 -0.0060351393 0.004722149 -0.0025677439 0.0010067802 -0.0039082994 0.0063731535 -0.00015381342 0.0029643509 -0.00087687373 0.008283201 0.004608915 -0.0025750499 0.007430273 0.0042966907 -0.0014214435 0.0038546666 0.010937547 0.0063493177 0.00051533396 -0.008791456 0.005004298 -0.002481729
