80 100 
9791186742723 -0.0052194227 0.004402945 0.005151305 -0.00074214535 -0.00031080222 -0.008911394 0.003005976 0.012538253 -0.0030449906 -0.0031805795 -0.0038616802 -0.012610256 -0.001143283 0.0013957312 -0.0012803749 -0.004395479 0.0007569732 -0.008215518 -0.00010896496 -0.011024274 0.0012193557 0.001615462 0.002573734 -0.0030493077 -0.0017055952 0.0014200348 -0.004422829 -0.006982068 -0.003016089 0.0013092427 0.008476238 0.0045825737 0.0022212435 0.00016489648 -0.003765322 0.009135432 -0.00022726235 -0.005855744 -0.0029744941 -0.012902074 -0.0015103886 -0.0063282284 -0.00019251139 -0.00023345483 0.003960057 -0.00055009016 -0.0038270187 0.0011296421 0.0045493287 0.001021055 0.0031140759 -0.007011142 -0.0008992041 -0.0005204635 -0.0041993987 0.0022336817 0.0049435 -0.0016529458 -0.010192069 0.0045486884 -0.00083361333 0.003817328 -0.0026994147 -0.00575346 -0.00787843 0.003326779 0.005078349 0.0023796647 -0.006812618 0.007737571 -0.0033539925 0.0030693782 0.005982293 0.00088421075 0.0039111096 0.0050414405 -0.0010153996 -0.005434896 -0.0060351393 0.004722149 -0.0025677439 0.0010067802 -0.0039082994 0.0063731535 -0.00015381342 0.0029643509 -0.00087687373 0.008283201 0.004608915 -0.0025750499 0.007430273 0.0042966907 -0.0014214435 0.0038546666 0.010937547 0.0063493177 0.00051533396 -0.008791456 0.005004298 -0.002481729
9791163030911 -0.004998017 0.0056792996 0.004172199 -0.00090254506 0.00070143695 -0.0127737755 0.005000097 0.01607428 -0.007091938 -0.0054291957 -0.006525075 -0.014815429 -0.0013604538 0.0012328208 4.545978e-05 -0.004209213 0.0024524867 -0.009526616 -0.00055241113 -0.015553373 0.0022218481 0.0046269298 0.004519282 -0.0037888715 -0.0035714144 0.0005795212 -0.006855531 -0.010175857 -0.0053549698 0.00041420927 0.012252132 0.004078022 0.0024473425 -0.0011039347 -0.005746874 0.011302785 -0.0010015056 -0.0062098475 -0.002760962 -0.01842605 -0.00029273494 -0.006161793 -0.0023641798 -0.0017042204 0.0061381646 -0.0014251423 -0.0054317554 0.0012502365 0.0068216855 0.0022286274 0.0035917645 -0.0069175614 -0.000106132764 -0.00042566087 -0.006688416 0.0041247034 0.006546735 -0.0012995043 -0.011021068 0.0056861844 -0.0015661266 0.004753213 -0.0036497116 -0.0046467134 -0.009920772 0.0045478744 0.0060736686 0.0025462592 -0.009620555 0.008971409 -0.00479759 0.0038195266 0.007434881 -0.001084695 0.006246488 0.0056634774 -0.0037582389 -0.0058069048 -0.009232807 0.0075272787 -0.00261786 -0.0002826948 -0.0064884326 0.007895335 -0.00031510385 0.0030833285 -0.0015685825 0.010641793 0.008535366 0.0013599452 0.010768215 0.0036471726 -0.0010942584 0.002379936 0.014363383 0.009079502 0.003344213 -0.010032009 0.0069897743 -0.0022385807
9791162243008 -0.0066434816 0.0067886934 0.0030215255 0.00074670254 0.002784454 -0.015402532 0.0046380768 0.020693172 -0.007189449 -0.004726697 -0.0059117666 -0.017098902 -0.0022944051 0.0011218609 0.00016965602 -0.0065965536 0.0023250815 -0.010729917 -0.0015401319 -0.019722048 0.002967921 0.003739732 0.0024672996 -0.0047997776 -0.0011529105 0.0005532579 -0.006673238 -0.011761674 -0.007689144 0.00041341563 0.011207827 0.0081975935 0.0045902487 -0.0019999887 -0.0065960586 0.012918737 -0.0018397599 -0.0094843125 -0.0038250699 -0.023422051 -5.6258537e-05 -0.008613393 -0.0027729552 -0.0018015886 0.009626836 -0.00304809 -0.005391468 0.00068663317 0.009279239 0.0025483456 0.0045597823 -0.008532575 -0.00046944467 0.00044357745 -0.0064272312 0.0016410423 0.005861128 -0.0027091685 -0.01624216 0.007931168 0.0007839339 0.006155898 -0.004981142 -0.0071039875 -0.012796629 0.0065965797 0.008418803 0.0061228704 -0.012798552 0.010732328 -0.004341706 0.0043292036 0.007999581 -0.0029986002 0.008715098 0.0042567938 -0.0027686083 -0.007207237 -0.008816981 0.0060437247 -0.0024264168 -0.0018707861 -0.008226123 0.012090989 -0.0016435358 0.0026828598 -0.00022765079 0.01666149 0.011203728 0.0015418533 0.014300774 0.005652406 -0.0035712472 0.0060312063 0.018756729 0.009737963 0.0039871465 -0.011904471 0.008471617 -0.0019232829
9791196918033 -0.0040562702 0.0064122747 0.0030085577 3.3108503e-05 0.0008673919 -0.0131372865 0.0061266553 0.015833091 -0.006101274 -0.00664875 -0.005097111 -0.014612046 -0.0017588242 0.00021162629 -0.0010632148 -0.0058206855 0.0016574383 -0.010317569 -0.0032160946 -0.014178737 0.0020152025 0.003167741 0.0033577522 -0.002888705 -0.002559482 7.7383855e-05 -0.00651336 -0.009739149 -0.005236829 0.0006868194 0.010282606 0.003516001 0.0018489385 -0.0008279538 -0.004526787 0.009946228 0.00034377535 -0.008312706 -0.001721761 -0.017813949 0.0006578536 -0.007358279 -0.0024839109 -0.00078458386 0.0077947616 -0.00096571754 -0.003594865 0.0020496284 0.0074683875 0.0031108793 0.003028147 -0.0061450982 -0.00030599325 -0.00013004664 -0.0063353744 0.004395704 0.0038924236 -0.0016893266 -0.010745568 0.0054797307 -0.00049253844 0.005772424 -0.0028341112 -0.0063291555 -0.01149128 0.005970106 0.0061936765 0.004144338 -0.009086609 0.009039536 -0.0013389443 0.005050115 0.0072633075 -0.0012318672 0.006171382 0.0052478146 -0.004003692 -0.005481417 -0.008226507 0.0064542536 -0.002902575 -0.0011958309 -0.0067507573 0.009757302 -0.00079053605 0.0030464847 0.0008152104 0.011651611 0.0088515 -0.00092325563 0.011214509 0.0048348494 -0.0024668816 0.0039287484 0.013561597 0.008796446 0.0035898131 -0.010929201 0.0066432855 -0.0013481387
9791162243664 -0.0064046625 0.0069345217 0.004644778 -0.0017773081 0.002455068 -0.016357873 0.0070528802 0.022044918 -0.006350115 -0.0074896375 -0.006704018 -0.018577032 -0.003434535 0.0016776205 -0.0011126468 -0.0073411907 0.0013733006 -0.011493575 -0.0014760748 -0.02112307 0.0030302177 0.0033198681 0.0035365177 -0.0046293554 -0.0030757957 0.0014470867 -0.008752867 -0.009658775 -0.0071559055 0.0014981183 0.012633464 0.0073019126 0.0036063045 -0.0022075372 -0.007879401 0.012419198 -0.0021698726 -0.010079661 -0.0055887573 -0.022092761 0.0011548053 -0.008513981 -0.0018931741 -0.0014054427 0.009449162 -0.0021564206 -0.00392491 -0.00036555136 0.009506907 0.0042064013 0.0050170715 -0.0084306635 0.00015379916 -0.0015526925 -0.0064055603 0.004686174 0.0068420866 0.00013094662 -0.012937457 0.008240694 -0.0019444054 0.0045792554 -0.003980513 -0.0067219636 -0.014106195 0.00801553 0.008925271 0.005273121 -0.012050389 0.011136761 -0.0025722103 0.0045646485 0.009979384 -0.0002962914 0.008561484 0.0063760285 -0.0027240138 -0.008241839 -0.01121876 0.0077518853 -0.005445687 0.0007146251 -0.009195501 0.012226143 -0.00083188526 0.0037941416 0.0019993628 0.013673963 0.012395843 0.0015365364 0.01452013 0.005329939 -0.0005829576 0.0034938199 0.017618079 0.011167897 0.004776682 -0.013532137 0.008818581 0.00038179185
9788966260959 -0.0076392484 0.0052378443 0.0037631663 -0.0011780671 0.004441778 -0.013116329 0.0041326736 0.016030904 -0.006914303 -0.0047480324 -0.0063573527 -0.015296301 -0.0028179209 0.002539112 0.0022315437 -0.0067069 0.0026743365 -0.012145936 -0.00254989 -0.01712186 0.0023973815 0.0032373078 0.002545517 -0.0035118042 -0.0020542482 0.0010598936 -0.0067183548 -0.009177552 -0.0047624363 0.001590892 0.010113145 0.0065244115 0.002370809 -0.0021176094 -0.0041148816 0.011344573 -0.0002947161 -0.008849132 -0.0029472564 -0.017140307 -0.0015633962 -0.0067774924 -0.0014924348 -0.00029881304 0.008613098 0.0008454511 -0.0041357838 0.0016115843 0.0082658185 0.00019782758 0.004605721 -0.008096428 -0.0012346207 -0.0008876873 -0.006194694 0.0036847973 0.006114996 -0.0014622785 -0.011087488 0.0071221124 0.00018151134 0.0044896426 -0.0033115454 -0.0052769864 -0.012501475 0.0058146124 0.005823671 0.003639416 -0.011032342 0.009633238 -0.0025607299 0.0047329003 0.008449954 -0.0017514165 0.0071824826 0.0033140394 -0.0033446578 -0.005787016 -0.008815934 0.0065856315 -0.006120723 0.0004220233 -0.0068122605 0.008501242 0.00040156077 0.004240084 -0.00035525873 0.012516921 0.012104978 0.0006926729 0.011652841 0.0069338256 0.00018295286 0.005751498 0.014567038 0.007757454 0.0041538393 -0.011496925 0.005628097 -0.0015380586
9791165920111 -0.0034617924 0.0059572565 0.0010012032 -0.0007587081 0.000220332 -0.011416743 0.0049393154 0.014461942 -0.0062896265 -0.0034286964 -0.005255116 -0.014272203 -0.0007529808 0.0024651175 -0.0004903439 -0.004554949 0.0026149617 -0.007205511 -0.0013028833 -0.011635457 0.003137569 0.001631698 0.0018901583 -0.003803857 -0.0015807473 -9.301636e-05 -0.0051354025 -0.009301773 -0.005651131 0.00071610155 0.008949895 0.0052478374 0.0015382563 -0.0016697011 -0.005812032 0.010743646 -0.000112097165 -0.0069261277 -0.0025828504 -0.016158702 -0.00028568483 -0.006699215 -0.0019232992 -0.0019460091 0.0058444906 0.0003536501 -0.0037505887 0.00084204675 0.0057915947 0.00039815597 0.0038516994 -0.005987932 -0.000817045 -0.0010731262 -0.0037658252 0.0016762334 0.0052157673 -0.0029656696 -0.010790903 0.005390111 -0.00013845497 0.004328293 -0.0034307425 -0.004359565 -0.009630896 0.0055615692 0.0056215283 0.0035909803 -0.009098535 0.007345195 -0.0034450362 0.0023596669 0.005731986 -0.0022610766 0.006421732 0.0051365513 -0.00195461 -0.004128746 -0.0049514463 0.005521558 -0.0022892538 -0.0011803334 -0.006578455 0.0078478195 -0.0002608169 0.0022677882 -0.0021697308 0.009222629 0.008497308 0.00091211527 0.010145072 0.00452251 -0.00067008915 0.0050696325 0.011741295 0.007266817 0.003047807 -0.008687775 0.006829654 -0.0009841714
9791162241882 -0.005905044 0.00940569 0.00580842 0.00018904335 0.0038118153 -0.017001588 0.009084987 0.018974664 -0.009277195 -0.007143651 -0.0060135187 -0.018833008 -0.0021876988 0.0018821008 0.00043927142 -0.008020281 0.0011981163 -0.012907465 -0.0026765857 -0.021026086 0.0028745949 0.0051006656 0.004326946 -0.0061024986 -0.002867662 0.00024469226 -0.007817161 -0.013398094 -0.008147921 -0.0008044572 0.014119282 0.005594432 0.0024752636 -0.0022327872 -0.0070359875 0.01442833 -0.0019370735 -0.007936307 -0.00413662 -0.025370369 0.0008153651 -0.0094013 -0.002400051 -0.0005129539 0.0098703 -0.0020507146 -0.005039805 0.0017986051 0.008847306 0.0025163644 0.004941138 -0.0075576715 -9.9452605e-05 -0.0025002244 -0.0065608276 0.0045945733 0.0076667764 -0.0016887898 -0.015787296 0.0087947445 -0.0024709243 0.004754287 -0.0056984914 -0.0079852 -0.014479782 0.005952353 0.008021225 0.006406512 -0.012506498 0.011390119 -0.004977751 0.004020289 0.009775416 -0.00015627885 0.00821361 0.005552152 -0.004938189 -0.007984882 -0.010975993 0.007319613 -0.004585715 -0.0003234439 -0.0096867075 0.0121943895 -0.00093832874 0.0045501483 0.00094127713 0.01328818 0.01386155 0.0021298027 0.012547192 0.00529908 -0.0026898934 0.0050566937 0.018417206 0.013905598 0.0033211228 -0.013836164 0.009195161 -0.0026322806
9791191600360 -0.0043303194 0.008422687 0.004779243 0.0034369961 0.00083937537 -0.011730722 0.004439551 0.017850345 -0.006725759 -0.003870376 -0.0047935834 -0.012943081 -0.00034795533 0.0015192749 -0.0022177557 -0.007194441 0.002633433 -0.009572397 -0.0017330544 -0.014910448 0.0017726137 0.0012574478 0.0014762199 -0.004417218 -0.00088134257 0.00019900172 -0.006945112 -0.008665788 -0.0029757484 0.0013312785 0.0108835045 0.0051748008 0.0032906556 -0.0032636828 -0.0049363705 0.008923301 -0.000590292 -0.008969771 -0.003995762 -0.020246575 -0.00024186356 -0.0072382996 -0.0011138503 -0.0012680908 0.0057754186 -0.0019010019 -0.0038721478 -0.0002727965 0.0061192648 0.0012294091 0.0063985325 -0.005521425 -0.0026292086 -0.00062564627 -0.006852595 0.001736217 0.005489558 -0.00051327504 -0.013338306 0.0042619165 -0.00048407345 0.0062559294 -0.0050966935 -0.004720269 -0.0117872665 0.005094283 0.009869182 0.005697843 -0.011453817 0.009936439 -0.0019045613 0.004566308 0.008494193 -0.0023165182 0.00843202 0.0046405983 -0.002663536 -0.0035009373 -0.007839005 0.008664266 -0.005038636 -0.001388684 -0.005632931 0.008320043 -0.0031058553 0.0026128509 0.0009574524 0.011187249 0.008949228 0.0015054313 0.0134398155 0.0025296283 -0.0016293618 0.0036422985 0.0132352505 0.008478606 0.0029043215 -0.009577221 0.004608456 -0.0016338819
9791160500790 -0.0073551685 0.00871631 0.0037704506 0.00043784484 0.0006225248 -0.017773718 0.007025904 0.021833807 -0.008174981 -0.006010505 -0.007596428 -0.017947659 -0.0031172894 0.0014099447 -0.0008296665 -0.0049852123 0.0015586762 -0.012444868 -0.0011245107 -0.021717662 0.0027413424 0.004377745 0.004113955 -0.0033096194 -0.002668904 0.0014816765 -0.008940422 -0.013092918 -0.007307215 0.001371935 0.013188065 0.0074909055 0.006783375 -0.0021813177 -0.007542555 0.014070373 -0.00073850347 -0.011373518 -0.0051280092 -0.02414779 0.00025240195 -0.009590171 -0.0031933659 -0.0012045318 0.009932986 -0.0030449862 -0.0061460324 0.00043124138 0.009469869 0.0021193053 0.0051843366 -0.008000483 -0.0019255605 0.001300642 -0.0075196642 0.0038597162 0.0061902 -0.0042730537 -0.017541539 0.0070415284 0.00014973349 0.0065670186 -0.004578851 -0.008428914 -0.012419919 0.007678753 0.008864154 0.00581131 -0.013905204 0.01250311 -0.0053278175 0.006242059 0.008196067 -0.003201091 0.011079789 0.007118985 -0.003966503 -0.005377107 -0.010644923 0.0071847895 -0.004285673 -0.0016389722 -0.008363476 0.012647909 -0.0023086625 0.0043919873 0.0013862436 0.01637994 0.011933599 -0.00033670175 0.013786609 0.0069532013 -0.003130218 0.005919305 0.019833576 0.009267449 0.006223309 -0.01325013 0.008898088 -0.0014226899
9788966262472 -0.0066711325 0.006463579 0.002466828 -0.0008128126 0.0022871774 -0.013375901 0.004162675 0.01771843 -0.007393231 -0.004396195 -0.0052756798 -0.013168221 -0.0035754035 0.0011172978 -0.00023321516 -0.005910497 0.0027422989 -0.011898367 -0.0026903837 -0.017331345 0.0009988755 0.0038640033 0.0032999788 -0.0032977075 -0.0025513198 0.0002246105 -0.008420825 -0.010001069 -0.0057645603 0.0016868697 0.010348303 0.00513844 0.0033709677 -0.0036028416 -0.005006956 0.01288851 -0.00034544952 -0.008395769 -0.003546939 -0.019518297 -4.261454e-05 -0.0066534914 -0.00094955903 -0.00081615924 0.008910549 -0.0005097861 -0.0056256326 0.0021696535 0.0068191215 0.0022755268 0.0033096701 -0.0073361355 -0.00023277791 0.0009842034 -0.005747378 0.0034978294 0.0036105455 -0.0024413627 -0.013658501 0.0059377267 -0.00012794213 0.0038652841 -0.0024539074 -0.007350695 -0.011515765 0.0063011386 0.008766055 0.004351278 -0.010460025 0.009283805 -0.0018667588 0.0066010836 0.008505766 -0.0020811793 0.0075419783 0.005540745 -0.0032443057 -0.004231603 -0.0073863864 0.004412863 -0.0042342385 0.0015306813 -0.006495814 0.010011904 0.00074325217 0.0023074406 0.001364668 0.01224439 0.009860932 0.0017312164 0.012513916 0.005944921 -0.002012035 0.0050400305 0.014425926 0.007684904 0.0038006236 -0.012350892 0.006622077 -0.00012537319
9791163032212 -0.0076897913 0.008569258 0.00295421 0.00021838983 0.0036093518 -0.014375245 0.0060246983 0.020607118 -0.006121242 -0.0067236465 -0.0047150976 -0.01607111 -0.0034974336 0.0014572217 -0.00069238286 -0.006545198 0.0030676 -0.01018487 -0.0014021926 -0.019383755 0.0018295995 0.0031270892 0.0025653532 -0.004474538 -0.0015821686 0.00087863003 -0.008063596 -0.010433266 -0.007117382 0.00023187202 0.010446203 0.0066160285 0.0025109083 -0.00219021 -0.006418288 0.013200373 0.00091234833 -0.009715232 -0.0035904413 -0.021325435 0.00039741604 -0.008937383 -0.00081257155 -0.001037279 0.00961673 -0.0007441307 -0.003218887 0.0017648942 0.009856402 0.0032356794 0.0029896703 -0.00682576 -0.0012933552 0.0014317954 -0.0056002354 0.002729118 0.005832697 -0.002239393 -0.014673974 0.0056337113 0.00026755172 0.0063591483 -0.004657189 -0.007305174 -0.013178435 0.007934718 0.0070887203 0.005632786 -0.0112434095 0.011823014 -0.0038792128 0.004573119 0.009657313 -0.0018430357 0.008800837 0.005817082 -0.004209997 -0.006629425 -0.009265128 0.0052486896 -0.0028291305 0.0008837261 -0.009225035 0.010327449 -0.00026300337 0.003876937 -3.2865388e-05 0.012895713 0.011303724 0.0007611263 0.013998621 0.003588741 -0.002716916 0.005615882 0.016516786 0.009976072 0.0036542248 -0.013090576 0.007494355 -0.0022026815
9791186742662 -0.0062911417 0.0055033965 0.0058444687 -0.000132145 0.0018131216 -0.010773551 0.0043687434 0.015437785 -0.005662291 -0.003466751 -0.004099402 -0.013901931 -0.002488664 0.001563133 -0.0018221628 -0.005037884 0.0013590211 -0.0076258313 -0.0025957886 -0.012028524 0.000776512 0.0025631867 0.002968649 -0.003635414 -0.0016308283 0.0021746869 -0.004943413 -0.006942519 -0.0038697757 0.0010508131 0.010561585 0.0037915073 0.0042844363 -0.0007502892 -0.0054672537 0.008817411 0.00072785903 -0.006508284 -0.0039502345 -0.01588954 -0.00094001263 -0.0047358633 -0.0010661581 -0.0019223208 0.0070249774 -5.340163e-05 -0.003226461 0.0014485453 0.007378224 0.0021356903 0.002780672 -0.0067687226 -0.0015435208 -0.00037045986 -0.003408015 0.0016657308 0.0067807753 -0.0022956654 -0.009870716 0.0052807336 -0.0021319056 0.003381372 -0.0034960553 -0.005340488 -0.009849455 0.0046507367 0.00760351 0.0037459058 -0.008161892 0.010246474 -0.0018993521 0.0031563577 0.006822466 0.0006862771 0.005372825 0.0047699297 -0.0009273769 -0.005850483 -0.007881936 0.004986416 -0.0030607558 0.00088226236 -0.005141626 0.008079667 6.7781046e-05 0.0035806017 -0.0018120189 0.010305981 0.0075448668 -0.0012009692 0.009430992 0.004574501 -0.0013483869 0.0036056198 0.0135438675 0.007221947 0.0031839914 -0.009409769 0.006539861 -0.001170148
9791162244852 -0.0053302334 0.0066210246 0.0030685202 -0.0009774037 0.0014215703 -0.013145252 0.005533469 0.014457091 -0.0064760405 -0.004265885 -0.0048319595 -0.016189769 -0.002219981 0.005068698 -0.000836721 -0.006055443 0.002289843 -0.008048826 -0.004092111 -0.014238108 0.0017265521 0.0013056136 0.0027226526 -0.005232801 -0.0052909725 0.002801854 -0.00580275 -0.0077058948 -0.004512029 0.0013124498 0.011572671 0.0061436747 0.0023084385 -0.0023195026 -0.005842839 0.010052574 -0.00051316654 -0.0068611675 -0.0038272715 -0.017969469 -0.0013441062 -0.0093808705 -0.002559394 -0.00056307635 0.006733302 0.0010700104 -0.002484959 -0.0012466236 0.007406694 0.0012582251 0.0059927558 -0.0046738675 0.0009880833 0.00037661905 -0.009158402 0.004486865 0.003361905 -0.0023854522 -0.014278488 0.0061233565 0.0011290177 0.0041514877 -0.0036726 -0.006579728 -0.012035574 0.0068308176 0.0068962094 0.0050822 -0.008070791 0.008801173 -0.0024861495 0.004532067 0.009024006 0.00029707604 0.010215042 0.007616123 -0.003479089 -0.0057947617 -0.008456008 0.005096757 -0.0028525263 0.0001302072 -0.007253846 0.009200556 0.00084252196 0.0021133097 0.000455254 0.011074522 0.010802296 -0.0019661246 0.009646381 0.0043818406 -2.08918e-05 0.0037462672 0.013594433 0.007058715 0.0028649876 -0.011604692 0.00714866 -0.0026753375
9791165212698 -0.0047074156 0.0054104826 0.0037915797 -0.001463583 -0.0010355501 -0.011456806 0.0045890585 0.014803749 -0.004819682 -0.0027022678 -0.004247665 -0.011001526 -0.0017883244 0.0011412505 -0.0006377602 -0.004631866 0.004532149 -0.0077456785 -0.00027613842 -0.01582966 0.001422386 0.0026498842 -0.00066147017 -0.0028532785 -0.0017987243 0.0019175814 -0.009418582 -0.009728365 -0.003339675 0.0029820548 0.008033841 0.004691113 0.004337421 -0.0004218013 -0.00607777 0.0103630675 0.00029445667 -0.0076433555 -0.004502268 -0.01818746 0.0006407419 -0.007174812 -0.0005111126 -0.0018088652 0.0056926846 -0.001839245 -0.004922173 0.0003263882 0.009428297 0.002018582 0.0041221743 -0.006299621 -0.0027170328 0.0011695022 -0.002475908 0.0058039324 0.0060509583 -0.0031739764 -0.012552671 0.0063460353 0.002013397 0.0041755815 -0.0045656115 -0.0033583108 -0.008919339 0.005432719 0.0050285705 0.0027970502 -0.008786604 0.009275988 -0.0016014165 0.0028823775 0.0043503805 -0.0033374038 0.0051496224 0.0043797162 -0.004177163 -0.0052461927 -0.0082485825 0.0058148876 -0.0019376507 0.0012328454 -0.006781864 0.009852612 -0.0020868622 0.0024087196 -0.0007070505 0.0139061725 0.010648207 0.00047425815 0.00936909 0.0018568899 0.00031676135 0.0059383716 0.012917562 0.008184696 0.0014902849 -0.007314252 0.0048129307 -0.002134793
9791162244845 -0.0054418356 0.008317094 0.0034235425 0.00088078604 0.0017747649 -0.013974099 0.005558749 0.01808544 -0.006831466 -0.0050752675 -0.006495355 -0.016481174 -0.00254796 0.0029241096 0.00041183547 -0.008239452 0.0023733478 -0.010813696 -0.0037903117 -0.017569203 0.0029463684 0.0023896508 0.0024824927 -0.0031551805 -0.0022997279 0.0026624792 -0.009108169 -0.012099674 -0.0057113906 0.00319654 0.012993439 0.0056739794 0.0042899745 -0.0015069981 -0.0066448417 0.011846326 -0.000788557 -0.010178202 -0.004300435 -0.022128416 -0.00080807187 -0.008904771 -0.002348877 -0.00019724696 0.007761066 -0.0011024718 -0.0039792405 -0.0009813113 0.0069549927 0.0038161268 0.005017818 -0.010114312 -0.0014171259 -0.0013346836 -0.0068813777 0.0030534877 0.005407187 -0.0016048647 -0.01454963 0.005517 0.00022683704 0.00596938 -0.0037411468 -0.0067665055 -0.012940733 0.0069320737 0.0087825125 0.005486099 -0.012781217 0.011809312 -0.004000698 0.0032115541 0.009016367 -0.001666897 0.008481323 0.006507265 -0.00270281 -0.004655781 -0.009330533 0.0073236693 -0.003257946 -0.0012428688 -0.00852663 0.011919685 -0.0014274864 0.003027524 0.0012465564 0.011551598 0.01181084 -0.0002764155 0.012800557 0.0057795085 -0.0027056984 0.003214689 0.015839608 0.007710566 0.0040280507 -0.012195309 0.009255106 -0.0010562438
9791165215620 -0.005214756 0.0076407255 0.0040582744 -0.0019125364 0.0032270665 -0.01559364 0.004774203 0.019966217 -0.005327982 -0.0052286778 -0.0035229588 -0.016174791 -0.0019430548 0.0031095177 -0.0001633708 -0.005017914 0.0020314078 -0.00881203 -0.003561746 -0.017498553 0.00029642245 0.0031131569 -0.0005578131 -0.005123073 -0.0014450253 0.0033002177 -0.0057151574 -0.010909272 -0.0046931845 0.002015189 0.011255976 0.0034040702 0.0047823912 -0.0014733529 -0.006017571 0.013584657 -0.00056183 -0.008297188 -0.0015364867 -0.020321837 0.00022183586 -0.010703752 -0.0033098848 -0.0032760394 0.009163194 -0.0037128092 -0.003479712 -0.0001480019 0.008037441 0.0020437194 0.0042819865 -0.007411244 -0.0011891455 -0.00025985087 -0.0052732984 0.004370156 0.004827992 -0.0008544173 -0.012726917 0.0065863747 -0.0009831133 0.003679067 -0.0056674336 -0.00573316 -0.010603736 0.008675788 0.00730733 0.0024791246 -0.010597702 0.012894429 -0.004332993 0.0021906202 0.007388941 -0.0021459716 0.0063873995 0.0063004037 -0.0029462457 -0.0059634484 -0.0072249714 0.0077389297 -0.0027745725 -0.0014895399 -0.007057562 0.0085662715 -0.0022070904 0.004717602 -0.0012900461 0.013529942 0.010308067 0.00044327983 0.0108919395 0.004524895 -0.0020206892 0.004701181 0.015888665 0.008762803 0.0053917426 -0.011417833 0.0064780065 -0.0015918681
9791189909345 -0.0067373808 0.0055208355 0.0046558497 0.0007154445 0.001269104 -0.012527236 0.0061084135 0.017131232 -0.005470824 -0.006339506 -0.005266617 -0.01304618 -0.0019493202 0.0017180435 0.0008103324 -0.00463138 0.0039860024 -0.008800825 -0.0024475178 -0.014614355 0.0029586721 0.0009554122 0.0013537698 -0.0040866453 -0.0010960806 0.0027302362 -0.008943467 -0.007579871 -0.0046658856 0.0027790791 0.010973158 0.0064137327 0.004595374 0.00033892822 -0.006071936 0.0087703215 -0.0025141742 -0.0067274547 -0.0029226341 -0.018203441 -0.0006642413 -0.0076458664 -0.0022164606 -0.0017648229 0.0065710754 -0.00023570364 -0.002266654 -0.00061881484 0.007910526 0.002040354 0.0036218956 -0.0066403565 0.00083143776 -0.0006869707 -0.0066031325 0.0040242965 0.0048865746 -0.0010412898 -0.012924596 0.00722956 -0.0004802725 0.003214831 -0.001140768 -0.0041533755 -0.009898023 0.0032517295 0.008238104 0.0045403163 -0.009427783 0.0085748155 -0.0032380375 0.00090219546 0.008442885 -0.0011794007 0.0044107274 0.0059508416 -0.0021268395 -0.0058247824 -0.006827001 0.006341842 -0.0025004826 0.0012986809 -0.004483301 0.0063687107 -0.00082616473 0.0011790078 -0.00019185893 0.010736862 0.009641632 -0.001598921 0.010973098 0.0039809053 -0.001364331 0.0028283305 0.013876937 0.009882634 0.004229508 -0.011191715 0.0065144612 -0.0015632483
9791185455174 -0.006425387 0.005969864 0.001278727 0.001425518 2.8127864e-05 -0.013591979 0.0039821635 0.017830845 -0.007065214 -0.006676375 -0.006631636 -0.016271368 0.00014457766 0.002068974 -0.0016302706 -0.0060936958 0.0018938946 -0.0078058196 -0.00029828874 -0.013368158 0.003311838 0.0013292967 0.0016279253 -0.006210344 -0.002139961 0.0007548516 -0.0070254407 -0.012477538 -0.0062697753 0.0011453324 0.011306653 0.005298497 0.002195013 -0.0019046691 -0.005849454 0.011601435 -0.0017824038 -0.0066334326 -0.0012647043 -0.019353477 1.7170745e-05 -0.0071974257 -0.002914594 0.0010140258 0.0055648736 -0.00096673315 -0.0041308757 0.0014164635 0.0074346354 -0.00036261007 0.005181138 -0.008275924 0.000631984 -0.00028787996 -0.005200458 0.0034858345 0.0057390896 -0.0018795519 -0.013030863 0.0066516553 -0.001012085 0.0060515366 -0.004666279 -0.0043238783 -0.011055293 0.006234763 0.005824075 0.0036281184 -0.010116088 0.008541671 -0.00570786 0.0008195056 0.0077555072 -0.0033774562 0.007327311 0.006692871 -0.0019633947 -0.004850753 -0.0069392975 0.0049732337 -0.0029323585 -0.00014876119 -0.0074418085 0.009908771 -0.0010915337 0.00034737453 -0.0014865708 0.012289361 0.010394613 0.0010710923 0.011718852 0.0064497627 -0.0029878966 0.0048092357 0.014057426 0.0077732285 0.0026864107 -0.011944415 0.00762633 -0.0012172651
9791158392239 -0.0050341357 0.006604606 0.0036398433 0.0015902312 0.0040787207 -0.015746642 0.0047648633 0.017621156 -0.0086673945 -0.0058125965 -0.005679232 -0.015759533 -0.00462207 0.0006107064 -0.00044549344 -0.006000876 0.0030307134 -0.00858306 -0.0014018037 -0.017928688 0.0020096635 0.0030005078 0.0033334277 -0.0050945184 -0.0019974955 0.0012986462 -0.007827267 -0.007949786 -0.0055971546 -0.0008773027 0.009496698 0.0070685213 0.0040860134 -0.0015038996 -0.0039136596 0.0113071995 0.0008824215 -0.0070187575 -0.0028624581 -0.019462164 -0.00046779448 -0.006702074 0.00048022065 -0.0004886659 0.010111449 0.0002816611 -0.005510797 0.002875468 0.0063023097 0.00521718 0.001825318 -0.007910099 -0.0025442718 0.0022504677 -0.00578906 0.00274809 0.005231144 -0.002339042 -0.012679403 0.007446833 -0.0015125026 0.006246151 -0.004411039 -0.0072675482 -0.013091694 0.006654998 0.0055654156 0.007265502 -0.010803687 0.010458344 -0.002059478 0.0053120083 0.009099056 -0.0035498135 0.008438809 0.004804164 -0.0035320823 -0.005182019 -0.011186412 0.0046058884 -0.003599766 0.0012666587 -0.008009825 0.01247819 -0.00084995275 0.0050548846 -0.0012388511 0.014107997 0.007587147 0.0019087533 0.011880807 0.0031636152 -0.0030993077 0.0075879367 0.016542172 0.0072132773 0.0036688116 -0.011656367 0.0055214493 -0.000598916
9791189909284 -0.006336019 0.005902594 0.0030237397 0.000528641 0.0033969807 -0.012694206 0.0038460381 0.01792504 -0.008140824 -0.0036541102 -0.004953991 -0.014782388 -0.00287201 0.0011407441 -0.0016942979 -0.006116468 0.003390124 -0.01106789 -0.0014712367 -0.015534204 0.0010831588 0.0028354207 0.002528446 -0.0037331972 -0.0029072713 0.00021389632 -0.006564848 -0.010041759 -0.0055473275 0.00028423403 0.0123407245 0.005297852 0.0014978101 -0.0021432836 -0.004012118 0.00985601 -0.0013950947 -0.009479221 -0.002816149 -0.019912908 -0.0015919606 -0.0068646725 -0.0016527195 0.00046281004 0.007746335 0.0006712181 -0.004607144 0.0021694263 0.008002375 0.0025982915 0.0034227658 -0.0074340384 0.00034504617 0.00040371428 -0.004789961 0.0037646724 0.004951298 -0.0021745434 -0.012742277 0.006370448 -0.0021661057 0.00399772 -0.0046577617 -0.0055275485 -0.011483052 0.0057046483 0.0060885544 0.0048065553 -0.008953729 0.008500014 -0.0025060836 0.0053281267 0.008679145 -0.0016778326 0.006732589 0.0040356084 -0.003395558 -0.0045538233 -0.008677803 0.006331231 -0.003346184 0.00039451756 -0.0073164757 0.010842235 -0.00015179308 0.003108083 0.00045275316 0.012240543 0.009574837 0.00060182885 0.010066359 0.004731205 -0.00087658217 0.004774813 0.015200515 0.009238167 0.0034693433 -0.011085812 0.0069625718 -0.0004782884
9791190665629 -0.006038793 0.008159687 0.0043159584 -0.0005446841 0.0016597105 -0.013971188 0.0055807317 0.019925294 -0.0072984844 -0.0048667067 -0.006202267 -0.014396107 -0.0022218379 0.0020203406 -0.0011469248 -0.006524641 0.00010698177 -0.009915802 -0.0024173183 -0.016774198 0.0032330458 0.0028489134 0.0018519186 -0.0042283833 -0.0027408844 0.0011018915 -0.0050625196 -0.010595457 -0.006752707 -0.0004411692 0.011201576 0.008250496 0.003925145 -0.001320116 -0.0055814497 0.012338718 -0.0019574591 -0.008867885 -0.004297988 -0.020380117 -7.181506e-05 -0.0062706647 -0.0033060382 -0.0025299315 0.0077767614 -0.0022372962 -0.0050259265 0.0012236659 0.00951825 0.0017641584 0.004727014 -0.007748294 -0.00025164988 -0.0014069605 -0.006993925 0.0025311445 0.0046934336 -0.0024209502 -0.013266537 0.004494404 0.0012548423 0.006768277 -0.004316669 -0.007013448 -0.010903311 0.0061804615 0.0065793875 0.005510604 -0.01156726 0.010495941 -0.0044955118 0.0040650084 0.0075478298 -0.0013876692 0.009163857 0.004536642 -0.0025055716 -0.005736205 -0.009767018 0.0062620267 -0.0023014732 5.1912924e-05 -0.008483041 0.01108435 -0.0021902458 0.0031745855 -1.1157063e-05 0.012139974 0.009356083 5.9760496e-05 0.011945413 0.0046216305 -0.001424769 0.004993022 0.017067574 0.008158483 0.0028930043 -0.012274744 0.0072185 -0.0003765373
9791162243077 -0.005944038 0.00870511 0.004434912 0.0011400133 0.0004502689 -0.013795957 0.0054654065 0.01841824 -0.006905589 -0.0050810566 -0.0071923197 -0.01654406 -0.0013713207 0.0027765732 0.00093272683 -0.0045721857 0.0019338247 -0.0127869425 -0.0025686722 -0.018220441 0.0035221905 0.0043343306 0.0047726184 -0.0048201703 -0.0040376177 0.0013176218 -0.009843968 -0.008863917 -0.0039870595 0.00070348673 0.012021972 0.005342159 0.0045770234 -0.0029522795 -0.007854651 0.011563903 0.0012320224 -0.008535485 -0.0058987606 -0.021305514 -0.0009193198 -0.007348198 -0.00055361976 -0.0017254755 0.008128947 -0.002127338 -0.0039289626 0.0013226133 0.006827395 0.0019856072 0.0043382654 -0.008471971 -0.0017346125 -0.00032709696 -0.00462476 0.0048070857 0.006302279 -0.0015235706 -0.012211727 0.005357516 1.0128312e-05 0.0042689918 -0.0048320126 -0.0040644547 -0.012113858 0.006916983 0.007248511 0.0044192276 -0.01162232 0.011764247 -0.0070745507 0.004812887 0.007883557 -0.0014229877 0.0071283723 0.003828218 -0.0030498744 -0.006183683 -0.010468468 0.006768466 -0.0018388167 -0.0013091224 -0.007698144 0.0110500315 -0.0018161499 0.0026146052 -0.0019070611 0.013772263 0.010007009 -0.00039478464 0.012403488 0.005263556 -0.003805983 0.005462587 0.017931806 0.00995952 0.0034054357 -0.011885189 0.0072737965 -0.0015290288
9791162243848 -0.005483986 0.00636868 0.005113909 0.00045488172 0.0005290673 -0.015029766 0.0059333825 0.020698154 -0.0065339045 -0.005254888 -0.0043483195 -0.017744062 -0.002508084 0.0021469211 -0.0013933056 -0.006043331 0.0014403615 -0.0128843775 -0.004060032 -0.020085445 0.00418337 0.004208542 0.0038142037 -0.0044833748 -0.0023688725 0.0009609341 -0.006972323 -0.009817332 -0.0069139707 0.0014759054 0.012374973 0.006747625 0.00355037 -0.0013049095 -0.007057034 0.012050336 4.3786968e-05 -0.010285557 -0.004596597 -0.021846456 0.00032264303 -0.008265203 -0.0019147017 -0.002719096 0.0093485415 -0.0023631256 -0.0055979653 0.0020377433 0.009743451 0.003915487 0.0036762466 -0.006538588 -0.00097491185 0.0008686616 -0.006851057 0.0017373125 0.004062633 -0.0045933146 -0.015181012 0.0067664105 0.00063237053 0.005738014 -0.004300086 -0.0066084005 -0.01283389 0.0077231615 0.005752478 0.0066896067 -0.01017912 0.010131847 -0.002179735 0.0053249486 0.007909026 -0.003678014 0.009888247 0.0061929864 -0.0031580848 -0.0051795472 -0.008353495 0.0055597564 -0.0020954164 -0.0008393777 -0.0083163455 0.01153927 -0.001631503 0.0045743114 0.0006175023 0.014538637 0.009688811 0.00037906255 0.012466302 0.0050956546 -0.0021550525 0.0046770205 0.018514626 0.010851716 0.0031425715 -0.014027231 0.0070484127 -0.0017059769
9788996094050 -0.005136796 0.0074663 0.0050748545 -0.00065005565 0.0020179409 -0.0151351355 0.0062395595 0.018382385 -0.0066058617 -0.006199195 -0.0053519076 -0.016983531 -0.0035376914 0.0011755425 -0.0016779337 -0.00564871 0.0030658003 -0.010405861 -0.0020659303 -0.015130246 0.0025209538 0.0045203683 0.0034919595 -0.0036850804 -0.002755261 0.0033404373 -0.006096911 -0.009125676 -0.0052888906 0.0009177392 0.011415945 0.004129999 0.0038031107 -0.002019725 -0.006392718 0.009607161 0.0007363842 -0.008481322 -0.0038572613 -0.021138893 -0.0030628783 -0.008652142 -0.0012225757 -0.001559173 0.0066824188 0.00038825127 -0.003054172 5.0486793e-05 0.0082909325 0.0017737962 0.0028837002 -0.007133432 -0.001531082 -0.0022785794 -0.0074719735 0.0040425155 0.005077452 -0.0006133318 -0.013234385 0.005193341 -0.0012522729 0.0062360275 -0.00437224 -0.0061975974 -0.012186422 0.0061783143 0.0065872376 0.0046149353 -0.010312132 0.009596313 -0.005004708 0.00432171 0.008235772 -0.0015209465 0.008325039 0.0066468935 -0.0052958587 -0.004459877 -0.008820154 0.0071707685 -0.003618965 7.605113e-05 -0.0075719003 0.0076187504 0.00094111235 0.002541503 -0.0001280655 0.012948799 0.0119846435 -0.0005591914 0.010534742 0.0057429397 -0.0032818515 0.0046175434 0.015031661 0.008338872 0.0032461833 -0.009463026 0.0050291084 -0.0017069984
9791163032595 -0.006084627 0.006627606 0.00419554 0.00042817646 -0.00010237397 -0.016033614 0.0044107805 0.0183282 -0.0062032365 -0.007517521 -0.0050512594 -0.015729072 -0.00084201165 0.0037840863 -0.00045823533 -0.0067051523 0.0025256355 -0.009893283 -0.0005894666 -0.015770849 0.0019380403 0.002438037 0.0031098975 -0.0058438536 -0.00082823454 0.0020833963 -0.008195643 -0.011176988 -0.006139761 0.0036080654 0.01132848 0.006060228 0.003010547 -0.0022645704 -0.007716458 0.012521462 -0.00013725436 -0.009839766 -0.0027092008 -0.020387575 7.664339e-05 -0.009892488 -0.0013218769 2.2330783e-05 0.008672948 -0.00020368095 -0.004954172 0.00030900902 0.008323035 8.777178e-05 0.0054190867 -0.0061606066 -0.00029849706 -0.0004830375 -0.006665421 0.003091637 0.0040421546 -0.0021366852 -0.014316312 0.007219332 -1.1912513e-05 0.004928566 -0.0045096953 -0.0054380754 -0.008966558 0.006447813 0.007658422 0.0042546005 -0.010027649 0.010880742 -0.005553184 0.0028457465 0.007890991 -0.0027474232 0.00977304 0.005836867 -0.0040511037 -0.006906302 -0.0065428703 0.0069448003 -0.0011883907 -0.0007699879 -0.006435358 0.008737618 -0.00010443115 0.0035470258 -0.0013804189 0.011217613 0.012409156 0.0018878398 0.0121778585 0.005450854 -0.0039020046 0.003434307 0.015027319 0.007056656 0.0030054646 -0.013163518 0.008354287 -0.0020407515
9788994492032 -0.006619301 0.006096366 0.0035145897 -0.00015090701 0.002956978 -0.01419987 0.0056166584 0.019115718 -0.00724369 -0.0059528016 -0.0057630306 -0.01668396 -0.0036197254 0.0017244082 0.0006969234 -0.005370999 0.003266692 -0.01001704 -0.00075129094 -0.016987199 0.003945311 0.00455917 0.0018213746 -0.006741587 -0.0041999286 0.00061177457 -0.00846457 -0.009112746 -0.0043592798 0.00039251958 0.010145697 0.003338323 0.0021078791 -0.0007219348 -0.006242743 0.011074514 0.002147287 -0.0072269053 -0.004225204 -0.019078674 0.0015894418 -0.009325386 -0.0018951261 0.0010511104 0.0066234884 -0.0007971494 -0.003438331 -0.00039976952 0.008029873 0.0021684975 0.004999561 -0.0062684403 -0.0007003835 -0.0010871567 -0.00598727 0.0028012265 0.006965175 -0.00041817978 -0.013945092 0.0069345185 -0.0009187324 0.005766786 -0.0038861101 -0.0085437745 -0.010746472 0.0060085533 0.0076134917 0.0038922783 -0.01048465 0.009614058 -0.00420388 0.0040462352 0.0100753885 -0.0017156705 0.00794405 0.004072985 -0.0036032868 -0.0043816785 -0.008208335 0.005102843 -0.0051615774 -0.0010915197 -0.006691226 0.008021722 0.00015169327 0.0032058712 -0.000692608 0.011019289 0.012259398 -0.0012211505 0.01280173 0.0036569075 -0.00020180161 0.0037459398 0.016227137 0.008359952 0.003724557 -0.011543886 0.0065322225 -0.0011877761
9791188621811 -0.0041412604 0.0073836786 0.0027123082 -0.00010697482 0.0017144782 -0.014829753 0.0071738656 0.020340975 -0.0052896375 -0.0059933835 -0.0065723257 -0.014544307 -0.004177991 0.0013015135 0.0006284645 -0.007206357 0.002095319 -0.010629332 -0.0028943662 -0.014440924 0.003920572 0.0028470703 0.0032431101 -0.0050911796 -0.0036918805 0.0005831683 -0.008972201 -0.010845348 -0.005119532 0.003550859 0.01064954 0.0043190103 0.0012108299 -0.0013796847 -0.005383222 0.012299091 -0.00067772204 -0.0099446345 -0.0035427283 -0.019594856 -0.0019234499 -0.0064806836 0.00041457987 -0.0015899796 0.009485771 0.00079531886 -0.0047848993 -0.0007623582 0.00902883 0.0017933372 0.006377067 -0.0069828993 -0.0003265241 -0.002999782 -0.005674317 0.0021353331 0.008173643 -0.0022742385 -0.01438948 0.007888388 -0.00012360589 0.0056510624 -0.003841235 -0.0071541844 -0.01065321 0.00525216 0.005146885 0.005011972 -0.011855484 0.0075092847 -0.005041837 0.0028721911 0.007583239 -0.0015148539 0.0055690994 0.004494548 -0.0033931453 -0.003359864 -0.010017107 0.006849662 -0.002201365 0.00012699676 -0.005403701 0.009593886 -0.00072082266 0.0047261147 -0.00049484475 0.01364228 0.009009241 0.0006295076 0.013927723 0.0057018027 -0.00387992 0.0031702293 0.016220354 0.009797861 0.0021164843 -0.01176024 0.0060494025 -0.001660216
9791191600407 -0.004475305 0.0054272166 0.00054506696 -0.0010458925 0.00084556703 -0.011390221 0.006233876 0.018194852 -0.0039881514 -0.005774387 -0.0046328716 -0.012964416 -0.004128707 0.0009777219 0.001442527 -0.0063739787 0.0011993162 -0.010326322 -0.0016658189 -0.012444125 0.0026526845 0.0013531575 0.0027451243 -0.0049411636 -0.0033808923 0.0012816606 -0.00827438 -0.0109576285 -0.0030881297 0.0012389856 0.008737027 0.0041052294 0.0024266827 -0.0021804606 -0.0049179187 0.00997742 0.000119824006 -0.00819765 -0.0037032699 -0.0161844 -0.002324794 -0.0054511814 -0.0004635996 -0.0010345444 0.008304871 0.0012670835 -0.0041362746 0.0012380178 0.006339693 0.0019225016 0.0049921013 -0.005744488 -0.0010563186 -0.0019017531 -0.006661771 0.0017090923 0.0065233517 -0.0013783755 -0.011125539 0.007110291 -0.00088159967 0.0024959282 -0.003298572 -0.0063575567 -0.008233186 0.0044610063 0.00501677 0.004919511 -0.009917487 0.006346735 -0.0051396186 0.0022655108 0.0062731435 -0.0014639058 0.005130762 0.003972498 -0.003086506 -0.0037744457 -0.0076631387 0.0064360467 -0.0026805198 0.0009584375 -0.0052859876 0.007965258 -0.00035345412 0.0030152728 0.00020454032 0.011309636 0.00681817 0.00074113545 0.012081533 0.00464252 -0.0036952037 0.0027459115 0.014512116 0.007633868 0.0019124923 -0.008536053 0.005317127 -0.0024690852
9791162244869 -0.008200837 0.0076517332 0.0020235572 -0.00041945564 0.0016759783 -0.014490544 0.0049903975 0.019302087 -0.0076775593 -0.0048781303 -0.0061429054 -0.014466976 -0.0011196167 0.0005256024 -0.00018616302 -0.0042946353 0.0019593642 -0.011473258 -0.003621657 -0.018917767 -0.00018795907 0.0036431393 0.0016922118 -0.004923167 -0.001596841 0.0013953019 -0.008261763 -0.008243882 -0.0067196777 0.0025371392 0.0109474715 0.0058406936 0.0012517929 -0.0032525237 -0.0057499423 0.011441217 -0.001131871 -0.007815877 -0.0024713115 -0.020211205 -0.0014969214 -0.008311616 -0.00091213733 -0.00112769 0.010254882 0.0001495452 -0.0048656464 0.0016861435 0.005694469 0.0018523221 0.0038627596 -0.0070574232 -0.0006966412 -0.0012509223 -0.007124413 0.002738477 0.004929563 -0.0004186887 -0.015664455 0.0068023796 -0.0013619716 0.003965064 -0.0034335514 -0.0064785434 -0.010136244 0.00818553 0.010794192 0.00695494 -0.010540437 0.009423322 -0.0032871186 0.0041030236 0.008288087 7.1399525e-05 0.007089743 0.0069485754 -0.004954708 -0.0043623764 -0.005615703 0.0054160757 -0.0038923419 0.0013701305 -0.0075598457 0.011137404 0.00066549337 0.0005822663 0.0014583637 0.013156122 0.010601082 0.00045026906 0.0125984885 0.0055870377 -0.0016503242 0.00368726 0.014969219 0.00952699 0.0053062416 -0.012741929 0.00793788 -0.00047444782
9791165216146 -0.0064961226 0.0068995524 0.0031090633 0.00068925746 0.0015763713 -0.014849674 0.0048689554 0.019438276 -0.006891873 -0.0044634375 -0.0063853804 -0.017658863 -0.0025010933 0.0016008923 -0.001256289 -0.0061790985 0.0022425847 -0.010942315 -0.001223905 -0.017727543 0.0031969384 0.0028099243 0.0038744565 -0.0049115615 -0.0019417827 0.0008358574 -0.006717594 -0.010660164 -0.0069939042 0.00119722 0.011220803 0.007234031 0.004976503 -0.0011100816 -0.0060978066 0.01271905 -0.0011863637 -0.00968596 -0.0047812224 -0.021618 0.00048530992 -0.008320703 -0.0017063795 -0.001781102 0.008552544 -0.0017377281 -0.004701455 -8.136734e-05 0.009069628 0.0025825747 0.004616882 -0.0071321614 -0.0010470152 -2.5418723e-05 -0.0065142456 0.0021798816 0.004826023 -0.0035153148 -0.015989598 0.0061492934 0.00020759947 0.0056387 -0.004038865 -0.006325592 -0.012793984 0.0060391612 0.0085673705 0.0058851996 -0.011656541 0.010294051 -0.0040202676 0.004783284 0.0069051157 -0.0028861812 0.009443136 0.004832905 -0.0032312814 -0.0066084717 -0.008640107 0.006247566 -0.0026439787 -0.00073479366 -0.0075389924 0.0116989985 -0.0020251167 0.0031584133 -0.00012244486 0.01389527 0.010959395 0.0008588013 0.013753518 0.0055929925 -0.0028458238 0.004603424 0.017274454 0.00971217 0.0037796346 -0.011541225 0.0070101293 -0.0011152384
9791162241868 -0.003722204 0.00779105 0.0057597053 -0.00031422125 0.002465436 -0.016999453 0.007698444 0.01750474 -0.008107242 -0.008161709 -0.0055426713 -0.016526239 -0.0031768905 0.00288376 -0.0011223921 -0.007370011 0.0017201635 -0.012230269 -0.0020079918 -0.018940873 0.0033978585 0.0036893 0.003082948 -0.0061544026 -0.003542256 0.00071481173 -0.0065189884 -0.011698355 -0.0076220324 -0.0008789388 0.012674897 0.005633977 0.0018177117 -0.003363131 -0.0057573467 0.011932687 -0.00091478246 -0.008092131 -0.0042731743 -0.022918986 0.0009136064 -0.0089294715 -0.0023594315 -0.00074783765 0.008958275 -0.0018749314 -0.0041435445 0.0011318359 0.008325035 0.0024712586 0.0051142834 -0.006428371 0.00025273897 -0.0019954024 -0.006778055 0.005158412 0.0065573133 -0.0017887934 -0.015233986 0.008503657 -0.0025415027 0.004653474 -0.0069326214 -0.0074407044 -0.012373167 0.005003731 0.007667433 0.005022438 -0.010026492 0.010091856 -0.003930257 0.002548654 0.0078225 -0.00058521546 0.008477187 0.005253589 -0.004154961 -0.0073316256 -0.0091093015 0.007692525 -0.0048258514 0.0010035316 -0.009951301 0.010662519 -0.0015140049 0.0037343374 0.0013316186 0.012793858 0.012879174 0.0014508878 0.010825076 0.004683863 -0.0036465505 0.004753302 0.015205117 0.01232942 0.002120418 -0.013682089 0.008096351 -0.00095969555
9788998139766 -0.0036764913 0.0059585413 0.005354213 -0.0017004963 0.0024097594 -0.011660086 0.003964733 0.014700958 -0.006016074 -0.0037422725 -0.0021735488 -0.010712514 -0.0022754495 0.0007353735 0.0033706229 -0.0035764521 0.0027964527 -0.008387704 -0.0017753707 -0.011895438 -0.0008555137 0.0039178296 0.0018047433 0.0013420369 -0.0011872586 0.0019322125 -0.0017203356 -0.0071755936 -0.0067811287 0.00019335022 0.00657636 5.3230615e-05 0.0014648361 -0.0002370605 -0.0035544576 0.010342555 4.2453194e-05 -0.009386553 -0.0022381505 -0.01467599 -0.00026910464 -0.0031434367 -0.0017151842 0.0034245583 0.0057807234 -0.0001956158 -0.004694125 0.00025048078 0.0060913526 0.0026880144 0.0038561744 -0.0063879862 -0.0026686643 -0.0014459471 -0.0037399814 0.004379649 0.0057994765 0.0015968392 -0.008925612 0.0046910434 -0.0023199287 0.004684016 -0.005018984 -0.003419582 -0.0066503147 0.0045855334 0.0045353794 0.004860904 -0.0062470688 0.005268671 -0.0039752205 0.0014194956 0.007745017 -0.0005855654 0.0023658143 0.0068955673 -0.0018279414 -0.0009005159 -0.0049809096 0.005421084 -0.005991339 -0.0010095808 -0.004911956 0.006742771 -0.001203947 0.003293118 0.00026967117 0.009249608 0.00973331 -0.0013215087 0.008480677 0.005547896 0.0004895983 0.0024314374 0.012402865 0.0077636754 0.0026590016 -0.01112823 0.0022511457 -0.004764604
9791162244777 -0.004972663 0.0035816738 0.0037704152 0.0003658999 0.00049916573 -0.0145373335 0.004205159 0.016567912 -0.00559852 -0.0052928017 -0.0055023846 -0.01703732 -0.00058572774 0.0029900088 -4.7625494e-05 -0.0065750447 0.0016289505 -0.009828916 0.00073375576 -0.014779921 0.0026873737 0.0017270037 0.004702594 -0.0054268776 -0.00037890597 0.0009064154 -0.006976796 -0.009485125 -0.003980245 0.002938859 0.008746435 0.0072807074 0.004010486 -0.0025146364 -0.00649104 0.012321019 -0.00084873236 -0.009706314 -0.0030809953 -0.01955088 -0.00058235106 -0.0074278573 -0.00044418438 -0.0011669883 0.009194649 -0.0014503183 -0.0047228644 0.0010009074 0.0068522748 0.0003598742 0.005626931 -0.005930337 0.00069182145 -0.0008234992 -0.0060068476 0.0035622064 0.006288481 -0.0002170656 -0.011810409 0.0063279886 0.0005376947 0.004852153 -0.0028883133 -0.0056051817 -0.010177622 0.00588656 0.0065657995 0.0040000356 -0.010093663 0.00968515 -0.004637634 0.002648704 0.007084342 -0.0009624043 0.008044983 0.00492946 -0.0023165562 -0.006726543 -0.006386073 0.008007721 -0.00096865423 0.00051393156 -0.0064918934 0.008129161 -0.002116491 0.002577357 -0.0019325255 0.011064492 0.01156845 0.0019217582 0.013089736 0.004936368 -0.004280633 0.0029926258 0.014663163 0.0078789415 0.002548937 -0.012462031 0.008181614 -0.0028217277
9788966263264 -0.0038282545 0.0076649324 0.0045598433 0.0010205965 0.0018655923 -0.013985519 0.0054601734 0.018565182 -0.007887941 -0.0042952583 -0.0056534363 -0.016431388 -0.0025100247 -0.00016316088 0.0010114594 -0.0070789754 0.0018689726 -0.012183409 -0.0028502166 -0.017967278 0.0023222074 0.0013278982 0.002112911 -0.004844996 -0.0043162773 -0.0006267425 -0.007848661 -0.007931174 -0.0049774684 0.000612872 0.01100831 0.0050591063 0.001433524 -0.0029823866 -0.0067935945 0.011013334 0.00032805395 -0.008577085 -0.0054897526 -0.017447157 -0.0008522136 -0.0067257895 -0.0019065258 0.00076424715 0.008197439 -0.0014702776 -0.0014933724 0.0010643877 0.008240878 0.0041072913 0.0053062504 -0.00854785 -0.00065741036 -0.0010249845 -0.00823898 0.0055650976 0.0047887145 -0.0012133049 -0.012108544 0.0067737037 0.0008499961 0.006144108 -0.0037443605 -0.004922788 -0.012224162 0.0074046757 0.0056944387 0.008186439 -0.011059236 0.0071211327 -0.0025208804 0.0040406496 0.010044838 -0.002274456 0.00647744 0.006749278 -0.0034441126 -0.0056962837 -0.008812473 0.006458107 -0.003572178 -0.0010349465 -0.009490183 0.01040123 -0.0008547306 0.0028503751 0.0009697772 0.01146491 0.010816837 -0.0006252041 0.0111990385 0.0055022067 -0.0014310428 0.004306625 0.016451627 0.008380501 0.0028456554 -0.0125056645 0.0061624977 -0.0026796737
9791165217341 -0.007098083 0.008286978 0.004815852 0.0010581719 0.00195092 -0.0143682165 0.0058236816 0.020050827 -0.0067391247 -0.0056623835 -0.005132891 -0.016621267 -0.0034763005 0.0030463045 -0.0011432192 -0.0067845513 0.001811288 -0.00993414 -0.0016452303 -0.019370425 0.001691916 0.0033213552 0.00041566347 -0.0043744 -0.0019869397 0.00091730105 -0.0070719784 -0.010995996 -0.0058556753 0.0026191825 0.010470445 0.004662604 0.0019674888 -0.0011179935 -0.007959796 0.0122163 0.0013548969 -0.009306512 -0.0037678378 -0.02032605 -0.0004539468 -0.008141892 -0.0032937506 -0.001366938 0.009943169 -0.0014998682 -0.0043611694 -0.00091406243 0.010456916 0.0026653283 0.0028220448 -0.0068191746 2.2861508e-05 -0.0007124318 -0.0050929985 0.005426107 0.007077648 -0.0025405248 -0.013289064 0.0071345363 -0.0002581962 0.005537887 -0.0038169888 -0.0071377223 -0.012634583 0.006548085 0.0063830125 0.0057143113 -0.010720734 0.010732682 -0.002563101 0.0033354617 0.0076247817 -0.0026311376 0.009227827 0.0058838525 -0.0028901668 -0.005488678 -0.009566689 0.0061274986 -0.0026763747 -0.00044521247 -0.009367506 0.013564277 -0.0016960315 0.0039082877 -0.00045152972 0.012021709 0.01085044 -0.00047325814 0.011909811 0.0050844667 -0.003493006 0.004013393 0.016978737 0.010526863 0.004000857 -0.011520624 0.006173722 -0.0014622295
9791162242964 -0.0060909535 0.0052632676 0.0040197265 -0.0009914221 0.002008773 -0.013197467 0.0050380006 0.019174507 -0.0064685927 -0.004929163 -0.0057969843 -0.015351294 -0.0026322263 0.0024497302 -0.00025463407 -0.0067782463 0.0007906581 -0.009478356 -0.0009919334 -0.01779716 0.00084212027 0.003727423 0.0021225226 -0.0021173786 -0.0033185468 0.0006446505 -0.007898939 -0.009281533 -0.0062298663 0.001925118 0.0098457355 0.006043654 0.0044549475 -0.0016114364 -0.0071854694 0.011134779 -0.0015738715 -0.00898032 -0.0046654716 -0.018590866 0.0006489243 -0.007210128 -0.0001384725 -0.0013302513 0.0070092184 -0.0004763774 -0.003935007 -0.0003698373 0.0070520034 0.0022837832 0.003000305 -0.0081594065 -0.0006101407 -0.0006933682 -0.0051852837 0.0027896266 0.0052092997 -0.0018693137 -0.011601667 0.0069066323 -0.00022646027 0.0045915577 -0.003256514 -0.00613303 -0.01268934 0.005823342 0.0065654702 0.004627296 -0.011669254 0.00951645 -0.0026916768 0.004242825 0.008666858 -0.000824201 0.00895386 0.004781482 -0.0017539809 -0.0059398217 -0.008690762 0.0060658506 -0.001894506 -0.0005366792 -0.008018296 0.011649088 -0.0010301935 0.0036534877 0.00065247883 0.012688393 0.009497751 -0.000106026666 0.011785841 0.004347897 -0.00026479742 0.0043071005 0.014437652 0.008400719 0.0029732948 -0.01132039 0.006013442 -0.00042189544
9791160507812 -0.008065412 0.009642435 0.0025248153 -6.9348507e-06 0.0020312136 -0.017329937 0.0061049117 0.020448923 -0.00976355 -0.006401592 -0.008013888 -0.017353917 -0.0031713594 0.001811271 0.001683757 -0.0063103517 0.0019962925 -0.011883189 -0.0018543196 -0.020775188 0.0035823318 0.005352901 0.004393924 -0.0034058134 -0.0016490057 0.0021512161 -0.010965546 -0.012290464 -0.006277244 0.0023322962 0.013747314 0.0076163257 0.00457078 -0.002373706 -0.0060178917 0.014590438 -0.002092795 -0.008968378 -0.005712717 -0.023738468 -0.00013212903 -0.010485788 -0.0024148468 -0.0007535635 0.009269459 -0.0021107034 -0.0058708517 0.0007114937 0.009271117 0.001321968 0.0059103537 -0.009337158 -0.0027056949 -0.0005077334 -0.0076425383 0.0048581534 0.0060747275 -0.0028208264 -0.015174556 0.007151341 0.00021514297 0.006476192 -0.0032543736 -0.0054560606 -0.013629279 0.008244463 0.007767685 0.005275523 -0.012482093 0.012309733 -0.0058478466 0.004629381 0.006700573 -0.0017902292 0.009475612 0.0071869884 -0.005562686 -0.0050939852 -0.010533157 0.009259714 -0.0036990948 -0.0012674049 -0.0069517987 0.011407515 -0.0011236214 0.004447677 0.0024044996 0.01568159 0.011595959 -0.00088629 0.014143672 0.0071715387 -0.0021471884 0.004717767 0.01845433 0.008882464 0.005374272 -0.014260842 0.0069807414 -0.00029768754
9788966263158 -0.0048482562 0.005645801 0.002307571 0.00069314544 0.0021751833 -0.0141736595 0.005310596 0.018126296 -0.004861276 -0.0056957738 -0.007495791 -0.015061793 -0.003430184 0.001923058 -0.0021605366 -0.0053321347 0.0005233401 -0.009398413 -0.0017166501 -0.015826093 0.0018125753 0.004310432 0.005060938 -0.0034867567 -0.002691694 0.0012228482 -0.005291088 -0.008607727 -0.0036784306 0.0014771145 0.012492002 0.006212341 0.003354383 0.0004141612 -0.006803091 0.009797811 -0.00013673917 -0.0069123628 -0.002925506 -0.018676909 0.0022796318 -0.007967211 -0.001357685 -5.858849e-06 0.0091689015 0.00028875688 -0.0043703103 -1.9924971e-06 0.006397461 0.00416719 0.0035039578 -0.005176073 0.00040611182 -0.0029589238 -0.0066575417 0.0028624192 0.0041847504 -0.0008504724 -0.013590169 0.0059705093 0.00013381829 0.005379127 -0.00244225 -0.0062078172 -0.011758726 0.003727968 0.008397716 0.006417108 -0.01115672 0.008183089 -0.004625512 0.0024882979 0.007923595 -0.00025018412 0.006711732 0.005818505 -0.00081847335 -0.005454921 -0.009342236 0.005547223 -0.0022618477 4.5881943e-06 -0.0053557917 0.008654815 -0.001016454 0.001660975 0.0012377196 0.011078188 0.00605581 -0.0014517434 0.009227757 0.004630716 -0.00063930225 0.004424528 0.015090975 0.0090802405 0.004848079 -0.010935917 0.0041588433 4.7581407e-06
9788966260546 -0.0035436242 0.008025119 0.004100048 0.0011702661 0.00078073924 -0.014057413 0.0075490884 0.017838871 -0.0076613105 -0.0036296607 -0.0065268003 -0.018509109 -0.0030091351 0.0038719047 -0.0016944254 -0.004020325 0.004042837 -0.009312518 -0.0016278994 -0.019262625 0.0027685692 0.003979798 0.003700741 -0.0022385023 -0.0020535344 0.0010675634 -0.0076731415 -0.009339316 -0.0073884996 -0.0002478775 0.01349091 0.006067652 0.0049491953 -0.0016198831 -0.00626835 0.010504028 -0.00012970666 -0.010664889 -0.004648241 -0.021904485 -0.002777787 -0.005788978 -0.0019505483 -0.0016630797 0.008498314 0.00033376465 -0.0058685187 0.0009681493 0.009151084 0.0047487738 0.004130047 -0.00878008 -0.00034292773 -0.0014593444 -0.005273777 0.003254252 0.0063926103 -0.0030675787 -0.012877634 0.007790734 -0.000723164 0.0036984615 -0.0056202495 -0.006655152 -0.014372473 0.00534194 0.006432696 0.005360334 -0.00935966 0.012782531 -0.002932265 0.0005463801 0.010278495 -0.0005848026 0.0061531323 0.0060602603 -0.0014021044 -0.0057590907 -0.010780966 0.006630459 -0.0035737853 -0.00036579624 -0.006649276 0.012299126 -0.0022014163 0.002145543 -0.00076328364 0.012667596 0.010236527 0.0007163401 0.01291644 0.005279774 -0.002195952 0.00471282 0.016734332 0.008289787 0.0021101576 -0.0125397565 0.0067439824 2.8771697e-06
9791158391928 -0.0068508326 0.007980789 0.004821745 -0.00022211717 0.001730773 -0.015409256 0.0059826905 0.021290606 -0.0066157226 -0.0058279475 -0.0063779256 -0.017082708 -0.0037141482 0.002360444 -0.00064160035 -0.005569798 -2.7635706e-05 -0.010386076 -0.0024697995 -0.018357657 0.0009097722 0.006253725 0.0032414454 -0.0034676054 -0.00414716 0.0022716415 -0.008370986 -0.012961631 -0.0054506683 0.002194254 0.011617558 0.0069258264 0.0052017304 -0.0012929423 -0.0083623715 0.011801142 -0.0025102145 -0.01113078 -0.0042984174 -0.021614756 0.0014039072 -0.008575548 -0.0011359691 -0.002031512 0.0076925815 -0.0015150777 -0.004071214 0.00032604032 0.00798196 0.0024966563 0.0048656655 -0.010712475 0.00039835405 -0.002386843 -0.0053009223 0.0039298823 0.0059049516 -0.0028597994 -0.012039512 0.0055175526 -0.00077284774 0.004622954 -0.0047111656 -0.0072067 -0.013787554 0.007208655 0.008415578 0.0052513867 -0.015079889 0.011430618 -0.0038852303 0.0037541273 0.008792946 -0.0024114049 0.010055676 0.007970856 -0.0039291037 -0.0059338687 -0.010926655 0.0082605425 -0.00374524 -0.00070987275 -0.008017471 0.014363854 -0.00032836193 0.0038523823 0.0012697302 0.012983682 0.010600403 0.0004972192 0.013432816 0.0051814625 0.000165334 0.0039041394 0.016232241 0.009808931 0.003629143 -0.012883012 0.008115276 -0.0016076431
9791158392871 -0.003884089 0.0070099398 0.0073172688 -0.00260171 0.0010653078 -0.015606824 0.0077750282 0.019010581 -0.0063604685 -0.0047142287 -0.0014488603 -0.016737789 -4.7524198e-05 0.00029552495 -0.0001651967 -0.0045350944 -0.00015553748 -0.011513488 -0.00096945156 -0.015045216 0.00026695686 0.0010745747 0.0047058207 -0.004328341 -0.004890396 0.0018404822 -0.0045198337 -0.009878934 -0.00445502 -9.130821e-05 0.012109214 0.0059725214 0.0036265205 -0.0008381237 -0.006527962 0.013675097 -0.0009156062 -0.008433313 -0.0075482875 -0.018411007 -0.001332892 -0.0049269795 -0.00026387704 0.00013056296 0.008222766 -0.0014260238 -0.0034559628 0.0029629003 0.007394279 0.0012192131 0.004120575 -0.008130504 -0.0040275115 -0.00012861643 -0.0040576784 0.001047602 0.0067417156 -0.0006062562 -0.011387001 0.004737491 -0.002427385 0.00539193 -0.0044237287 -0.0052673067 -0.012443805 0.006093368 0.008997736 0.00725323 -0.011090918 0.011924862 -0.0030207082 0.0032626167 0.006021824 0.002585353 0.007402 0.0071201753 -0.0027827944 -0.008394047 -0.008836315 0.008497043 -0.003979496 0.002600063 -0.006152459 0.008118123 0.00032293962 0.0018974469 -0.0019691398 0.013795769 0.008443342 -0.001049803 0.008596218 0.006650604 -0.0024661827 0.006601955 0.017403888 0.008817704 0.004630013 -0.009812258 0.0065194783 -0.0026084671
9791188314904 -0.0037628973 0.0043101045 0.0020553342 -0.0005046573 0.00064403034 -0.010748285 0.0038860994 0.012531115 -0.004676541 -0.0030707961 -0.0035063939 -0.010642833 -0.0021015806 -5.8689406e-05 -0.0004715803 -0.003242129 0.0011869821 -0.008339679 -0.0023991002 -0.010753312 0.002761865 0.001085999 0.0007023206 -0.0012443974 -0.0021745726 0.0011103029 -0.0055965823 -0.007979333 -0.0034697056 0.00029930595 0.0072947466 0.0054816552 0.00078362244 -0.0014528161 -0.0041798446 0.0073735425 0.000569828 -0.005666381 -0.002823708 -0.01451855 0.00020103018 -0.006426971 -0.0012323264 -0.0015076312 0.006126896 -0.0013068523 -0.004097907 -8.072969e-05 0.0041393875 0.0036152308 0.003401385 -0.0043152794 0.00053431385 -0.0007195812 -0.0039295335 0.0013777755 0.0032137323 -0.00021789393 -0.0073650763 0.0034171008 -0.0013327415 0.0024268602 -0.003277285 -0.00535407 -0.0064409208 0.0042781387 0.006424839 0.00506598 -0.0073893405 0.007039436 -0.0037884335 0.00096775393 0.005467161 0.0006658813 0.00531067 0.004376095 -0.0018140767 -0.003675371 -0.006793952 0.0039645345 -0.0015038771 -0.00018775664 -0.0049525774 0.004901314 -0.0016788447 0.00010927616 -0.00086366147 0.008482645 0.00684018 0.0011203355 0.009263854 0.0034108784 -0.0008573826 0.0027592946 0.010748356 0.006242761 0.0036990142 -0.00677235 0.0057629566 0.00017938242
9791162244166 -0.0048311646 0.006759559 0.003628158 0.0019742069 0.0028348381 -0.011799275 0.0052360087 0.014391258 -0.003912561 -0.005797833 -0.006674166 -0.0117023075 -0.0019394347 0.0021039965 -0.00082172645 -0.00636812 -0.00095161516 -0.00937973 -0.004472477 -0.014143008 -0.00079038425 0.0008424491 0.0034093114 -0.0025827612 -0.0026925688 0.0020141497 -0.0036508723 -0.008519283 -0.0049474314 0.001008473 0.0116495555 0.0034898259 0.0057810033 -0.0013913944 -0.005160989 0.011183851 -0.0012287303 -0.006351688 -0.001875546 -0.017068716 7.5767755e-05 -0.0056341286 -0.0014020741 -0.0019158303 0.005312441 -0.0015585682 -0.0017672224 -0.0014753622 0.007404202 0.005563578 0.005481274 -0.006259858 -0.00063692086 0.002538426 -0.0074283336 0.0055778143 0.0029112909 -0.0015284877 -0.012953347 0.0055619967 0.00032262178 0.0045043784 -0.0025359888 -0.006466643 -0.007417602 0.0056517893 0.00786783 0.0067588785 -0.010926235 0.009093848 -0.0010245434 0.004318602 0.00797401 -0.0019554412 0.009083255 0.005261936 -0.0014641416 -0.005195819 -0.006030238 0.0041999025 -0.0033503587 -0.00083372544 -0.00998262 0.008093989 -0.0020610152 0.002906003 0.001458006 0.012869135 0.010036889 -3.705405e-05 0.0095461495 0.0045599807 0.0013141849 0.0039376547 0.013238586 0.006175746 0.005383557 -0.007372612 0.008058628 -0.0013695459
9791165215286 -0.00521337 0.0028824557 0.0026711638 -0.00019318347 0.0024571514 -0.012132595 0.0046974635 0.010250065 -0.003098369 -0.0051686736 -0.0042004706 -0.011043485 -0.003389769 0.0015131969 0.0026274703 -0.003352476 0.0003192818 -0.0051819375 -0.0026056399 -0.011463391 0.0021940137 0.004092945 0.0015986019 -0.0014420322 -0.0016483369 -0.0013413352 -0.005217161 -0.0059314854 -0.005444869 0.00043207305 0.009440858 0.005109436 0.004923588 -0.0014195252 -0.00637816 0.008121996 -0.00093065074 -0.008373728 -0.0039679604 -0.017227944 -0.0021224446 -0.0070045493 0.001414936 -0.00049867225 0.008572503 0.0021323753 -0.0033388496 0.001398409 0.0054172385 0.0011764792 0.0022050182 -0.0070835496 -0.0019053966 0.0010778818 -0.0062937676 0.0035409047 0.0037930731 -0.004701937 -0.006923728 0.003581821 0.0014991491 0.0058124466 -0.0033780443 -0.0027955142 -0.009474122 0.006086184 0.0036634905 0.0027381738 -0.007648167 0.007811731 -0.001646704 0.0034690162 0.0064465376 0.00037211657 0.0071599386 0.0023166605 -0.0004470489 -0.0028968616 -0.0075475527 0.0006923293 -0.0006070328 -0.0010541055 -0.005112911 0.0072439252 0.0010159303 0.00521785 0.002141796 0.007639961 0.0057332683 -0.00087311165 0.00578612 0.0030621218 -0.0032524508 0.005974691 0.011759218 0.010067981 0.0013197537 -0.006506452 0.0062604365 -0.0009898121
9791163031734 -0.0056717466 0.008341431 0.003939553 0.0010776656 0.0013946194 -0.014492991 0.0064710886 0.017699633 -0.0068070595 -0.006845876 -0.005622979 -0.016906993 -0.00286479 0.002599526 -0.0007553431 -0.006191917 0.0014369454 -0.01077482 -0.0021359746 -0.016171746 0.0013917914 0.004036906 0.0019434964 -0.003710856 -0.00077995966 -2.715384e-05 -0.008000112 -0.010973266 -0.00590763 0.00022556896 0.011849341 0.005377549 0.0031740062 -0.00086499844 -0.007367957 0.012160029 -0.0016211368 -0.008903126 -0.0027901104 -0.02225495 -0.00026150933 -0.0072952495 -0.0019391674 -0.0008432206 0.00826487 -0.0013591438 -0.00597615 0.00084190466 0.007714493 0.0030730034 0.0036856749 -0.007905785 -0.001828278 -0.0013993052 -0.005948488 0.005124578 0.0070958654 -0.0018150554 -0.012651574 0.0058488646 -0.0016966598 0.0035613526 -0.0039412198 -0.006701672 -0.013695537 0.008145076 0.0060460004 0.005531317 -0.0117019825 0.009554702 -0.005531074 0.005665938 0.008747402 -0.0020910392 0.008640238 0.0054976214 -0.0045287316 -0.007488901 -0.010742008 0.0064287633 -0.0028291252 -0.001188341 -0.0077859736 0.010309801 0.0012741092 0.0040378612 0.00029030268 0.0108823115 0.009782844 0.00011628814 0.011085008 0.0049533998 -0.0026441508 0.0041677603 0.01682841 0.009778401 0.004212611 -0.010635357 0.008589389 -0.002550782
9788968484636 -0.006392143 0.008076407 0.0060946997 -0.0005313363 0.0032566786 -0.016140698 0.0073126783 0.023034 -0.007761921 -0.0074011106 -0.0072845267 -0.018390011 -0.0032218515 0.0025375541 -0.0009861435 -0.006620793 0.0014844856 -0.01181955 -0.0025721416 -0.021803586 0.0009887635 0.003651897 0.002939101 -0.0060391943 -0.0024845891 0.0016272705 -0.010583618 -0.009391486 -0.007265052 0.0030107016 0.012401151 0.0071074553 0.005165076 -0.0021324283 -0.008966603 0.013112757 -0.0031037354 -0.0110000465 -0.0048002806 -0.023193104 4.4608164e-06 -0.008322359 -0.0003417082 -0.0009737459 0.0090601565 -0.0019577371 -0.0052902973 -0.0011379871 0.009072614 0.0049411617 0.004778136 -0.008679393 0.00016598852 -0.0017117258 -0.005949455 0.0036946284 0.0068082283 -0.0006342173 -0.012888882 0.008338103 -0.0021856877 0.0045966385 -0.0026902908 -0.0053799427 -0.016035808 0.008355425 0.010710272 0.0037177012 -0.012790734 0.011605447 -0.004079565 0.005143012 0.008990168 -0.0013341561 0.008491222 0.00484391 -0.0020305847 -0.007136687 -0.01168214 0.007257082 -0.006209838 0.00028103188 -0.009796263 0.013534062 -0.00097477826 0.0042472966 0.0022035295 0.012535799 0.012146863 9.602072e-05 0.014529155 0.005649289 -0.0022928158 0.0034445426 0.017955974 0.009574763 0.00468768 -0.013860929 0.008039159 0.00095179176
9788970935287 -0.006893433 0.0075913058 0.0033000137 -0.0018105032 0.0018489364 -0.021164741 0.0071347584 0.024222549 -0.0065256422 -0.005473386 -0.009495147 -0.021888362 -0.0046185697 0.000887799 -0.0019912766 -0.009681842 0.0023189555 -0.015757134 0.0014569616 -0.02121056 0.0054109576 0.0017605766 0.0033175857 -0.007426618 -0.00047438263 0.0032167367 -0.011151737 -0.011798603 -0.008818857 0.0015856924 0.016896222 0.0054447586 0.0039057527 -0.0043864334 -0.008168624 0.011271266 0.0005347107 -0.01087115 -0.0041979006 -0.022026286 -0.0017127636 -0.008211232 -0.002943287 -0.0010871002 0.008114676 -0.0021180552 -0.004040768 0.002359757 0.010164855 0.005040947 0.0070864176 -0.011570908 -0.0027954795 0.00023927566 -0.008124675 0.00568314 0.008600907 -0.0033058997 -0.016595284 0.010387685 -0.0011443464 0.005460659 -0.004895487 -0.007899961 -0.016487172 0.007924192 0.0067456528 0.009065584 -0.010658021 0.012748163 -0.006195136 0.0059110704 0.012204511 -0.0021047827 0.010525949 0.005512259 -0.00442396 -0.006010411 -0.011895323 0.006072677 -0.0056409054 -0.00017369818 -0.011380746 0.01736791 -0.0006817264 0.003641978 0.0021883566 0.017853953 0.009991279 -0.0018126147 0.015262802 0.0077923415 -0.0008722959 0.005381363 0.021777466 0.012933121 0.002504171 -0.014924441 0.006472052 -0.0042541274
9791191013269 -0.0062874053 0.005585587 0.0035498224 0.0006012721 0.0018915494 -0.012507778 0.0030894496 0.014997385 -0.0060755005 -0.0047318004 -0.0041018473 -0.015178339 -0.0017817375 0.0006762714 -0.0004773187 -0.005172868 0.0022710534 -0.008475307 -0.001053006 -0.014846986 0.0030021125 0.002452499 3.8775437e-05 -0.0029586724 -0.002320899 0.0017103096 -0.0053566955 -0.008980691 -0.004668704 0.0013344113 0.010002439 0.0041550067 0.0008572005 -0.0029273408 -0.006213383 0.010357821 0.0008279725 -0.009700645 -0.0045995517 -0.018206261 -0.00031660692 -0.0073025725 -0.001991366 -0.00024511688 0.0072027156 -0.0024338288 -0.0038753564 0.001478848 0.0048099267 0.0014300828 0.0045255907 -0.007249423 -0.00065372797 -0.0018873794 -0.0052711833 0.002646129 0.004684431 -0.00039033085 -0.010306984 0.0066176914 6.861702e-05 0.0044254144 -0.0034160397 -0.005894979 -0.009912303 0.0052935043 0.0049631526 0.003493085 -0.008490754 0.008852238 -0.0041152593 0.00268427 0.00650034 0.00020121841 0.007951269 0.00488503 -0.0033331495 -0.00354574 -0.006218432 0.0047322023 -0.0036381288 0.00021678497 -0.0065115164 0.008868234 -0.0004904333 0.0030887886 0.0008439833 0.010550482 0.00927201 -0.00056589855 0.009662838 0.00506885 -0.0015857988 0.004611502 0.013233556 0.009285967 0.0045054234 -0.009072089 0.0064343214 -0.0009393113
9791165215743 -0.006343322 0.008690119 0.0035309247 0.0012921524 0.00273314 -0.013063104 0.0052848994 0.02017418 -0.006036325 -0.005267684 -0.0069472766 -0.014601293 -0.0041594803 0.0029337676 6.207853e-05 -0.005371245 0.00067336386 -0.008891025 -0.00088606356 -0.01721044 0.002007718 0.003097484 0.0049831294 -0.0033079302 -0.0019842915 -0.0007077904 -0.0054399557 -0.011295138 -0.0068018516 0.002657111 0.010325789 0.0069891415 0.0037782446 -0.001958587 -0.0067603807 0.012746704 0.00042758076 -0.007655382 -0.0033790662 -0.021643525 -0.0008890722 -0.006899047 -0.002547819 -0.0018526678 0.006645471 -0.0018834387 -0.004329146 0.0006114925 0.008065834 0.0023852813 0.0053923167 -0.008958852 -0.0013595398 0.0004724865 -0.00694995 0.0022176262 0.007545607 -0.0038428998 -0.014129524 0.0068284897 -0.0008650511 0.0068118717 -0.004588279 -0.008068835 -0.011261866 0.005530594 0.0074551203 0.0044293087 -0.01185057 0.010416376 -0.0039411024 0.0057153185 0.0074855713 -0.0014206317 0.00763868 0.0036659937 -0.0024232443 -0.0056589385 -0.008031039 0.006785027 -0.0013877023 -0.0006495722 -0.007399537 0.01066761 -0.0033212365 0.0018483576 0.00029734304 0.01471775 0.009512271 0.00012661157 0.010882339 0.0072253966 -0.002673944 0.0026946496 0.015783096 0.009195544 0.0062435297 -0.01261032 0.006915132 -0.001755434
9791162243909 -0.0058202874 0.007257317 0.004896179 -0.00074634166 2.4076566e-05 -0.016337367 0.007674396 0.02144313 -0.0069840928 -0.006044448 -0.004439629 -0.016521757 -0.001874979 0.0029058917 -0.00054490083 -0.006975384 0.0019456479 -0.011726952 -0.0027616268 -0.019338239 0.0042722453 0.0037101002 0.0021995257 -0.003921876 -0.002744789 0.0013288326 -0.007789632 -0.009976513 -0.0063910955 0.0013853455 0.011838436 0.0068668276 0.003512919 -0.0020161283 -0.005993177 0.013330096 0.00025082767 -0.010039675 -0.0045060306 -0.02258169 -0.0006835789 -0.007878407 -0.0023958497 -0.0017154072 0.0094568515 -0.0013055914 -0.006281354 0.0012633683 0.010378596 0.00417988 0.0032995802 -0.0071003456 -0.00024820564 -0.0005233457 -0.006442861 0.001579682 0.0054094098 -0.0028805207 -0.014737841 0.007659349 0.0008134708 0.0061509944 -0.0051660473 -0.006117376 -0.012468331 0.007310205 0.0073653013 0.005766594 -0.011857027 0.010256192 -0.0039950954 0.005709124 0.0077028936 -0.0042204107 0.00884808 0.005763935 -0.0030108402 -0.0050806478 -0.007998127 0.0062752636 -0.002107711 5.6933848e-05 -0.008484363 0.012360103 -0.001414545 0.004291458 -0.0002676337 0.014930724 0.009278445 0.0008870817 0.014172388 0.0052742604 -0.0032838997 0.004878201 0.01877764 0.01084675 0.0034203953 -0.014008963 0.00803106 -0.00060394575
9791158392741 -0.0042326367 0.0060641677 0.0024180938 0.00030308217 0.00013701683 -0.014548856 0.0048097074 0.01825885 -0.0071756523 -0.004834349 -0.004698402 -0.014786399 -0.004257574 0.0011712849 0.0014450531 -0.005229372 0.0010480671 -0.011547926 -0.0015335529 -0.018101772 0.002498832 0.0045633097 0.002358958 -0.004688256 -0.0023054322 0.00025635742 -0.0060493513 -0.00862101 -0.0050316635 0.0015608199 0.0110019045 0.0059110085 0.0042701997 -0.0023967975 -0.0046287817 0.01243022 0.0002892443 -0.009152584 -0.004340435 -0.018657517 -0.0003599419 -0.0072989017 -0.0013188074 -0.00023347556 0.0078441035 -0.0007677615 -0.005985936 0.0019517071 0.0068267724 0.0024070235 0.0030829925 -0.0063023325 -0.0008976128 0.00023571262 -0.0053984043 0.0037805482 0.0046765623 -0.0009969447 -0.0123864245 0.0075124535 0.00040656 0.0049453853 -0.0043703765 -0.005898252 -0.010486444 0.007676446 0.00688988 0.004272631 -0.011328258 0.009842802 -0.0037874181 0.003510468 0.0067858663 -0.0016673381 0.0057719364 0.0053324974 -0.00228533 -0.0060470016 -0.008285159 0.0069110533 -0.0032213153 -0.0005921993 -0.00863693 0.011067285 -0.0028345166 0.0026837997 -0.0015907615 0.013754178 0.0109035885 0.00053327496 0.012006854 0.0067626787 -0.00069909485 0.004251466 0.014396565 0.009711659 0.0034906208 -0.011782026 0.00804089 -0.0015783113
9788950994877 -0.0043300935 0.004820854 0.0027938455 -0.00043345703 0.0012210306 -0.011864576 0.0056054806 0.016597213 -0.0063687535 -0.004977855 -0.005477353 -0.013500969 -0.0023746472 -0.0002724165 -0.0008466 -0.004889739 0.003223984 -0.0092092855 -0.0015275938 -0.01497715 0.0022830395 0.00237669 0.002480494 -0.004736338 -0.0027639417 0.0009499169 -0.0058309967 -0.00996337 -0.00556978 0.00078427943 0.008396759 0.0053033405 0.0046064765 -0.0011930505 -0.006104442 0.0111555355 -0.0024332437 -0.008691584 -0.003315122 -0.016664755 0.0001941501 -0.0060168616 -0.0008731842 -0.0012633911 0.008407973 -0.0007140501 -0.0027843756 0.00031354083 0.006208841 0.0010380814 0.0042896396 -0.0078414185 -0.0011941 8.701715e-05 -0.0063702115 0.0027338255 0.005306767 -0.0014744386 -0.012642971 0.0052607153 4.774964e-05 0.004931546 -0.004646816 -0.0061311806 -0.011147757 0.0060954313 0.0059278053 0.005327042 -0.009437059 0.008836527 -0.003801473 0.0046800473 0.007252375 -0.0012418866 0.008609308 0.0025829144 -0.0017573548 -0.004374745 -0.009028874 0.005557002 -0.0018587563 -0.0019426787 -0.006589935 0.008492852 -0.00011203069 0.0018024789 -0.00040044126 0.011024256 0.0101309735 7.5457305e-05 0.010505392 0.0025338326 -0.0008582268 0.0041715484 0.015436636 0.009637656 0.003874713 -0.009558814 0.0068025626 -0.0005328159
9791163031222 -0.0058953604 0.0064481455 0.0024616732 0.00044783723 0.0002541971 -0.0121592395 0.0057731904 0.015946839 -0.007639543 -0.0043131625 -0.004894989 -0.0145909805 -0.0013234005 0.0022309567 0.00075011916 -0.0066871694 0.0010877136 -0.009642432 -0.0016588045 -0.015630063 0.0015319522 0.004022257 0.002182047 -0.004322057 -0.0014517606 0.0018673437 -0.005713141 -0.009187879 -0.0035095443 0.00065841817 0.011110161 0.005426001 0.003958469 -0.0014502013 -0.0053876466 0.012100862 -0.0012846173 -0.0077734836 -0.0035713797 -0.019686464 -0.00030642943 -0.006843742 -0.0016258156 0.00026712642 0.0057354756 -0.00075449375 -0.004876061 0.0020523043 0.006477945 0.0014371979 0.0024261053 -0.0052150665 -0.001016208 0.00042527515 -0.005805751 0.0019072961 0.0042191185 -0.0020399126 -0.011201577 0.004343594 -3.6437432e-05 0.004212629 -0.0034174987 -0.0045843623 -0.009971855 0.0057602767 0.0045322115 0.0036858227 -0.009455397 0.0061160736 -0.005587822 0.0036996666 0.0056816596 -0.0013767106 0.007916434 0.0036167246 -0.0034743156 -0.004588742 -0.007190467 0.0053201085 -0.0018936731 -0.0005520789 -0.007203037 0.009672094 -0.0017908155 0.0035378756 0.00020081663 0.011155218 0.010283445 -9.9914905e-05 0.010107506 0.004167352 -0.0031750791 0.00469797 0.014808674 0.007980687 0.0011873938 -0.010729656 0.006531759 -0.0003152078
9788960777330 -0.005669033 0.007135576 0.003746408 0.0017232645 0.001484007 -0.013332549 0.0066092866 0.016936807 -0.0061366097 -0.0044101323 -0.005779154 -0.014407738 -0.0027327521 0.00197782 -0.00023998813 -0.004737063 0.0030102304 -0.009595358 -0.0028784827 -0.01852491 0.0025396429 0.0028907042 0.0027542382 -0.0039819423 -0.0024417231 0.0007255147 -0.0069402657 -0.0100764455 -0.005705217 0.00014789929 0.011358303 0.004034273 0.0034022352 -0.0010408234 -0.006405138 0.012809643 -0.00066470844 -0.007884292 -0.0039981827 -0.021102434 0.00061145524 -0.0070770048 -0.0009926816 0.0013391274 0.008228957 -0.0017535225 -0.005188595 0.0016545228 0.008536544 0.0027285374 0.004368465 -0.008382496 -0.0021162864 0.0004481722 -0.007017476 0.0024417706 0.0057875714 -0.0026649833 -0.014473714 0.004613179 -0.00047584123 0.0052935393 -0.003194826 -0.006762086 -0.011765727 0.0074397717 0.0060569327 0.005522441 -0.0118291 0.010550964 -0.003108409 0.0047899853 0.009153574 -0.0010195769 0.0074153016 0.0056056245 -0.002800999 -0.004952475 -0.009504539 0.0072160847 -0.004551035 -0.0005085861 -0.0076810573 0.0111800125 -0.00024010359 0.0023961768 0.0011890135 0.011794652 0.011027835 -0.00015471129 0.010646682 0.006058249 -0.0020469353 0.0033692576 0.015686657 0.0082988525 0.0034816612 -0.013291132 0.006420469 -0.0006585557
9791162244753 -0.0077532236 0.006338614 0.0027771536 -0.0010574902 0.0035069091 -0.01638269 0.0049375733 0.021250676 -0.008040513 -0.0077353134 -0.006481127 -0.017905561 -0.0024912155 0.00066206174 6.2689037e-06 -0.0049847593 0.0028106612 -0.010327562 -0.002505678 -0.019635577 0.00035398462 0.0029833375 0.0016451766 -0.005824897 -0.0048551266 0.0017264801 -0.00959158 -0.0108808465 -0.007259819 0.00042399712 0.0142610045 0.006415341 0.0051870975 -0.0037234293 -0.007825171 0.013894305 0.000985959 -0.011419285 -0.0050162473 -0.020757556 0.0022172735 -0.009932604 -0.0046301624 -0.0028584045 0.010477199 -0.0016031247 -0.0035986071 0.0020219279 0.010982674 0.003255168 0.007015721 -0.010878324 -0.00084929244 -0.0006914026 -0.00787118 0.003081771 0.0077870083 -0.0020750281 -0.0150217395 0.00800126 -0.0010084797 0.004850692 -0.0033226553 -0.0076127397 -0.014609578 0.0069993753 0.006759318 0.0049732565 -0.011705991 0.012200173 -0.0052857506 0.0026882254 0.009850405 -0.001495907 0.008051249 0.005312542 -0.002667345 -0.0064503537 -0.01206549 0.009351545 -0.0043014316 -0.00021327514 -0.008535212 0.012227931 0.00015780971 0.0044039916 -0.0005938376 0.015200466 0.010724001 0.0013920711 0.013381819 0.007827789 -0.0014502733 0.006384033 0.018479897 0.0103907 0.0026563655 -0.015715504 0.007942789 -0.00089917256
9791161755656 -0.0057426477 0.005884069 0.0017893792 0.0007141668 0.0009891922 -0.011967128 0.0050825067 0.01612931 -0.004418025 -0.003981715 -0.0044046845 -0.010886866 -0.0016397417 0.001753608 -0.0015075287 -0.0050445315 0.0025522306 -0.01138259 -0.0028112398 -0.014757301 0.0028852718 0.0027531702 0.0024890604 -0.0042612255 -0.00017280933 0.00086858706 -0.0060027116 -0.009437807 -0.0049738376 0.0018586913 0.0086690085 0.0030785813 0.0033083707 0.0005010414 -0.005960119 0.012338696 -0.0005155401 -0.0066111274 -0.002679273 -0.020695211 -0.0010414978 -0.007533651 -0.0016086437 -0.0018294757 0.008254635 -0.0018405571 -0.00553529 0.002505124 0.007992756 0.0032071725 0.005133813 -0.0062108417 0.0012224161 0.001225024 -0.0051061967 0.0021429828 0.0046716263 -0.0015097669 -0.011543016 0.0054426007 -0.00038884173 0.003759429 -0.0024249493 -0.005719369 -0.011060117 0.006941978 0.0058716806 0.0050180517 -0.010343903 0.009067895 -0.002622075 0.00090518343 0.007634828 -0.0012950269 0.0062584663 0.0039318795 -0.0028716992 -0.005524679 -0.006637178 0.0060130935 -0.0039738407 0.00029072686 -0.007038524 0.009379641 -0.00104297 0.0018350935 -1.1268374e-05 0.0111465175 0.009763254 -0.00033084216 0.011871622 0.0041876803 -0.0011935993 0.003218273 0.012520342 0.0083043175 0.0049478086 -0.012178873 0.0074902265 -0.00063211686
9791162243558 -0.0050187954 0.006381426 0.0029834483 2.3119477e-05 0.0019357364 -0.013204804 0.0030453426 0.017436342 -0.007615175 -0.0044877534 -0.0048803105 -0.016173312 0.0014635308 0.0019282567 -0.00035259814 -0.0053590257 0.0010819905 -0.00897884 0.00010040548 -0.013327029 0.0030853476 0.0018982923 0.0023804533 -0.004037542 -0.00084144913 0.00018181349 -0.0060163704 -0.0097637605 -0.005785589 -0.00040153987 0.009650732 0.0037051593 0.0021459926 -7.0639003e-06 -0.0058096745 0.013088477 -0.00082019874 -0.006645941 -0.0039044227 -0.018467216 -0.0026583618 -0.006640316 -0.0015093104 -0.00035315208 0.0064971647 2.2844624e-05 -0.0045446227 0.0022531317 0.0066039637 -0.00062881346 0.0052267862 -0.0063725878 -0.00043771067 -0.0007360875 -0.0060390853 0.0029364459 0.004361498 -0.002238896 -0.011888144 0.0061882623 -0.00040383855 0.004600415 -0.004441009 -0.0052609183 -0.011226053 0.0060521504 0.0051656 0.005718736 -0.009699929 0.00723628 -0.004151567 0.0031283775 0.0076814275 -0.002285278 0.007224543 0.007321505 -0.0010649252 -0.0025069015 -0.006490772 0.0060377596 -0.0023718744 0.0002554583 -0.006920064 0.009144373 -0.001518755 0.0011786572 -0.002810483 0.0121042775 0.010550279 -0.000409037 0.0095457295 0.0060298583 -0.0004344237 0.004681835 0.014803718 0.007690102 0.0046392796 -0.009764626 0.0074899965 -0.0026439684
9791162241875 -0.0049971878 0.006963944 0.00538966 0.00036717302 0.0014187943 -0.015613076 0.0077855233 0.017041681 -0.008064736 -0.0063677547 -0.005798388 -0.015409515 -0.0039508236 0.0023194877 -0.00028192575 -0.0068772417 0.0019395319 -0.011392445 -0.0017506792 -0.018456325 0.0031539635 0.0044455244 0.0036241808 -0.00628016 -0.0021357266 0.00011698522 -0.0068744984 -0.010199123 -0.0072246077 -0.00031570773 0.012752005 0.004961366 0.0009045253 -0.0018566854 -0.006560506 0.011703494 -0.0006688663 -0.0075934012 -0.0038550736 -0.022836352 0.001422817 -0.008724167 -0.0025896963 0.00068901683 0.009006817 -0.0032862194 -0.0035575854 0.0018308648 0.008956059 0.0017428915 0.005219949 -0.0066393013 4.3751184e-05 -0.0019997822 -0.006481017 0.004417947 0.0072654365 -0.0009995297 -0.014940862 0.008425283 -0.0015328773 0.004271919 -0.005629262 -0.007848661 -0.011621776 0.004823016 0.007125675 0.005483527 -0.010777882 0.009793206 -0.0028192794 0.0031103117 0.0075608087 -0.0006228671 0.008114474 0.0045270366 -0.0039132475 -0.00666363 -0.0098798275 0.007237671 -0.004692146 0.0009581797 -0.010029801 0.011229847 -0.00056826905 0.0032379576 0.0012354434 0.011583286 0.0125838285 0.0013439831 0.010567831 0.0050535644 -0.0027699615 0.004110917 0.01598915 0.012498098 0.0024716111 -0.013964366 0.008292018 -0.0008370141
9791163031727 -0.0068359897 0.008053327 0.004462451 0.0009802725 0.0007058393 -0.017647939 0.0063437405 0.02277211 -0.008322752 -0.006148363 -0.0059939376 -0.020459265 -0.0019654087 0.0021551475 -0.00090146106 -0.006273143 0.002697338 -0.013571036 -0.0024576029 -0.022961332 0.0043524182 0.0066549582 0.00364789 -0.004654914 -0.0044589615 0.0016220532 -0.009591568 -0.012981843 -0.0062363506 0.00032058085 0.016046071 0.0073953955 0.005315238 -0.0026201238 -0.008439736 0.01444648 -0.002079602 -0.01029941 -0.0043668333 -0.025756618 -0.000994507 -0.008750917 0.0011727782 -0.00085035915 0.009876029 -0.0020681634 -0.0055992603 0.00088441063 0.009479628 0.0027556329 0.0057915505 -0.008610397 -0.00073305727 -0.00085588894 -0.00509799 0.0058879806 0.0071242754 -0.002512043 -0.015119865 0.0072524366 -0.0010139532 0.0052078427 -0.004437105 -0.00780919 -0.015892502 0.00737166 0.0086302655 0.0073356414 -0.01330431 0.013481319 -0.006519304 0.0027854207 0.010709692 -0.0009107606 0.010544469 0.0066859806 -0.0029911052 -0.006223666 -0.012962825 0.0071729347 -0.0027938238 0.0010193421 -0.009881248 0.013344378 -0.001949296 0.0039706826 -0.0018790714 0.016773257 0.012238843 0.00054935203 0.015563003 0.0050914516 -0.0024502818 0.0069311284 0.019380353 0.011927127 0.0045130975 -0.011196388 0.008445308 -0.0013489533
9791163032731 -0.0077989893 0.0071791946 0.00460483 0.0008414762 0.002589902 -0.01660859 0.006403867 0.021089768 -0.0076965555 -0.005382663 -0.0061759977 -0.017514035 -0.0018813804 0.0022710327 -0.0013077765 -0.005279854 0.0030364753 -0.0112863565 -0.001809824 -0.018586924 0.002186101 0.0040798425 0.0023761275 -0.004402641 -0.0035976465 0.0010085487 -0.0076764273 -0.010342753 -0.007157523 0.0011173127 0.012801113 0.0058479668 0.0024785406 -0.00088486215 -0.0076396754 0.013797584 -0.001202176 -0.010268865 -0.0056329197 -0.022233643 0.00011326231 -0.009201794 -0.003152138 -0.00089168595 0.009279308 0.00064600614 -0.006098658 0.000286434 0.009683393 0.0032895517 0.0029842213 -0.008124602 -0.0019323312 0.0007749984 -0.0072155483 0.0037062415 0.0060463217 -0.0024452698 -0.015266704 0.007702516 0.0005713174 0.0050277347 -0.003108549 -0.0064724055 -0.01351762 0.0056917444 0.008289419 0.005625468 -0.010820921 0.011316386 -0.0042668935 0.0052584535 0.00878708 -0.0026569217 0.009784421 0.007376195 -0.0023883213 -0.0050816047 -0.009987235 0.00664202 -0.003387186 -0.0005020827 -0.008217633 0.013436416 -0.0026901395 0.00452508 -0.00038734023 0.013426928 0.012643236 -0.00019945236 0.0121812085 0.0062678843 -0.0016642889 0.0053071007 0.017003296 0.010282002 0.0040041925 -0.013474295 0.0079743285 -0.0012328929
9791165217167 -0.0065996274 0.008847602 0.0024377005 0.0022116594 0.0034077857 -0.014637675 0.0059931492 0.021118503 -0.007355405 -0.007095628 -0.007250675 -0.017936675 -0.003326132 0.0012004431 0.00065025076 -0.0074684424 0.0015339692 -0.011137014 -0.002354021 -0.020847904 0.00032091024 0.004783147 0.0037119954 -0.0041228733 -0.0027903605 -0.0010502209 -0.008829048 -0.01049724 -0.00697769 0.0016708722 0.012309323 0.007759242 0.005052167 -0.0018277669 -0.008769394 0.013647643 -0.0001317524 -0.00806247 -0.0045539336 -0.023224216 0.0004461609 -0.008088933 -0.0013921564 -0.0015661371 0.010341463 -0.0010894289 -0.0038908666 0.0013872875 0.008723044 0.0028111732 0.0043570125 -0.0067745517 -0.0009665489 5.5038785e-05 -0.0068841833 0.0034642112 0.007435317 -0.0031307382 -0.013014919 0.005367582 0.0004973787 0.0066164103 -0.0041394318 -0.008449495 -0.014079261 0.0055289334 0.008755926 0.00598697 -0.013644573 0.011294988 -0.0051081595 0.0037408916 0.008885672 -0.00021407667 0.0067455857 0.0066329176 -0.0024308674 -0.0061464156 -0.011074365 0.0068193707 -0.0015068529 -0.0009396445 -0.0064339233 0.011624481 -0.00062773644 0.0047762142 -0.0016631542 0.015014606 0.010532654 -0.0014854568 0.012513636 0.00779364 -0.00015847692 0.005798954 0.01820468 0.010260277 0.0045673354 -0.011483812 0.0074415607 -0.0025387986
9791161755748 -0.007451868 0.0073312917 0.0048133093 -0.00054445246 0.0017415527 -0.01687596 0.0042493874 0.0182474 -0.008367931 -0.0055541852 -0.007212448 -0.014820057 -0.0009846564 0.002697992 2.794331e-05 -0.006808231 0.0012712536 -0.0121365385 -0.0039761015 -0.019506577 0.0046227137 0.0011417118 0.00097227807 -0.0042930776 -0.003189033 -0.0007505358 -0.009186669 -0.008600278 -0.005994131 0.0007040753 0.011165512 0.0069780187 0.0047299853 -0.0023910827 -0.00822083 0.010724415 5.7697394e-05 -0.007476465 -0.0057477364 -0.023453824 -0.00073824514 -0.0050728302 -0.0041934215 -0.0025945294 0.0077053807 -0.0012665142 -0.0039237356 0.0032887957 0.004104691 0.0051319143 0.0032273172 -0.009294038 -0.004351688 -0.0019027432 -0.0031649966 0.0067117186 0.0020957715 -0.001924128 -0.01649591 0.0048970263 0.0014532207 0.007022648 -0.0046274345 -0.006624136 -0.012472348 0.0061300853 0.008532808 0.005248036 -0.011943706 0.012436065 -0.004867626 0.004647548 0.008487963 -0.0024734202 0.0088621285 0.009524869 -0.005420122 -0.008635335 -0.0086078625 0.0036177456 -0.0005298206 -0.0004624902 -0.008704734 0.014230719 -0.0034719924 0.0033680338 0.000513868 0.012534531 0.010130043 -0.00014417776 0.014342037 0.0034871958 -0.0030172062 0.007625933 0.0168758 0.009112715 0.0033249427 -0.009954611 0.0067872233 -0.0026358203
9791158392703 -0.005419772 0.007121614 0.0015026258 -0.00067316473 0.001464911 -0.013937785 0.0047521265 0.017871434 -0.0066653714 -0.0056296345 -0.0043015988 -0.015307807 -0.00050035166 0.0023301006 -0.00086322345 -0.005843312 0.00027781635 -0.011638186 -0.0010849205 -0.015596707 0.002616646 0.002931663 0.002090492 -0.0021730927 -0.0018854027 0.00015514252 -0.0060660494 -0.01062401 -0.0044054687 0.0011652356 0.009316229 0.0060571097 0.0027632052 0.00061529584 -0.0051123896 0.012555198 -0.0014631337 -0.0066944463 -0.003099051 -0.019089645 0.000933757 -0.007792003 -0.0010388693 -0.0012047001 0.00610928 0.0004884295 -0.0043614786 0.0015924515 0.008194921 0.0033025309 0.0033681758 -0.0059983237 3.6021345e-05 0.0003276823 -0.006507721 0.0026323711 0.0043859347 -0.0022900065 -0.012057884 0.0058522937 -0.0010487598 0.005594687 -0.003018979 -0.007509427 -0.01205574 0.00527072 0.006216822 0.0057426337 -0.011128655 0.009834273 -0.0037629302 0.004816828 0.006816457 -0.0030171825 0.007604667 0.00576911 -0.003908855 -0.0062684063 -0.008397885 0.0068791523 -0.0024030432 3.619291e-05 -0.0072443034 0.009809812 -0.00062792486 0.003575268 0.00035078326 0.013385369 0.01165739 0.0006106617 0.009576775 0.0060752295 -0.0018647654 0.0055819913 0.013286214 0.006893474 0.0029648577 -0.009790919 0.0073749055 -0.0017264435
9791163032625 -0.0059413714 0.008510934 0.004224671 -0.001183519 0.0017516123 -0.015224649 0.0070634745 0.018324833 -0.0062106266 -0.0050553624 -0.0047424333 -0.01444898 -0.0020903733 0.0005700052 -0.00021820777 -0.005948173 0.0030815785 -0.011125885 -0.0013868423 -0.015985074 0.0014289024 0.0046066437 0.0037397516 -0.0026698997 -0.004669992 0.0002780755 -0.006901483 -0.010143195 -0.0037783303 0.0006682141 0.01021813 0.0036022814 0.0024291999 -0.0011485438 -0.0057854108 0.013386452 0.00019649656 -0.008669932 -0.005089763 -0.019380258 -0.0019373309 -0.0071874056 -0.0020440454 -0.00050330587 0.007884963 0.00046933276 -0.005713308 0.0008946682 0.008776721 0.001956362 0.0020646283 -0.00786239 -0.0009985768 -0.00042669845 -0.0071081277 0.001956257 0.007550619 -0.00085423957 -0.013191201 0.007994702 -0.00045272117 0.0028749632 -0.0027738153 -0.005219339 -0.010243583 0.005232191 0.0070351805 0.0046538194 -0.010807926 0.009566211 -0.0057763257 0.004222059 0.008326276 -0.0023859497 0.0077572884 0.007219176 -0.0034015083 -0.005311537 -0.009608234 0.00395783 -0.004381372 -0.0007669803 -0.005990663 0.011017669 -0.0020528557 0.004709232 -0.00029582126 0.013450079 0.011430312 0.0009859592 0.013397544 0.005719672 -0.0029670456 0.003532674 0.015075674 0.008768353 0.004280417 -0.011203883 0.006640956 -0.0028750172
9791158392369 -0.0052259723 0.010131737 0.0024496838 -0.0010411931 0.0027855772 -0.016210524 0.0075939987 0.020718921 -0.008817584 -0.005788444 -0.0062610772 -0.015821695 -0.0047112782 0.0016386458 -0.00030638964 -0.0063564316 0.0037189338 -0.010819798 -0.0013397357 -0.018523995 0.0025587643 0.0021456138 0.002337695 -0.0033320559 -0.0039631403 -0.0011930465 -0.0062474515 -0.012230099 -0.006538211 0.0028992612 0.012880682 0.0055400548 0.0050343615 -0.0016405191 -0.005911331 0.015798917 0.001205866 -0.009878059 -0.007469866 -0.02169559 -0.0007493803 -0.008476231 -0.002077785 -0.0017443036 0.009102577 -0.0013403387 -0.0050186524 -0.00021387047 0.009109245 0.0032269785 0.006650695 -0.009585851 -0.001156488 0.0007241212 -0.008527492 0.003002364 0.0054062246 -0.0042339955 -0.014969781 0.0065461504 0.00085131783 0.0059606098 -0.001697972 -0.008045192 -0.0104374485 0.0045545897 0.009422809 0.0076301936 -0.013018028 0.009878281 -0.0057324343 0.004199076 0.007877882 -0.0027414323 0.010343287 0.006483834 -0.004989599 -0.0054263463 -0.0089494875 0.008378414 -0.002917951 0.00015509069 -0.0077764667 0.012388567 -0.0015797813 0.0025606044 0.0001504872 0.016588496 0.013365288 -0.0025023099 0.013168312 0.007462127 -0.0031172056 0.0046962653 0.020630848 0.009437766 0.0040184315 -0.013696201 0.006867124 -0.0023070378
9791190665209 -0.0049324245 0.008632541 0.0037729477 0.00057807734 0.0024358176 -0.01720503 0.0068511358 0.023175452 -0.008064083 -0.0067737647 -0.0060595395 -0.01896174 -0.0037478174 0.0021915515 -0.0011635274 -0.0061061285 0.0029201221 -0.012115799 -0.0018504775 -0.020030035 0.0035599188 0.0032014959 0.00264376 -0.0056065884 -0.0040064487 0.0010171559 -0.00879399 -0.01108469 -0.0081477575 0.0012960566 0.014564436 0.006331371 0.00321979 -0.003055973 -0.0067808325 0.013532466 0.0006383516 -0.0102863815 -0.003191999 -0.024660682 -0.0005587648 -0.009866625 -0.00074901426 -0.0009389824 0.009239938 -0.0020038576 -0.005544 0.0010686661 0.010132559 0.0034655663 0.005013027 -0.009822723 -0.0006830161 -0.00020228472 -0.0071139806 0.0045615486 0.007421041 -0.0023287062 -0.016236454 0.006875703 -0.0018391286 0.0075601554 -0.003629514 -0.008204393 -0.013109074 0.008592665 0.008906172 0.0064875716 -0.011792213 0.011773749 -0.0029366936 0.004313743 0.010389443 -0.0012976872 0.009598623 0.006496704 -0.0033197321 -0.005819693 -0.01068712 0.006329122 -0.004792538 0.00052911474 -0.008684455 0.012428967 -0.0021456187 0.0034711536 9.867769e-05 0.014418046 0.011827737 0.0006446092 0.014670363 0.0072083008 -0.0029200306 0.005825435 0.019197881 0.010906459 0.0046778633 -0.01328355 0.009081606 -0.0014316955
9791165213183 -0.0055160215 0.0054987883 0.002536761 -0.00057693204 -0.00013683074 -0.011532756 0.0054217866 0.014934522 -0.006060033 -0.006774876 -0.00508943 -0.013297854 0.0018116217 0.0021947303 0.00019772963 -0.0039017738 0.0018783164 -0.008509968 -5.9484715e-05 -0.014624721 0.0021978682 0.0013503208 0.0022544845 -0.0039585857 -0.0027889519 0.0009020919 -0.008262344 -0.009066688 -0.0044666086 0.0018841061 0.009783686 0.004433982 0.0035509185 0.00034716047 -0.0038065622 0.010144691 -0.002113703 -0.005179861 -0.0041074427 -0.018591492 0.0022500555 -0.0067133335 0.0005228856 -0.00191363 0.008908336 -0.0017678575 -0.003269907 0.0014863249 0.005563554 0.003942548 0.003397597 -0.004539478 0.00043598772 0.0014121897 -0.0072499746 0.0045282743 0.0057252473 -0.0024643766 -0.010253934 0.0032401215 0.00028160834 0.004625174 -0.00069912657 -0.006742979 -0.010951396 0.005057589 0.008456662 0.003775492 -0.008296073 0.009535972 -0.0021295922 0.002051135 0.008049463 -0.0004504794 0.0071259267 0.006330393 -0.00064776134 -0.0065816753 -0.006932553 0.0058789523 -0.0028316667 0.00155888 -0.0065012476 0.009755178 -0.00032704155 0.0024332502 -0.0016370197 0.012443633 0.008347079 8.9512876e-05 0.010756527 0.003267609 -0.0038826317 0.0045129377 0.011632358 0.008204356 0.003930074 -0.008903399 0.007917249 -0.0009050972
9791162243428 -0.0076112603 0.009019055 0.003693367 -0.000399228 0.0018231842 -0.017983524 0.0062653087 0.023179164 -0.008552236 -0.007318232 -0.006897479 -0.019681977 -0.0048911716 0.0027127687 -0.00039604807 -0.0060778395 0.0015807231 -0.012043122 -0.0018390827 -0.023170033 0.0025042247 0.0047522 0.0037520938 -0.004120947 -0.0033928426 0.0011170659 -0.00813602 -0.012993572 -0.008397363 0.0008107333 0.013991567 0.008531701 0.005275906 -0.0019329115 -0.0069335327 0.014791328 -6.5389446e-05 -0.0113257645 -0.0045247925 -0.025360739 0.00025503055 -0.010808 -0.0025037236 -0.0022436916 0.010198905 -0.0022853266 -0.0065227686 0.0009047537 0.010666132 0.0036473137 0.004957716 -0.008236498 -0.00033285268 -0.0010860752 -0.007047489 0.004267051 0.006968024 -0.0030754306 -0.017104324 0.007394262 0.0005931585 0.007345921 -0.004542875 -0.008064957 -0.014502578 0.007817298 0.007969925 0.0076055313 -0.015407084 0.013571824 -0.0052902265 0.005202495 0.009193789 -0.002464267 0.011042903 0.005678991 -0.002993272 -0.0061805113 -0.01064649 0.0073577175 -0.0024029112 -0.0021945192 -0.010185118 0.013228042 -0.0006669896 0.00371977 0.0003184487 0.01699726 0.013118039 0.00064084044 0.014240449 0.006893794 -0.0020160628 0.0067481557 0.020428598 0.011598796 0.0059052417 -0.014448087 0.009870622 -0.0012919853
9791189909178 -0.00692971 0.008154159 0.0026630727 0.0012876523 0.0013666156 -0.014998736 0.0062327944 0.020017805 -0.008910899 -0.0054623582 -0.0060737203 -0.01754764 -0.0011250094 0.0030819874 -0.0005023046 -0.005715966 0.0023779164 -0.01220344 -0.0025789046 -0.019661853 0.0039451066 0.0056927116 0.0043578693 -0.005055573 -0.002464938 0.0019578303 -0.008301878 -0.01017085 -0.0057738046 0.0008057082 0.014919661 0.0063309604 0.003580016 -0.0026237648 -0.0073486855 0.013750231 -0.0006611884 -0.009941186 -0.0053028692 -0.02214367 -0.00081468484 -0.00858005 -0.0016641536 -0.0018221622 0.009102284 -0.0014409098 -0.005539924 0.0009275075 0.008072133 0.0027109422 0.006046553 -0.009093681 -0.00070531794 -0.0004715695 -0.0054083127 0.004827966 0.005646874 -0.0022622496 -0.015047073 0.0060020583 -7.8542056e-05 0.005235433 -0.0041848547 -0.00522445 -0.014320303 0.00720836 0.007827041 0.00560081 -0.011237173 0.0129772015 -0.005833014 0.0035642306 0.00851866 -0.0015274439 0.00824167 0.0051497747 -0.0029385954 -0.006493722 -0.010753409 0.0081421705 -0.0031130516 -0.0008897505 -0.009656238 0.011465487 -0.0009973089 0.0018367039 -0.0009598981 0.013265709 0.011361338 0.00068620977 0.0136622 0.00523375 -0.0016363802 0.0062038405 0.018096788 0.0109553775 0.003655476 -0.013126339 0.008175581 -0.0016370902
9791163032618 -0.0063762693 0.005557861 0.0025273561 0.0011601791 0.0020724095 -0.013516458 0.003985 0.015853107 -0.005057164 -0.0038843984 -0.0042915107 -0.014394865 -0.001609203 0.0004558927 0.0012968348 -0.005318604 0.0039704866 -0.00856143 0.00043531234 -0.015415011 0.002714813 0.002355298 0.0013678716 -0.0022537902 -0.00254338 0.0028258746 -0.007184952 -0.009305395 -0.004571871 0.0012786096 0.011144142 0.0033912524 0.00074985856 -0.0014541446 -0.0051954323 0.010645553 -0.00091636553 -0.010184625 -0.0032096915 -0.018489385 -0.00054339314 -0.006308625 -0.0027251148 0.0018517432 0.007982627 -0.0010699787 -0.0050363066 0.0004410931 0.006112921 0.003357667 0.0037361532 -0.006327635 -0.0023585418 -0.000624441 -0.0048242994 0.0028723683 0.00507589 7.2281175e-05 -0.012386588 0.0070211533 -9.780733e-05 0.0039289924 -0.0028784713 -0.0057687196 -0.010767857 0.0050576744 0.0050359955 0.0035855826 -0.009096125 0.008881642 -0.0038699412 0.004482825 0.0076647233 9.5660755e-05 0.0064272024 0.003956888 -0.002624077 -0.0035781974 -0.0059063532 0.0050661694 -0.0032430356 0.0011380969 -0.0068328325 0.010295448 -0.0005771098 0.0033138434 -0.0012504366 0.010107215 0.010044325 0.0004154595 0.0110378545 0.0061994554 -0.0022506441 0.0044275345 0.013581699 0.009384521 0.003693145 -0.009953059 0.006164073 -0.0029099933
9791165214371 -0.004660895 0.00610626 0.0033624037 7.8189456e-05 0.00082458457 -0.014781835 0.0045114704 0.017038407 -0.0049502593 -0.004780149 -0.004630548 -0.015132593 -0.00148632 0.0012983211 -0.0014261492 -0.0053358227 -6.9004396e-05 -0.0098295985 -0.0023075817 -0.01660406 0.0005157303 0.0029194697 0.0013735527 -0.0033039288 -0.0043318365 0.0032748622 -0.0075372965 -0.011213262 -0.0042845835 0.0011009573 0.012224526 0.0042379173 0.002185722 -0.0034872957 -0.00650967 0.013918186 -0.0014012045 -0.008100659 -0.0029260924 -0.01921081 -0.00048427397 -0.009331094 -0.0039782333 -0.003046004 0.007821464 -0.0023107247 -0.002811031 0.0009147867 0.009246419 0.0022178106 0.0029065434 -0.006483435 0.00096168055 -0.001325608 -0.007478795 0.005180575 0.00459945 -0.0026843674 -0.011055039 0.0051885513 0.00032428102 0.005384909 -0.004740254 -0.004132176 -0.010561775 0.00517458 0.008076013 0.0032782406 -0.010336784 0.010237753 -0.0038765033 0.0033896775 0.008182109 -0.0009344566 0.004657615 0.007946126 -0.0028082884 -0.006463188 -0.008758739 0.00643442 -0.00036530368 -0.0010420282 -0.0103172595 0.010635491 -0.0027638448 0.0046773236 0.0016219441 0.013069794 0.00952861 -0.0011978229 0.010828967 0.00559368 -0.003220153 0.0047740936 0.014818123 0.008324779 0.0021070573 -0.012076333 0.006317797 -0.0020735613
9791163031567 -0.0069740913 0.008189825 0.0043278597 -0.0009707928 0.0014277122 -0.0146544 0.0047897114 0.018989777 -0.006965152 -0.006108369 -0.0062792334 -0.017383821 -0.0008958666 0.0033901907 0.0018053467 -0.005536012 0.0018695736 -0.010910667 -0.0030143608 -0.019050946 0.0038368087 0.0043289713 0.003327573 -0.005361915 -0.0033094322 0.001599887 -0.007598177 -0.010157391 -0.0052726306 0.001725411 0.01330116 0.004959757 0.0019631365 -0.0016705724 -0.0069760536 0.012189352 0.00018287601 -0.008184745 -0.0055259774 -0.021174315 0.00050138327 -0.007754708 -0.0004778766 -0.0020229195 0.00794244 -0.0026361244 -0.00612553 0.0020214797 0.007885781 0.0031967743 0.0044130846 -0.008099217 -0.0006336127 0.00072596857 -0.0059109475 0.0055297646 0.005787627 -0.0003321101 -0.013513495 0.006202084 -0.00095411926 0.005223256 -0.004041024 -0.0062386105 -0.012195633 0.0067488216 0.008309702 0.0036913236 -0.009915367 0.012546872 -0.0045590815 0.004386008 0.009404308 -0.0021410282 0.008761479 0.005265242 -0.0029420962 -0.0059022163 -0.009784725 0.0065003037 -0.0037745764 -0.0004051455 -0.008085286 0.011183532 -0.0022000393 0.0038813846 -0.002874781 0.012593982 0.009822996 0.0011133656 0.011901884 0.0051482576 -0.0030280678 0.002786959 0.016648622 0.010310796 0.0048357393 -0.012396862 0.0071820966 -0.000663704
9791161755694 -0.0059581725 0.0056126853 0.0032374603 -0.00067712495 0.0020790442 -0.011942649 0.0030587234 0.017871449 -0.0054118424 -0.0053010657 -0.005766223 -0.014399796 -0.002701781 0.0016835994 0.00030248534 -0.0065168487 0.00097056327 -0.008492663 -0.001275495 -0.015993679 0.000106167114 0.0032695893 0.00085323025 -0.0025129463 -0.0020726996 0.001447331 -0.0077914586 -0.008068078 -0.005402672 0.0007427346 0.0088042 0.004887191 0.0035650062 -0.000330126 -0.0060307877 0.009692133 -0.001396768 -0.009669029 -0.004346288 -0.015919866 0.00069625734 -0.0059227706 -0.0013262706 -0.0028934658 0.0074641933 -0.0010575976 -0.0027133483 -0.0006965059 0.0063705114 0.0030844207 0.004252573 -0.0073794485 -0.00025797018 0.00023410544 -0.004633554 0.0010683116 0.00578985 -0.0016589136 -0.01067363 0.006407197 -0.0016460401 0.004133826 -0.002395024 -0.0057091597 -0.011212601 0.004695639 0.0062057404 0.003946622 -0.011394309 0.009107781 -0.0017030528 0.002983281 0.0064489176 -0.0015337883 0.0066163773 0.0039080707 -0.003947794 -0.006617325 -0.008388659 0.0065596886 -0.0029772723 0.0004188697 -0.006241598 0.010341721 -0.0011300332 0.004394031 0.0006926446 0.012057664 0.008262987 0.0014126255 0.009646011 0.004611601 -0.00090902176 0.004949082 0.014278309 0.0074368217 0.0016694509 -0.0103396755 0.005969644 7.6527e-05
9791191214758 -0.0041477554 0.0061272755 0.0035437706 -0.00013395376 8.857536e-05 -0.013331724 0.007083925 0.018378597 -0.0058586844 -0.00592833 -0.0040510525 -0.01415643 -0.0019579257 0.00013510774 -0.0026930706 -0.00716681 0.00084808946 -0.0114237275 -0.0035593456 -0.018340033 0.0033928629 0.00429903 0.0033933753 -0.0045878817 -0.0012661642 0.0012717925 -0.0053488966 -0.011046452 -0.006047217 0.00086877256 0.010473438 0.008281384 0.003629564 -0.0011337845 -0.004398598 0.011513279 0.0006317964 -0.009975087 -0.0055885063 -0.019300817 -0.0011850243 -0.009995805 -0.0026293148 -0.001180109 0.009390206 -8.75428e-05 -0.0028175148 0.00042464168 0.008934139 0.003279043 0.0046722707 -0.008986282 -0.0016929208 -0.00013933184 -0.006619789 0.004118199 0.0051593506 -0.0008835086 -0.012874034 0.004985336 0.000802969 0.0061889384 -0.002306825 -0.006603764 -0.011180555 0.00529414 0.005949265 0.0048487824 -0.0129247075 0.009613143 -0.004227415 0.0037489296 0.008210868 -0.0021192126 0.0074240915 0.0052972394 -0.0018530596 -0.0057152226 -0.008408452 0.0069275503 -0.0037269215 -0.0015773161 -0.007899832 0.011538003 -0.0025579662 0.0027207443 0.0006790071 0.011432835 0.009694675 0.0001688835 0.01247591 0.005668421 -0.00032990324 0.005368531 0.015675377 0.008778576 0.0069344053 -0.01125164 0.0066967877 -0.0014136967
