4 100
book_1 3.490219e-05 2.7553358e-06 0.00053922494 0.00019515517 -0.0008054963 -0.0007979855 0.00011247824 0.0016901911 -0.00079258834 -0.00025092257 0.0012626956 -0.0013650332 0.0002733815 -0.00054848654 -0.0016433421 0.0002536802 -4.8003232e-05 -0.001650434 0.000167726 -0.0005251536 0.000116124356 -0.00077500107 0.00020151831 -0.0003905508 0.00031273963 0.00012543298 0.00045280575 -0.00050022005 0.000597169 -0.0008978016 0.00087403913 0.00088970945 0.00050177355 -0.00095887476 0.00034126386 0.00061510125 0.00037674478 -0.0022652133 0.00053005427 -0.0015212082 0.0005226728 -0.0012858167 -0.0011862434 -0.0009060559 0.00016487569 -0.0015536951 -0.0004710939 0.00046090796 0.0012021625 -0.0001714809 0.0015940984 0.00047905522 0.0005222752 0.0006322727 -0.0008739085 0.0005987054 0.000998614 0.0012033305 -0.0001879424 0.00019071397 0.00094710785 0.0004561724 0.0005038491 -0.000592413 -0.002602906 6.9663016e-05 8.128513e-05 0.00088477106 -0.0010206742 0.0007841787 -0.00086127 0.000115659794 0.001217927 -0.00014523113 0.0013389387 0.00016090165 0.00025150372 -0.00015510891 -0.0006606752 0.0015354906 9.636714e-05 0.0015076897 3.399551e-05 0.0018819645 -0.0018689916 1.213619e-05 -0.00013360208 -0.00044159967 -0.00023316544 -0.00026128782 0.00031751627 0.0013741759 0.0006948999 0.00077257375 0.00077413925 0.0005263848 -0.0008825704 -0.0011199056 0.00073209003 -0.00040099458
book_2 0.00091766915 -0.0013551058 0.0011257293 0.000874969 -0.0018536536 -0.00063164317 0.0020139029 0.00024163396 -0.0003570286 -0.00042334144 0.0003180299 0.0007032255 -0.0023388555 0.0007261553 0.00019289847 0.0004916771 -0.0023066064 -0.00111559 -0.0011824016 -0.0031919172 0.0019079252 0.0035726868 -0.00083238323 6.6106695e-05 -0.0007344089 -0.0005215787 -0.0006490286 0.00079154724 -0.00050761475 0.0027457948 -0.00036373807 0.00018255661 0.00021690792 -0.00047135903 -0.00073448615 0.0008363381 7.844907e-05 -0.00064420386 -0.0018463131 -0.0007488535 -0.0004959134 -0.00010248154 -0.00042543252 0.001525742 0.002316037 -0.0018725905 0.0009994877 0.0015043381 0.002814575 0.0021088945 -0.0015042945 -0.0017057331 0.00066725555 -0.00029784086 0.0004711097 0.001779105 0.0010889558 0.001111306 0.0005790037 0.0018737235 -0.0014394298 -0.00038631057 -0.0007652294 -0.001207017 -0.0012384302 0.0025202867 0.00090556184 0.0013238915 -0.0024895153 6.227028e-05 0.00048695196 0.0018537184 0.0017943158 -0.00032111586 -0.0015802818 0.0015247505 0.0011753063 -0.0009678199 -0.0017419137 -0.0019262902 0.00026325995 0.002312555 -0.0008996118 0.0026797603 -0.00015452282 0.0012595913 0.0012883882 0.0011821252 -0.00015319469 0.0017805182 0.0011871826 0.00047831362 -0.0010631862 -0.00077437045 0.00036706394 0.0011029924 0.0008749895 -0.0008186885 0.0025714766 -0.0009239324
book_3 -0.0012605875 0.0008688755 0.0012394198 6.74923e-05 2.8985674e-05 -0.00092584355 0.00025581152 0.0010383787 -0.0011058031 -0.00018147471 0.0006949903 -0.0010363504 0.00090899534 -1.3099257e-05 0.0005960058 -0.000513965 -0.0008197597 -0.0012291308 -0.0005100578 -0.0012097402 -0.00040871446 0.0007834595 0.0012610544 0.00071262213 -0.00077811006 -0.0006904705 -9.238123e-05 -0.00077818934 0.0005326457 8.288918e-05 0.00095820194 -0.00056082936 0.00038495482 -0.0006520915 -0.000416799 0.0010774528 0.0009451083 0.00027748445 0.0005747591 -0.0017906924 0.0007465925 -0.0007830187 -0.0016580472 0.0001954384 0.000217583 0.0006323581 -8.429105e-05 -0.0003784391 0.0013506515 -0.000433876 -0.00020723918 0.00043712545 0.00033660606 -0.0008254326 -0.0001302774 2.7070777e-05 -0.0010123898 -0.0008913835 0.00044402012 0.0005177008 0.0006120778 0.0014854339 -0.00040753064 -0.00014063726 -0.0012501997 0.00073905656 0.0012009145 0.00024003247 -0.0016798422 0.0010379415 -0.00085580494 0.00067254045 0.0011785789 0.00056808494 0.00057118037 0.0006603674 -0.0013607846 -0.0002955267 -0.0015469523 -6.351157e-05 0.00018693102 -7.7641555e-05 -0.0005882606 0.001704536 -0.0009680945 0.00035849854 2.2874672e-05 0.00049820606 0.0011498904 -0.0016698013 -0.00032872322 4.0780295e-05 -0.0003498756 0.0001960508 0.0012723487 0.00140105 0.00031021098 0.0003023666 -0.00092360465 -0.0008730947
book_4 -0.0006819893 -0.0012101829 0.0020765031 0.00044398886 -0.0004657057 -0.0013798499 0.00019008723 0.0011333899 -0.0018609883 -0.001375322 0.00051738846 -0.0011262045 -0.0015061542 0.0009497093 -3.9027404e-05 -0.00088543765 -0.0013958627 -0.00029895097 -0.0014162848 -0.0015503791 -0.0011238965 0.0020690789 0.00034551937 0.0005885738 -0.0005634848 -0.0005232258 -0.0011923392 0.0008994126 -0.0018767229 -0.0009082871 -6.828121e-05 0.00055139745 0.0024260262 0.0009444793 0.00015555084 0.0009544869 0.0024853533 -0.00026093333 -0.0014283542 -0.00149818 0.0015599872 0.00027647053 -0.00082522276 -2.1772068e-05 9.0972266e-05 0.00060849113 -0.0013806224 0.0011664956 -0.0007925978 0.00030358485 0.00060534343 -0.0018407813 -4.180381e-05 -0.00087074965 -0.00063797215 0.0044422923 0.00075101637 -0.00093531056 0.00034172268 0.0006304946 0.00083653035 0.00032235717 -0.0015809797 0.0006075793 -0.001347889 0.000110074754 0.00037050757 0.0015828948 -0.0012159138 0.0008832406 -0.0005140273 -0.00086665776 0.00243658 -0.0015367743 0.0025692568 0.00045545574 0.0020582152 -0.0020507309 -0.0019720474 0.00030316206 -0.0012616701 0.0014382844 -0.001544504 0.0016443235 -0.0013455352 0.0012895943 -0.0008727998 -0.00025519604 0.0010050132 -0.00038872514 0.0025096925 -0.00012066611 -0.001130744 -0.00020911235 0.0015081896 0.0016130814 -0.00012669872 0.0014067533 -0.00042961573 0.00013987841
